net
{
}
node HISTORY_TRUE
{
	states = ( "false" "true" );
}
node HISTORY_FALSE
{
	states = ( "false" "true" );
}
node CVP_LOW
{
	states = ( "false" "true" );
}
node CVP_NORMAL
{
	states = ( "false" "true" );
}
node CVP_HIGH
{
	states = ( "false" "true" );
}
node PCWP_LOW
{
	states = ( "false" "true" );
}
node PCWP_NORMAL
{
	states = ( "false" "true" );
}
node PCWP_HIGH
{
	states = ( "false" "true" );
}
node HYPOVOLEMIA_TRUE
{
	states = ( "false" "true" );
}
node HYPOVOLEMIA_FALSE
{
	states = ( "false" "true" );
}
node LVEDVOLUME_LOW
{
	states = ( "false" "true" );
}
node LVEDVOLUME_NORMAL
{
	states = ( "false" "true" );
}
node LVEDVOLUME_HIGH
{
	states = ( "false" "true" );
}
node LVFAILURE_TRUE
{
	states = ( "false" "true" );
}
node LVFAILURE_FALSE
{
	states = ( "false" "true" );
}
node STROKEVOLUME_LOW
{
	states = ( "false" "true" );
}
node STROKEVOLUME_NORMAL
{
	states = ( "false" "true" );
}
node STROKEVOLUME_HIGH
{
	states = ( "false" "true" );
}
node ERRLOWOUTPUT_TRUE
{
	states = ( "false" "true" );
}
node ERRLOWOUTPUT_FALSE
{
	states = ( "false" "true" );
}
node HRBP_LOW
{
	states = ( "false" "true" );
}
node HRBP_NORMAL
{
	states = ( "false" "true" );
}
node HRBP_HIGH
{
	states = ( "false" "true" );
}
node HREKG_LOW
{
	states = ( "false" "true" );
}
node HREKG_NORMAL
{
	states = ( "false" "true" );
}
node HREKG_HIGH
{
	states = ( "false" "true" );
}
node ERRCAUTER_TRUE
{
	states = ( "false" "true" );
}
node ERRCAUTER_FALSE
{
	states = ( "false" "true" );
}
node HRSAT_LOW
{
	states = ( "false" "true" );
}
node HRSAT_NORMAL
{
	states = ( "false" "true" );
}
node HRSAT_HIGH
{
	states = ( "false" "true" );
}
node INSUFFANESTH_TRUE
{
	states = ( "false" "true" );
}
node INSUFFANESTH_FALSE
{
	states = ( "false" "true" );
}
node ANAPHYLAXIS_TRUE
{
	states = ( "false" "true" );
}
node ANAPHYLAXIS_FALSE
{
	states = ( "false" "true" );
}
node TPR_LOW
{
	states = ( "false" "true" );
}
node TPR_NORMAL
{
	states = ( "false" "true" );
}
node TPR_HIGH
{
	states = ( "false" "true" );
}
node EXPCO2_ZERO
{
	states = ( "false" "true" );
}
node EXPCO2_LOW
{
	states = ( "false" "true" );
}
node EXPCO2_NORMAL
{
	states = ( "false" "true" );
}
node EXPCO2_HIGH
{
	states = ( "false" "true" );
}
node KINKEDTUBE_TRUE
{
	states = ( "false" "true" );
}
node KINKEDTUBE_FALSE
{
	states = ( "false" "true" );
}
node MINVOL_ZERO
{
	states = ( "false" "true" );
}
node MINVOL_LOW
{
	states = ( "false" "true" );
}
node MINVOL_NORMAL
{
	states = ( "false" "true" );
}
node MINVOL_HIGH
{
	states = ( "false" "true" );
}
node FIO2_LOW
{
	states = ( "false" "true" );
}
node FIO2_NORMAL
{
	states = ( "false" "true" );
}
node PVSAT_LOW
{
	states = ( "false" "true" );
}
node PVSAT_NORMAL
{
	states = ( "false" "true" );
}
node PVSAT_HIGH
{
	states = ( "false" "true" );
}
node SAO2_LOW
{
	states = ( "false" "true" );
}
node SAO2_NORMAL
{
	states = ( "false" "true" );
}
node SAO2_HIGH
{
	states = ( "false" "true" );
}
node PAP_LOW
{
	states = ( "false" "true" );
}
node PAP_NORMAL
{
	states = ( "false" "true" );
}
node PAP_HIGH
{
	states = ( "false" "true" );
}
node PULMEMBOLUS_TRUE
{
	states = ( "false" "true" );
}
node PULMEMBOLUS_FALSE
{
	states = ( "false" "true" );
}
node SHUNT_NORMAL
{
	states = ( "false" "true" );
}
node SHUNT_HIGH
{
	states = ( "false" "true" );
}
node INTUBATION_NORMAL
{
	states = ( "false" "true" );
}
node INTUBATION_ESOPHAGEAL
{
	states = ( "false" "true" );
}
node INTUBATION_ONESIDED
{
	states = ( "false" "true" );
}
node PRESS_ZERO
{
	states = ( "false" "true" );
}
node PRESS_LOW
{
	states = ( "false" "true" );
}
node PRESS_NORMAL
{
	states = ( "false" "true" );
}
node PRESS_HIGH
{
	states = ( "false" "true" );
}
node DISCONNECT_TRUE
{
	states = ( "false" "true" );
}
node DISCONNECT_FALSE
{
	states = ( "false" "true" );
}
node MINVOLSET_LOW
{
	states = ( "false" "true" );
}
node MINVOLSET_NORMAL
{
	states = ( "false" "true" );
}
node MINVOLSET_HIGH
{
	states = ( "false" "true" );
}
node VENTMACH_ZERO
{
	states = ( "false" "true" );
}
node VENTMACH_LOW
{
	states = ( "false" "true" );
}
node VENTMACH_NORMAL
{
	states = ( "false" "true" );
}
node VENTMACH_HIGH
{
	states = ( "false" "true" );
}
node VENTTUBE_ZERO
{
	states = ( "false" "true" );
}
node VENTTUBE_LOW
{
	states = ( "false" "true" );
}
node VENTTUBE_NORMAL
{
	states = ( "false" "true" );
}
node VENTTUBE_HIGH
{
	states = ( "false" "true" );
}
node VENTLUNG_ZERO
{
	states = ( "false" "true" );
}
node VENTLUNG_LOW
{
	states = ( "false" "true" );
}
node VENTLUNG_NORMAL
{
	states = ( "false" "true" );
}
node VENTLUNG_HIGH
{
	states = ( "false" "true" );
}
node VENTALV_ZERO
{
	states = ( "false" "true" );
}
node VENTALV_LOW
{
	states = ( "false" "true" );
}
node VENTALV_NORMAL
{
	states = ( "false" "true" );
}
node VENTALV_HIGH
{
	states = ( "false" "true" );
}
node ARTCO2_LOW
{
	states = ( "false" "true" );
}
node ARTCO2_NORMAL
{
	states = ( "false" "true" );
}
node ARTCO2_HIGH
{
	states = ( "false" "true" );
}
node CATECHOL_NORMAL
{
	states = ( "false" "true" );
}
node CATECHOL_HIGH
{
	states = ( "false" "true" );
}
node HR_LOW
{
	states = ( "false" "true" );
}
node HR_NORMAL
{
	states = ( "false" "true" );
}
node HR_HIGH
{
	states = ( "false" "true" );
}
node CO_LOW
{
	states = ( "false" "true" );
}
node CO_NORMAL
{
	states = ( "false" "true" );
}
node CO_HIGH
{
	states = ( "false" "true" );
}
node BP_LOW
{
	states = ( "false" "true" );
}
node BP_NORMAL
{
	states = ( "false" "true" );
}
node BP_HIGH
{
	states = ( "false" "true" );
}
potential ( LVFAILURE_TRUE  )
{
	data = (0.950000 0.050000) ;
}
potential ( LVFAILURE_FALSE | LVFAILURE_TRUE  )
{
	data = ((0.000000 1.000000)(1.0 0.0)) ;
}
potential ( HISTORY_TRUE | LVFAILURE_TRUE LVFAILURE_FALSE  )
{
	data = (((1.0 0.0)(0.990000 0.010000))((0.100000 0.900000)(1.0 0.0))) ;
}
potential ( HISTORY_FALSE | LVFAILURE_TRUE LVFAILURE_FALSE HISTORY_TRUE  )
{
	data = ((((1.0 0.0)(1.0 0.0))((0.000000 1.000000)(1.0 0.0)))(((0.000000 1.000000)(1.0 0.0))((1.0 0.0)(1.0 0.0)))) ;
}
potential ( HYPOVOLEMIA_TRUE  )
{
	data = (0.800000 0.200000) ;
}
potential ( HYPOVOLEMIA_FALSE | HYPOVOLEMIA_TRUE  )
{
	data = ((0.000000 1.000000)(1.0 0.0)) ;
}
potential ( LVEDVOLUME_LOW | LVFAILURE_TRUE LVFAILURE_FALSE HYPOVOLEMIA_TRUE HYPOVOLEMIA_FALSE  )
{
	data = (((((1.0 0.0)(1.0 0.0))((1.0 0.0)(1.0 0.0)))(((1.0 0.0)(0.950000 0.050000))((0.020000 0.980000)(1.0 0.0))))((((1.0 0.0)(0.990000 0.010000))((0.050000 0.950000)(1.0 0.0)))(((1.0 0.0)(1.0 0.0))((1.0 0.0)(1.0 0.0))))) ;
}
potential ( LVEDVOLUME_NORMAL | LVFAILURE_TRUE LVFAILURE_FALSE HYPOVOLEMIA_TRUE HYPOVOLEMIA_FALSE LVEDVOLUME_LOW  )
{
	data = ((((((1.0 0.0)(1.0 0.0))((1.0 0.0)(1.0 0.0)))(((1.0 0.0)(1.0 0.0))((1.0 0.0)(1.0 0.0))))((((1.0 0.0)(1.0 0.0))((0.052632 0.947368)(1.0 0.0)))(((0.500000 0.500000)(1.0 0.0))((1.0 0.0)(1.0 0.0)))))(((((1.0 0.0)(1.0 0.0))((0.909091 0.090909)(1.0 0.0)))(((0.200000 0.800000)(1.0 0.0))((1.0 0.0)(1.0 0.0))))((((1.0 0.0)(1.0 0.0))((1.0 0.0)(1.0 0.0)))(((1.0 0.0)(1.0 0.0))((1.0 0.0)(1.0 0.0)))))) ;
}
potential ( LVEDVOLUME_HIGH | LVFAILURE_TRUE LVFAILURE_FALSE HYPOVOLEMIA_TRUE HYPOVOLEMIA_FALSE LVEDVOLUME_NORMAL  )
{
	data = ((((((1.0 0.0)(1.0 0.0))((1.0 0.0)(1.0 0.0)))(((1.0 0.0)(1.0 0.0))((1.0 0.0)(1.0 0.0))))((((1.0 0.0)(1.0 0.0))((0.000000 1.000000)(1.0 0.0)))(((0.000000 1.000000)(1.0 0.0))((1.0 0.0)(1.0 0.0)))))(((((1.0 0.0)(1.0 0.0))((0.000000 1.000000)(1.0 0.0)))(((0.000000 1.000000)(1.0 0.0))((1.0 0.0)(1.0 0.0))))((((1.0 0.0)(1.0 0.0))((1.0 0.0)(1.0 0.0)))(((1.0 0.0)(1.0 0.0))((1.0 0.0)(1.0 0.0)))))) ;
}
potential ( CVP_LOW | LVEDVOLUME_LOW LVEDVOLUME_NORMAL LVEDVOLUME_HIGH  )
{
	data = ((((1.0 0.0)(0.990000 0.010000))((0.960000 0.040000)(1.0 0.0)))(((0.050000 0.950000)(1.0 0.0))((1.0 0.0)(1.0 0.0)))) ;
}
potential ( CVP_NORMAL | LVEDVOLUME_LOW LVEDVOLUME_NORMAL LVEDVOLUME_HIGH CVP_LOW  )
{
	data = (((((1.0 0.0)(1.0 0.0))((0.707071 0.292929)(1.0 0.0)))(((0.010417 0.989583)(1.0 0.0))((1.0 0.0)(1.0 0.0))))((((0.200000 0.800000)(1.0 0.0))((1.0 0.0)(1.0 0.0)))(((1.0 0.0)(1.0 0.0))((1.0 0.0)(1.0 0.0))))) ;
}
potential ( CVP_HIGH | LVEDVOLUME_LOW LVEDVOLUME_NORMAL LVEDVOLUME_HIGH CVP_NORMAL  )
{
	data = (((((1.0 0.0)(1.0 0.0))((0.000000 1.000000)(1.0 0.0)))(((0.000000 1.000000)(1.0 0.0))((1.0 0.0)(1.0 0.0))))((((0.000000 1.000000)(1.0 0.0))((1.0 0.0)(1.0 0.0)))(((1.0 0.0)(1.0 0.0))((1.0 0.0)(1.0 0.0))))) ;
}
potential ( PCWP_LOW | LVEDVOLUME_LOW LVEDVOLUME_NORMAL LVEDVOLUME_HIGH  )
{
	data = ((((1.0 0.0)(0.990000 0.010000))((0.960000 0.040000)(1.0 0.0)))(((0.050000 0.950000)(1.0 0.0))((1.0 0.0)(1.0 0.0)))) ;
}
potential ( PCWP_NORMAL | LVEDVOLUME_LOW LVEDVOLUME_NORMAL LVEDVOLUME_HIGH PCWP_LOW  )
{
	data = (((((1.0 0.0)(1.0 0.0))((0.959596 0.040404)(1.0 0.0)))(((0.010417 0.989583)(1.0 0.0))((1.0 0.0)(1.0 0.0))))((((0.200000 0.800000)(1.0 0.0))((1.0 0.0)(1.0 0.0)))(((1.0 0.0)(1.0 0.0))((1.0 0.0)(1.0 0.0))))) ;
}
potential ( PCWP_HIGH | LVEDVOLUME_LOW LVEDVOLUME_NORMAL LVEDVOLUME_HIGH PCWP_NORMAL  )
{
	data = (((((1.0 0.0)(1.0 0.0))((0.000000 1.000000)(1.0 0.0)))(((0.000000 1.000000)(1.0 0.0))((1.0 0.0)(1.0 0.0))))((((0.000000 1.000000)(1.0 0.0))((1.0 0.0)(1.0 0.0)))(((1.0 0.0)(1.0 0.0))((1.0 0.0)(1.0 0.0))))) ;
}
potential ( STROKEVOLUME_LOW | LVFAILURE_TRUE LVFAILURE_FALSE HYPOVOLEMIA_TRUE HYPOVOLEMIA_FALSE  )
{
	data = (((((1.0 0.0)(1.0 0.0))((1.0 0.0)(1.0 0.0)))(((1.0 0.0)(0.950000 0.050000))((0.050000 0.950000)(1.0 0.0))))((((1.0 0.0)(0.500000 0.500000))((0.020000 0.980000)(1.0 0.0)))(((1.0 0.0)(1.0 0.0))((1.0 0.0)(1.0 0.0))))) ;
}
potential ( STROKEVOLUME_NORMAL | LVFAILURE_TRUE LVFAILURE_FALSE HYPOVOLEMIA_TRUE HYPOVOLEMIA_FALSE STROKEVOLUME_LOW  )
{
	data = ((((((1.0 0.0)(1.0 0.0))((1.0 0.0)(1.0 0.0)))(((1.0 0.0)(1.0 0.0))((1.0 0.0)(1.0 0.0))))((((1.0 0.0)(1.0 0.0))((0.052632 0.947368)(1.0 0.0)))(((0.200000 0.800000)(1.0 0.0))((1.0 0.0)(1.0 0.0)))))(((((1.0 0.0)(1.0 0.0))((0.020000 0.980000)(1.0 0.0)))(((0.500000 0.500000)(1.0 0.0))((1.0 0.0)(1.0 0.0))))((((1.0 0.0)(1.0 0.0))((1.0 0.0)(1.0 0.0)))(((1.0 0.0)(1.0 0.0))((1.0 0.0)(1.0 0.0)))))) ;
}
potential ( STROKEVOLUME_HIGH | LVFAILURE_TRUE LVFAILURE_FALSE HYPOVOLEMIA_TRUE HYPOVOLEMIA_FALSE STROKEVOLUME_NORMAL  )
{
	data = ((((((1.0 0.0)(1.0 0.0))((1.0 0.0)(1.0 0.0)))(((1.0 0.0)(1.0 0.0))((1.0 0.0)(1.0 0.0))))((((1.0 0.0)(1.0 0.0))((0.000000 1.000000)(1.0 0.0)))(((0.000000 1.000000)(1.0 0.0))((1.0 0.0)(1.0 0.0)))))(((((1.0 0.0)(1.0 0.0))((0.000000 1.000000)(1.0 0.0)))(((0.000000 1.000000)(1.0 0.0))((1.0 0.0)(1.0 0.0))))((((1.0 0.0)(1.0 0.0))((1.0 0.0)(1.0 0.0)))(((1.0 0.0)(1.0 0.0))((1.0 0.0)(1.0 0.0)))))) ;
}
potential ( ERRLOWOUTPUT_TRUE  )
{
	data = (0.950000 0.050000) ;
}
potential ( ERRLOWOUTPUT_FALSE | ERRLOWOUTPUT_TRUE  )
{
	data = ((0.000000 1.000000)(1.0 0.0)) ;
}
potential ( INTUBATION_NORMAL  )
{
	data = (0.080000 0.920000) ;
}
potential ( INTUBATION_ESOPHAGEAL | INTUBATION_NORMAL  )
{
	data = ((0.625000 0.375000)(1.0 0.0)) ;
}
potential ( INTUBATION_ONESIDED | INTUBATION_ESOPHAGEAL  )
{
	data = ((0.000000 1.000000)(1.0 0.0)) ;
}
potential ( KINKEDTUBE_TRUE  )
{
	data = (0.960000 0.040000) ;
}
potential ( KINKEDTUBE_FALSE | KINKEDTUBE_TRUE  )
{
	data = ((0.000000 1.000000)(1.0 0.0)) ;
}
potential ( DISCONNECT_TRUE  )
{
	data = (0.900000 0.100000) ;
}
potential ( DISCONNECT_FALSE | DISCONNECT_TRUE  )
{
	data = ((0.000000 1.000000)(1.0 0.0)) ;
}
potential ( MINVOLSET_LOW  )
{
	data = (0.950000 0.050000) ;
}
potential ( MINVOLSET_NORMAL | MINVOLSET_LOW  )
{
	data = ((0.052632 0.947368)(1.0 0.0)) ;
}
potential ( MINVOLSET_HIGH | MINVOLSET_NORMAL  )
{
	data = ((0.000000 1.000000)(1.0 0.0)) ;
}
potential ( VENTMACH_ZERO | MINVOLSET_LOW MINVOLSET_NORMAL MINVOLSET_HIGH  )
{
	data = ((((1.0 0.0)(0.950000 0.050000))((0.950000 0.050000)(1.0 0.0)))(((0.950000 0.050000)(1.0 0.0))((1.0 0.0)(1.0 0.0)))) ;
}
potential ( VENTMACH_LOW | MINVOLSET_LOW MINVOLSET_NORMAL MINVOLSET_HIGH VENTMACH_ZERO  )
{
	data = (((((1.0 0.0)(1.0 0.0))((0.989474 0.010526)(1.0 0.0)))(((0.989474 0.010526)(1.0 0.0))((1.0 0.0)(1.0 0.0))))((((0.021053 0.978947)(1.0 0.0))((1.0 0.0)(1.0 0.0)))(((1.0 0.0)(1.0 0.0))((1.0 0.0)(1.0 0.0))))) ;
}
potential ( VENTMACH_NORMAL | MINVOLSET_LOW MINVOLSET_NORMAL MINVOLSET_HIGH VENTMACH_LOW  )
{
	data = (((((1.0 0.0)(1.0 0.0))((0.989362 0.010638)(1.0 0.0)))(((0.010638 0.989362)(1.0 0.0))((1.0 0.0)(1.0 0.0))))((((0.500000 0.500000)(1.0 0.0))((1.0 0.0)(1.0 0.0)))(((1.0 0.0)(1.0 0.0))((1.0 0.0)(1.0 0.0))))) ;
}
potential ( VENTMACH_HIGH | MINVOLSET_LOW MINVOLSET_NORMAL MINVOLSET_HIGH VENTMACH_NORMAL  )
{
	data = (((((1.0 0.0)(1.0 0.0))((0.000000 1.000000)(1.0 0.0)))(((0.000000 1.000000)(1.0 0.0))((1.0 0.0)(1.0 0.0))))((((0.000000 1.000000)(1.0 0.0))((1.0 0.0)(1.0 0.0)))(((1.0 0.0)(1.0 0.0))((1.0 0.0)(1.0 0.0))))) ;
}
potential ( VENTTUBE_ZERO | VENTMACH_ZERO VENTMACH_LOW VENTMACH_NORMAL VENTMACH_HIGH DISCONNECT_TRUE DISCONNECT_FALSE  )
{
	data = (((((((1.0 0.0)(1.0 0.0))((1.0 0.0)(1.0 0.0)))(((1.0 0.0)(1.0 0.0))((1.0 0.0)(1.0 0.0))))((((1.0 0.0)(1.0 0.0))((1.0 0.0)(1.0 0.0)))(((1.0 0.0)(1.0 0.0))((1.0 0.0)(1.0 0.0)))))(((((1.0 0.0)(0.990000 0.010000))((0.990000 0.010000)(1.0 0.0)))(((0.030000 0.970000)(1.0 0.0))((1.0 0.0)(1.0 0.0))))((((0.030000 0.970000)(1.0 0.0))((1.0 0.0)(1.0 0.0)))(((1.0 0.0)(1.0 0.0))((1.0 0.0)(1.0 0.0))))))((((((1.0 0.0)(0.990000 0.010000))((0.030000 0.970000)(1.0 0.0)))(((0.030000 0.970000)(1.0 0.0))((1.0 0.0)(1.0 0.0))))((((0.030000 0.970000)(1.0 0.0))((1.0 0.0)(1.0 0.0)))(((1.0 0.0)(1.0 0.0))((1.0 0.0)(1.0 0.0)))))(((((1.0 0.0)(1.0 0.0))((1.0 0.0)(1.0 0.0)))(((1.0 0.0)(1.0 0.0))((1.0 0.0)(1.0 0.0))))((((1.0 0.0)(1.0 0.0))((1.0 0.0)(1.0 0.0)))(((1.0 0.0)(1.0 0.0))((1.0 0.0)(1.0 0.0))))))) ;
}
potential ( VENTTUBE_LOW | VENTMACH_ZERO VENTMACH_LOW VENTMACH_NORMAL VENTMACH_HIGH DISCONNECT_TRUE DISCONNECT_FALSE VENTTUBE_ZERO  )
{
	data = ((((((((1.0 0.0)(1.0 0.0))((1.0 0.0)(1.0 0.0)))(((1.0 0.0)(1.0 0.0))((1.0 0.0)(1.0 0.0))))((((1.0 0.0)(1.0 0.0))((1.0 0.0)(1.0 0.0)))(((1.0 0.0)(1.0 0.0))((1.0 0.0)(1.0 0.0)))))(((((1.0 0.0)(1.0 0.0))((1.0 0.0)(1.0 0.0)))(((1.0 0.0)(1.0 0.0))((1.0 0.0)(1.0 0.0))))((((1.0 0.0)(1.0 0.0))((1.0 0.0)(1.0 0.0)))(((1.0 0.0)(1.0 0.0))((1.0 0.0)(1.0 0.0))))))((((((1.0 0.0)(1.0 0.0))((0.989899 0.010101)(1.0 0.0)))(((0.020202 0.979798)(1.0 0.0))((1.0 0.0)(1.0 0.0))))((((0.666667 0.333333)(1.0 0.0))((1.0 0.0)(1.0 0.0)))(((1.0 0.0)(1.0 0.0))((1.0 0.0)(1.0 0.0)))))(((((0.666667 0.333333)(1.0 0.0))((1.0 0.0)(1.0 0.0)))(((1.0 0.0)(1.0 0.0))((1.0 0.0)(1.0 0.0))))((((1.0 0.0)(1.0 0.0))((1.0 0.0)(1.0 0.0)))(((1.0 0.0)(1.0 0.0))((1.0 0.0)(1.0 0.0)))))))(((((((1.0 0.0)(1.0 0.0))((0.989899 0.010101)(1.0 0.0)))(((0.666667 0.333333)(1.0 0.0))((1.0 0.0)(1.0 0.0))))((((0.666667 0.333333)(1.0 0.0))((1.0 0.0)(1.0 0.0)))(((1.0 0.0)(1.0 0.0))((1.0 0.0)(1.0 0.0)))))(((((0.666667 0.333333)(1.0 0.0))((1.0 0.0)(1.0 0.0)))(((1.0 0.0)(1.0 0.0))((1.0 0.0)(1.0 0.0))))((((1.0 0.0)(1.0 0.0))((1.0 0.0)(1.0 0.0)))(((1.0 0.0)(1.0 0.0))((1.0 0.0)(1.0 0.0))))))((((((1.0 0.0)(1.0 0.0))((1.0 0.0)(1.0 0.0)))(((1.0 0.0)(1.0 0.0))((1.0 0.0)(1.0 0.0))))((((1.0 0.0)(1.0 0.0))((1.0 0.0)(1.0 0.0)))(((1.0 0.0)(1.0 0.0))((1.0 0.0)(1.0 0.0)))))(((((1.0 0.0)(1.0 0.0))((1.0 0.0)(1.0 0.0)))(((1.0 0.0)(1.0 0.0))((1.0 0.0)(1.0 0.0))))((((1.0 0.0)(1.0 0.0))((1.0 0.0)(1.0 0.0)))(((1.0 0.0)(1.0 0.0))((1.0 0.0)(1.0 0.0)))))))) ;
}
potential ( VENTTUBE_NORMAL | VENTMACH_ZERO VENTMACH_LOW VENTMACH_NORMAL VENTMACH_HIGH DISCONNECT_TRUE DISCONNECT_FALSE VENTTUBE_LOW  )
{
	data = ((((((((1.0 0.0)(1.0 0.0))((1.0 0.0)(1.0 0.0)))(((1.0 0.0)(1.0 0.0))((1.0 0.0)(1.0 0.0))))((((1.0 0.0)(1.0 0.0))((1.0 0.0)(1.0 0.0)))(((1.0 0.0)(1.0 0.0))((1.0 0.0)(1.0 0.0)))))(((((1.0 0.0)(1.0 0.0))((1.0 0.0)(1.0 0.0)))(((1.0 0.0)(1.0 0.0))((1.0 0.0)(1.0 0.0))))((((1.0 0.0)(1.0 0.0))((1.0 0.0)(1.0 0.0)))(((1.0 0.0)(1.0 0.0))((1.0 0.0)(1.0 0.0))))))((((((1.0 0.0)(1.0 0.0))((0.989796 0.010204)(1.0 0.0)))(((0.500000 0.500000)(1.0 0.0))((1.0 0.0)(1.0 0.0))))((((0.500000 0.500000)(1.0 0.0))((1.0 0.0)(1.0 0.0)))(((1.0 0.0)(1.0 0.0))((1.0 0.0)(1.0 0.0)))))(((((0.500000 0.500000)(1.0 0.0))((1.0 0.0)(1.0 0.0)))(((1.0 0.0)(1.0 0.0))((1.0 0.0)(1.0 0.0))))((((1.0 0.0)(1.0 0.0))((1.0 0.0)(1.0 0.0)))(((1.0 0.0)(1.0 0.0))((1.0 0.0)(1.0 0.0)))))))(((((((1.0 0.0)(1.0 0.0))((0.010204 0.989796)(1.0 0.0)))(((0.500000 0.500000)(1.0 0.0))((1.0 0.0)(1.0 0.0))))((((0.500000 0.500000)(1.0 0.0))((1.0 0.0)(1.0 0.0)))(((1.0 0.0)(1.0 0.0))((1.0 0.0)(1.0 0.0)))))(((((0.500000 0.500000)(1.0 0.0))((1.0 0.0)(1.0 0.0)))(((1.0 0.0)(1.0 0.0))((1.0 0.0)(1.0 0.0))))((((1.0 0.0)(1.0 0.0))((1.0 0.0)(1.0 0.0)))(((1.0 0.0)(1.0 0.0))((1.0 0.0)(1.0 0.0))))))((((((1.0 0.0)(1.0 0.0))((1.0 0.0)(1.0 0.0)))(((1.0 0.0)(1.0 0.0))((1.0 0.0)(1.0 0.0))))((((1.0 0.0)(1.0 0.0))((1.0 0.0)(1.0 0.0)))(((1.0 0.0)(1.0 0.0))((1.0 0.0)(1.0 0.0)))))(((((1.0 0.0)(1.0 0.0))((1.0 0.0)(1.0 0.0)))(((1.0 0.0)(1.0 0.0))((1.0 0.0)(1.0 0.0))))((((1.0 0.0)(1.0 0.0))((1.0 0.0)(1.0 0.0)))(((1.0 0.0)(1.0 0.0))((1.0 0.0)(1.0 0.0)))))))) ;
}
potential ( VENTTUBE_HIGH | VENTMACH_ZERO VENTMACH_LOW VENTMACH_NORMAL VENTMACH_HIGH DISCONNECT_TRUE DISCONNECT_FALSE VENTTUBE_NORMAL  )
{
	data = ((((((((1.0 0.0)(1.0 0.0))((1.0 0.0)(1.0 0.0)))(((1.0 0.0)(1.0 0.0))((1.0 0.0)(1.0 0.0))))((((1.0 0.0)(1.0 0.0))((1.0 0.0)(1.0 0.0)))(((1.0 0.0)(1.0 0.0))((1.0 0.0)(1.0 0.0)))))(((((1.0 0.0)(1.0 0.0))((1.0 0.0)(1.0 0.0)))(((1.0 0.0)(1.0 0.0))((1.0 0.0)(1.0 0.0))))((((1.0 0.0)(1.0 0.0))((1.0 0.0)(1.0 0.0)))(((1.0 0.0)(1.0 0.0))((1.0 0.0)(1.0 0.0))))))((((((1.0 0.0)(1.0 0.0))((0.000000 1.000000)(1.0 0.0)))(((0.000000 1.000000)(1.0 0.0))((1.0 0.0)(1.0 0.0))))((((0.000000 1.000000)(1.0 0.0))((1.0 0.0)(1.0 0.0)))(((1.0 0.0)(1.0 0.0))((1.0 0.0)(1.0 0.0)))))(((((0.000000 1.000000)(1.0 0.0))((1.0 0.0)(1.0 0.0)))(((1.0 0.0)(1.0 0.0))((1.0 0.0)(1.0 0.0))))((((1.0 0.0)(1.0 0.0))((1.0 0.0)(1.0 0.0)))(((1.0 0.0)(1.0 0.0))((1.0 0.0)(1.0 0.0)))))))(((((((1.0 0.0)(1.0 0.0))((0.000000 1.000000)(1.0 0.0)))(((0.000000 1.000000)(1.0 0.0))((1.0 0.0)(1.0 0.0))))((((0.000000 1.000000)(1.0 0.0))((1.0 0.0)(1.0 0.0)))(((1.0 0.0)(1.0 0.0))((1.0 0.0)(1.0 0.0)))))(((((0.000000 1.000000)(1.0 0.0))((1.0 0.0)(1.0 0.0)))(((1.0 0.0)(1.0 0.0))((1.0 0.0)(1.0 0.0))))((((1.0 0.0)(1.0 0.0))((1.0 0.0)(1.0 0.0)))(((1.0 0.0)(1.0 0.0))((1.0 0.0)(1.0 0.0))))))((((((1.0 0.0)(1.0 0.0))((1.0 0.0)(1.0 0.0)))(((1.0 0.0)(1.0 0.0))((1.0 0.0)(1.0 0.0))))((((1.0 0.0)(1.0 0.0))((1.0 0.0)(1.0 0.0)))(((1.0 0.0)(1.0 0.0))((1.0 0.0)(1.0 0.0)))))(((((1.0 0.0)(1.0 0.0))((1.0 0.0)(1.0 0.0)))(((1.0 0.0)(1.0 0.0))((1.0 0.0)(1.0 0.0))))((((1.0 0.0)(1.0 0.0))((1.0 0.0)(1.0 0.0)))(((1.0 0.0)(1.0 0.0))((1.0 0.0)(1.0 0.0)))))))) ;
}
potential ( VENTLUNG_ZERO | VENTTUBE_ZERO VENTTUBE_LOW VENTTUBE_NORMAL VENTTUBE_HIGH KINKEDTUBE_TRUE KINKEDTUBE_FALSE INTUBATION_NORMAL INTUBATION_ESOPHAGEAL INTUBATION_ONESIDED  )
{
	data = ((((((((((1.0 0.0)(1.0 0.0))((1.0 0.0)(1.0 0.0)))(((1.0 0.0)(1.0 0.0))((1.0 0.0)(1.0 0.0))))((((1.0 0.0)(1.0 0.0))((1.0 0.0)(1.0 0.0)))(((1.0 0.0)(1.0 0.0))((1.0 0.0)(1.0 0.0)))))(((((1.0 0.0)(1.0 0.0))((1.0 0.0)(1.0 0.0)))(((1.0 0.0)(1.0 0.0))((1.0 0.0)(1.0 0.0))))((((1.0 0.0)(1.0 0.0))((1.0 0.0)(1.0 0.0)))(((1.0 0.0)(1.0 0.0))((1.0 0.0)(1.0 0.0))))))((((((1.0 0.0)(1.0 0.0))((1.0 0.0)(1.0 0.0)))(((1.0 0.0)(1.0 0.0))((1.0 0.0)(1.0 0.0))))((((1.0 0.0)(1.0 0.0))((1.0 0.0)(1.0 0.0)))(((1.0 0.0)(1.0 0.0))((1.0 0.0)(1.0 0.0)))))(((((1.0 0.0)(1.0 0.0))((1.0 0.0)(1.0 0.0)))(((1.0 0.0)(1.0 0.0))((1.0 0.0)(1.0 0.0))))((((1.0 0.0)(1.0 0.0))((1.0 0.0)(1.0 0.0)))(((1.0 0.0)(1.0 0.0))((1.0 0.0)(1.0 0.0)))))))(((((((1.0 0.0)(1.0 0.0))((1.0 0.0)(1.0 0.0)))(((1.0 0.0)(1.0 0.0))((1.0 0.0)(1.0 0.0))))((((1.0 0.0)(1.0 0.0))((1.0 0.0)(1.0 0.0)))(((1.0 0.0)(1.0 0.0))((1.0 0.0)(1.0 0.0)))))(((((1.0 0.0)(0.990000 0.010000))((0.030000 0.970000)(1.0 0.0)))(((0.700000 0.300000)(1.0 0.0))((1.0 0.0)(1.0 0.0))))((((0.030000 0.970000)(1.0 0.0))((1.0 0.0)(1.0 0.0)))(((1.0 0.0)(1.0 0.0))((1.0 0.0)(1.0 0.0))))))((((((1.0 0.0)(0.030000 0.970000))((0.990000 0.010000)(1.0 0.0)))(((0.030000 0.970000)(1.0 0.0))((1.0 0.0)(1.0 0.0))))((((0.600000 0.400000)(1.0 0.0))((1.0 0.0)(1.0 0.0)))(((1.0 0.0)(1.0 0.0))((1.0 0.0)(1.0 0.0)))))(((((1.0 0.0)(1.0 0.0))((1.0 0.0)(1.0 0.0)))(((1.0 0.0)(1.0 0.0))((1.0 0.0)(1.0 0.0))))((((1.0 0.0)(1.0 0.0))((1.0 0.0)(1.0 0.0)))(((1.0 0.0)(1.0 0.0))((1.0 0.0)(1.0 0.0))))))))((((((((1.0 0.0)(1.0 0.0))((1.0 0.0)(1.0 0.0)))(((1.0 0.0)(1.0 0.0))((1.0 0.0)(1.0 0.0))))((((1.0 0.0)(1.0 0.0))((1.0 0.0)(1.0 0.0)))(((1.0 0.0)(1.0 0.0))((1.0 0.0)(1.0 0.0)))))(((((1.0 0.0)(0.990000 0.010000))((0.030000 0.970000)(1.0 0.0)))(((0.500000 0.500000)(1.0 0.0))((1.0 0.0)(1.0 0.0))))((((0.030000 0.970000)(1.0 0.0))((1.0 0.0)(1.0 0.0)))(((1.0 0.0)(1.0 0.0))((1.0 0.0)(1.0 0.0))))))((((((1.0 0.0)(0.030000 0.970000))((0.990000 0.010000)(1.0 0.0)))(((0.030000 0.970000)(1.0 0.0))((1.0 0.0)(1.0 0.0))))((((0.050000 0.950000)(1.0 0.0))((1.0 0.0)(1.0 0.0)))(((1.0 0.0)(1.0 0.0))((1.0 0.0)(1.0 0.0)))))(((((1.0 0.0)(1.0 0.0))((1.0 0.0)(1.0 0.0)))(((1.0 0.0)(1.0 0.0))((1.0 0.0)(1.0 0.0))))((((1.0 0.0)(1.0 0.0))((1.0 0.0)(1.0 0.0)))(((1.0 0.0)(1.0 0.0))((1.0 0.0)(1.0 0.0)))))))(((((((1.0 0.0)(1.0 0.0))((1.0 0.0)(1.0 0.0)))(((1.0 0.0)(1.0 0.0))((1.0 0.0)(1.0 0.0))))((((1.0 0.0)(1.0 0.0))((1.0 0.0)(1.0 0.0)))(((1.0 0.0)(1.0 0.0))((1.0 0.0)(1.0 0.0)))))(((((1.0 0.0)(1.0 0.0))((1.0 0.0)(1.0 0.0)))(((1.0 0.0)(1.0 0.0))((1.0 0.0)(1.0 0.0))))((((1.0 0.0)(1.0 0.0))((1.0 0.0)(1.0 0.0)))(((1.0 0.0)(1.0 0.0))((1.0 0.0)(1.0 0.0))))))((((((1.0 0.0)(1.0 0.0))((1.0 0.0)(1.0 0.0)))(((1.0 0.0)(1.0 0.0))((1.0 0.0)(1.0 0.0))))((((1.0 0.0)(1.0 0.0))((1.0 0.0)(1.0 0.0)))(((1.0 0.0)(1.0 0.0))((1.0 0.0)(1.0 0.0)))))(((((1.0 0.0)(1.0 0.0))((1.0 0.0)(1.0 0.0)))(((1.0 0.0)(1.0 0.0))((1.0 0.0)(1.0 0.0))))((((1.0 0.0)(1.0 0.0))((1.0 0.0)(1.0 0.0)))(((1.0 0.0)(1.0 0.0))((1.0 0.0)(1.0 0.0)))))))))(((((((((1.0 0.0)(1.0 0.0))((1.0 0.0)(1.0 0.0)))(((1.0 0.0)(1.0 0.0))((1.0 0.0)(1.0 0.0))))((((1.0 0.0)(1.0 0.0))((1.0 0.0)(1.0 0.0)))(((1.0 0.0)(1.0 0.0))((1.0 0.0)(1.0 0.0)))))(((((1.0 0.0)(0.990000 0.010000))((0.990000 0.010000)(1.0 0.0)))(((0.050000 0.950000)(1.0 0.0))((1.0 0.0)(1.0 0.0))))((((0.700000 0.300000)(1.0 0.0))((1.0 0.0)(1.0 0.0)))(((1.0 0.0)(1.0 0.0))((1.0 0.0)(1.0 0.0))))))((((((1.0 0.0)(0.030000 0.970000))((0.030000 0.970000)(1.0 0.0)))(((0.030000 0.970000)(1.0 0.0))((1.0 0.0)(1.0 0.0))))((((0.030000 0.970000)(1.0 0.0))((1.0 0.0)(1.0 0.0)))(((1.0 0.0)(1.0 0.0))((1.0 0.0)(1.0 0.0)))))(((((1.0 0.0)(1.0 0.0))((1.0 0.0)(1.0 0.0)))(((1.0 0.0)(1.0 0.0))((1.0 0.0)(1.0 0.0))))((((1.0 0.0)(1.0 0.0))((1.0 0.0)(1.0 0.0)))(((1.0 0.0)(1.0 0.0))((1.0 0.0)(1.0 0.0)))))))(((((((1.0 0.0)(1.0 0.0))((1.0 0.0)(1.0 0.0)))(((1.0 0.0)(1.0 0.0))((1.0 0.0)(1.0 0.0))))((((1.0 0.0)(1.0 0.0))((1.0 0.0)(1.0 0.0)))(((1.0 0.0)(1.0 0.0))((1.0 0.0)(1.0 0.0)))))(((((1.0 0.0)(1.0 0.0))((1.0 0.0)(1.0 0.0)))(((1.0 0.0)(1.0 0.0))((1.0 0.0)(1.0 0.0))))((((1.0 0.0)(1.0 0.0))((1.0 0.0)(1.0 0.0)))(((1.0 0.0)(1.0 0.0))((1.0 0.0)(1.0 0.0))))))((((((1.0 0.0)(1.0 0.0))((1.0 0.0)(1.0 0.0)))(((1.0 0.0)(1.0 0.0))((1.0 0.0)(1.0 0.0))))((((1.0 0.0)(1.0 0.0))((1.0 0.0)(1.0 0.0)))(((1.0 0.0)(1.0 0.0))((1.0 0.0)(1.0 0.0)))))(((((1.0 0.0)(1.0 0.0))((1.0 0.0)(1.0 0.0)))(((1.0 0.0)(1.0 0.0))((1.0 0.0)(1.0 0.0))))((((1.0 0.0)(1.0 0.0))((1.0 0.0)(1.0 0.0)))(((1.0 0.0)(1.0 0.0))((1.0 0.0)(1.0 0.0))))))))((((((((1.0 0.0)(1.0 0.0))((1.0 0.0)(1.0 0.0)))(((1.0 0.0)(1.0 0.0))((1.0 0.0)(1.0 0.0))))((((1.0 0.0)(1.0 0.0))((1.0 0.0)(1.0 0.0)))(((1.0 0.0)(1.0 0.0))((1.0 0.0)(1.0 0.0)))))(((((1.0 0.0)(1.0 0.0))((1.0 0.0)(1.0 0.0)))(((1.0 0.0)(1.0 0.0))((1.0 0.0)(1.0 0.0))))((((1.0 0.0)(1.0 0.0))((1.0 0.0)(1.0 0.0)))(((1.0 0.0)(1.0 0.0))((1.0 0.0)(1.0 0.0))))))((((((1.0 0.0)(1.0 0.0))((1.0 0.0)(1.0 0.0)))(((1.0 0.0)(1.0 0.0))((1.0 0.0)(1.0 0.0))))((((1.0 0.0)(1.0 0.0))((1.0 0.0)(1.0 0.0)))(((1.0 0.0)(1.0 0.0))((1.0 0.0)(1.0 0.0)))))(((((1.0 0.0)(1.0 0.0))((1.0 0.0)(1.0 0.0)))(((1.0 0.0)(1.0 0.0))((1.0 0.0)(1.0 0.0))))((((1.0 0.0)(1.0 0.0))((1.0 0.0)(1.0 0.0)))(((1.0 0.0)(1.0 0.0))((1.0 0.0)(1.0 0.0)))))))(((((((1.0 0.0)(1.0 0.0))((1.0 0.0)(1.0 0.0)))(((1.0 0.0)(1.0 0.0))((1.0 0.0)(1.0 0.0))))((((1.0 0.0)(1.0 0.0))((1.0 0.0)(1.0 0.0)))(((1.0 0.0)(1.0 0.0))((1.0 0.0)(1.0 0.0)))))(((((1.0 0.0)(1.0 0.0))((1.0 0.0)(1.0 0.0)))(((1.0 0.0)(1.0 0.0))((1.0 0.0)(1.0 0.0))))((((1.0 0.0)(1.0 0.0))((1.0 0.0)(1.0 0.0)))(((1.0 0.0)(1.0 0.0))((1.0 0.0)(1.0 0.0))))))((((((1.0 0.0)(1.0 0.0))((1.0 0.0)(1.0 0.0)))(((1.0 0.0)(1.0 0.0))((1.0 0.0)(1.0 0.0))))((((1.0 0.0)(1.0 0.0))((1.0 0.0)(1.0 0.0)))(((1.0 0.0)(1.0 0.0))((1.0 0.0)(1.0 0.0)))))(((((1.0 0.0)(1.0 0.0))((1.0 0.0)(1.0 0.0)))(((1.0 0.0)(1.0 0.0))((1.0 0.0)(1.0 0.0))))((((1.0 0.0)(1.0 0.0))((1.0 0.0)(1.0 0.0)))(((1.0 0.0)(1.0 0.0))((1.0 0.0)(1.0 0.0)))))))))) ;
}
potential ( VENTLUNG_LOW | VENTTUBE_ZERO VENTTUBE_LOW VENTTUBE_NORMAL VENTTUBE_HIGH KINKEDTUBE_TRUE KINKEDTUBE_FALSE INTUBATION_NORMAL INTUBATION_ESOPHAGEAL INTUBATION_ONESIDED VENTLUNG_ZERO  )
{
	data = (((((((((((1.0 0.0)(1.0 0.0))((1.0 0.0)(1.0 0.0)))(((1.0 0.0)(1.0 0.0))((1.0 0.0)(1.0 0.0))))((((1.0 0.0)(1.0 0.0))((1.0 0.0)(1.0 0.0)))(((1.0 0.0)(1.0 0.0))((1.0 0.0)(1.0 0.0)))))(((((1.0 0.0)(1.0 0.0))((1.0 0.0)(1.0 0.0)))(((1.0 0.0)(1.0 0.0))((1.0 0.0)(1.0 0.0))))((((1.0 0.0)(1.0 0.0))((1.0 0.0)(1.0 0.0)))(((1.0 0.0)(1.0 0.0))((1.0 0.0)(1.0 0.0))))))((((((1.0 0.0)(1.0 0.0))((1.0 0.0)(1.0 0.0)))(((1.0 0.0)(1.0 0.0))((1.0 0.0)(1.0 0.0))))((((1.0 0.0)(1.0 0.0))((1.0 0.0)(1.0 0.0)))(((1.0 0.0)(1.0 0.0))((1.0 0.0)(1.0 0.0)))))(((((1.0 0.0)(1.0 0.0))((1.0 0.0)(1.0 0.0)))(((1.0 0.0)(1.0 0.0))((1.0 0.0)(1.0 0.0))))((((1.0 0.0)(1.0 0.0))((1.0 0.0)(1.0 0.0)))(((1.0 0.0)(1.0 0.0))((1.0 0.0)(1.0 0.0)))))))(((((((1.0 0.0)(1.0 0.0))((1.0 0.0)(1.0 0.0)))(((1.0 0.0)(1.0 0.0))((1.0 0.0)(1.0 0.0))))((((1.0 0.0)(1.0 0.0))((1.0 0.0)(1.0 0.0)))(((1.0 0.0)(1.0 0.0))((1.0 0.0)(1.0 0.0)))))(((((1.0 0.0)(1.0 0.0))((1.0 0.0)(1.0 0.0)))(((1.0 0.0)(1.0 0.0))((1.0 0.0)(1.0 0.0))))((((1.0 0.0)(1.0 0.0))((1.0 0.0)(1.0 0.0)))(((1.0 0.0)(1.0 0.0))((1.0 0.0)(1.0 0.0))))))((((((1.0 0.0)(1.0 0.0))((1.0 0.0)(1.0 0.0)))(((1.0 0.0)(1.0 0.0))((1.0 0.0)(1.0 0.0))))((((1.0 0.0)(1.0 0.0))((1.0 0.0)(1.0 0.0)))(((1.0 0.0)(1.0 0.0))((1.0 0.0)(1.0 0.0)))))(((((1.0 0.0)(1.0 0.0))((1.0 0.0)(1.0 0.0)))(((1.0 0.0)(1.0 0.0))((1.0 0.0)(1.0 0.0))))((((1.0 0.0)(1.0 0.0))((1.0 0.0)(1.0 0.0)))(((1.0 0.0)(1.0 0.0))((1.0 0.0)(1.0 0.0))))))))((((((((1.0 0.0)(1.0 0.0))((1.0 0.0)(1.0 0.0)))(((1.0 0.0)(1.0 0.0))((1.0 0.0)(1.0 0.0))))((((1.0 0.0)(1.0 0.0))((1.0 0.0)(1.0 0.0)))(((1.0 0.0)(1.0 0.0))((1.0 0.0)(1.0 0.0)))))(((((1.0 0.0)(1.0 0.0))((1.0 0.0)(1.0 0.0)))(((1.0 0.0)(1.0 0.0))((1.0 0.0)(1.0 0.0))))((((1.0 0.0)(1.0 0.0))((1.0 0.0)(1.0 0.0)))(((1.0 0.0)(1.0 0.0))((1.0 0.0)(1.0 0.0))))))((((((1.0 0.0)(1.0 0.0))((0.989899 0.010101)(1.0 0.0)))(((0.666667 0.333333)(1.0 0.0))((1.0 0.0)(1.0 0.0))))((((0.028571 0.971429)(1.0 0.0))((1.0 0.0)(1.0 0.0)))(((1.0 0.0)(1.0 0.0))((1.0 0.0)(1.0 0.0)))))(((((0.666667 0.333333)(1.0 0.0))((1.0 0.0)(1.0 0.0)))(((1.0 0.0)(1.0 0.0))((1.0 0.0)(1.0 0.0))))((((1.0 0.0)(1.0 0.0))((1.0 0.0)(1.0 0.0)))(((1.0 0.0)(1.0 0.0))((1.0 0.0)(1.0 0.0)))))))(((((((1.0 0.0)(1.0 0.0))((0.666667 0.333333)(1.0 0.0)))(((0.989899 0.010101)(1.0 0.0))((1.0 0.0)(1.0 0.0))))((((0.666667 0.333333)(1.0 0.0))((1.0 0.0)(1.0 0.0)))(((1.0 0.0)(1.0 0.0))((1.0 0.0)(1.0 0.0)))))(((((0.033333 0.966667)(1.0 0.0))((1.0 0.0)(1.0 0.0)))(((1.0 0.0)(1.0 0.0))((1.0 0.0)(1.0 0.0))))((((1.0 0.0)(1.0 0.0))((1.0 0.0)(1.0 0.0)))(((1.0 0.0)(1.0 0.0))((1.0 0.0)(1.0 0.0))))))((((((1.0 0.0)(1.0 0.0))((1.0 0.0)(1.0 0.0)))(((1.0 0.0)(1.0 0.0))((1.0 0.0)(1.0 0.0))))((((1.0 0.0)(1.0 0.0))((1.0 0.0)(1.0 0.0)))(((1.0 0.0)(1.0 0.0))((1.0 0.0)(1.0 0.0)))))(((((1.0 0.0)(1.0 0.0))((1.0 0.0)(1.0 0.0)))(((1.0 0.0)(1.0 0.0))((1.0 0.0)(1.0 0.0))))((((1.0 0.0)(1.0 0.0))((1.0 0.0)(1.0 0.0)))(((1.0 0.0)(1.0 0.0))((1.0 0.0)(1.0 0.0)))))))))(((((((((1.0 0.0)(1.0 0.0))((1.0 0.0)(1.0 0.0)))(((1.0 0.0)(1.0 0.0))((1.0 0.0)(1.0 0.0))))((((1.0 0.0)(1.0 0.0))((1.0 0.0)(1.0 0.0)))(((1.0 0.0)(1.0 0.0))((1.0 0.0)(1.0 0.0)))))(((((1.0 0.0)(1.0 0.0))((1.0 0.0)(1.0 0.0)))(((1.0 0.0)(1.0 0.0))((1.0 0.0)(1.0 0.0))))((((1.0 0.0)(1.0 0.0))((1.0 0.0)(1.0 0.0)))(((1.0 0.0)(1.0 0.0))((1.0 0.0)(1.0 0.0))))))((((((1.0 0.0)(1.0 0.0))((0.989899 0.010101)(1.0 0.0)))(((0.666667 0.333333)(1.0 0.0))((1.0 0.0)(1.0 0.0))))((((0.040000 0.960000)(1.0 0.0))((1.0 0.0)(1.0 0.0)))(((1.0 0.0)(1.0 0.0))((1.0 0.0)(1.0 0.0)))))(((((0.666667 0.333333)(1.0 0.0))((1.0 0.0)(1.0 0.0)))(((1.0 0.0)(1.0 0.0))((1.0 0.0)(1.0 0.0))))((((1.0 0.0)(1.0 0.0))((1.0 0.0)(1.0 0.0)))(((1.0 0.0)(1.0 0.0))((1.0 0.0)(1.0 0.0)))))))(((((((1.0 0.0)(1.0 0.0))((0.666667 0.333333)(1.0 0.0)))(((0.020202 0.979798)(1.0 0.0))((1.0 0.0)(1.0 0.0))))((((0.666667 0.333333)(1.0 0.0))((1.0 0.0)(1.0 0.0)))(((1.0 0.0)(1.0 0.0))((1.0 0.0)(1.0 0.0)))))(((((0.400000 0.600000)(1.0 0.0))((1.0 0.0)(1.0 0.0)))(((1.0 0.0)(1.0 0.0))((1.0 0.0)(1.0 0.0))))((((1.0 0.0)(1.0 0.0))((1.0 0.0)(1.0 0.0)))(((1.0 0.0)(1.0 0.0))((1.0 0.0)(1.0 0.0))))))((((((1.0 0.0)(1.0 0.0))((1.0 0.0)(1.0 0.0)))(((1.0 0.0)(1.0 0.0))((1.0 0.0)(1.0 0.0))))((((1.0 0.0)(1.0 0.0))((1.0 0.0)(1.0 0.0)))(((1.0 0.0)(1.0 0.0))((1.0 0.0)(1.0 0.0)))))(((((1.0 0.0)(1.0 0.0))((1.0 0.0)(1.0 0.0)))(((1.0 0.0)(1.0 0.0))((1.0 0.0)(1.0 0.0))))((((1.0 0.0)(1.0 0.0))((1.0 0.0)(1.0 0.0)))(((1.0 0.0)(1.0 0.0))((1.0 0.0)(1.0 0.0))))))))((((((((1.0 0.0)(1.0 0.0))((1.0 0.0)(1.0 0.0)))(((1.0 0.0)(1.0 0.0))((1.0 0.0)(1.0 0.0))))((((1.0 0.0)(1.0 0.0))((1.0 0.0)(1.0 0.0)))(((1.0 0.0)(1.0 0.0))((1.0 0.0)(1.0 0.0)))))(((((1.0 0.0)(1.0 0.0))((1.0 0.0)(1.0 0.0)))(((1.0 0.0)(1.0 0.0))((1.0 0.0)(1.0 0.0))))((((1.0 0.0)(1.0 0.0))((1.0 0.0)(1.0 0.0)))(((1.0 0.0)(1.0 0.0))((1.0 0.0)(1.0 0.0))))))((((((1.0 0.0)(1.0 0.0))((1.0 0.0)(1.0 0.0)))(((1.0 0.0)(1.0 0.0))((1.0 0.0)(1.0 0.0))))((((1.0 0.0)(1.0 0.0))((1.0 0.0)(1.0 0.0)))(((1.0 0.0)(1.0 0.0))((1.0 0.0)(1.0 0.0)))))(((((1.0 0.0)(1.0 0.0))((1.0 0.0)(1.0 0.0)))(((1.0 0.0)(1.0 0.0))((1.0 0.0)(1.0 0.0))))((((1.0 0.0)(1.0 0.0))((1.0 0.0)(1.0 0.0)))(((1.0 0.0)(1.0 0.0))((1.0 0.0)(1.0 0.0)))))))(((((((1.0 0.0)(1.0 0.0))((1.0 0.0)(1.0 0.0)))(((1.0 0.0)(1.0 0.0))((1.0 0.0)(1.0 0.0))))((((1.0 0.0)(1.0 0.0))((1.0 0.0)(1.0 0.0)))(((1.0 0.0)(1.0 0.0))((1.0 0.0)(1.0 0.0)))))(((((1.0 0.0)(1.0 0.0))((1.0 0.0)(1.0 0.0)))(((1.0 0.0)(1.0 0.0))((1.0 0.0)(1.0 0.0))))((((1.0 0.0)(1.0 0.0))((1.0 0.0)(1.0 0.0)))(((1.0 0.0)(1.0 0.0))((1.0 0.0)(1.0 0.0))))))((((((1.0 0.0)(1.0 0.0))((1.0 0.0)(1.0 0.0)))(((1.0 0.0)(1.0 0.0))((1.0 0.0)(1.0 0.0))))((((1.0 0.0)(1.0 0.0))((1.0 0.0)(1.0 0.0)))(((1.0 0.0)(1.0 0.0))((1.0 0.0)(1.0 0.0)))))(((((1.0 0.0)(1.0 0.0))((1.0 0.0)(1.0 0.0)))(((1.0 0.0)(1.0 0.0))((1.0 0.0)(1.0 0.0))))((((1.0 0.0)(1.0 0.0))((1.0 0.0)(1.0 0.0)))(((1.0 0.0)(1.0 0.0))((1.0 0.0)(1.0 0.0))))))))))((((((((((1.0 0.0)(1.0 0.0))((1.0 0.0)(1.0 0.0)))(((1.0 0.0)(1.0 0.0))((1.0 0.0)(1.0 0.0))))((((1.0 0.0)(1.0 0.0))((1.0 0.0)(1.0 0.0)))(((1.0 0.0)(1.0 0.0))((1.0 0.0)(1.0 0.0)))))(((((1.0 0.0)(1.0 0.0))((1.0 0.0)(1.0 0.0)))(((1.0 0.0)(1.0 0.0))((1.0 0.0)(1.0 0.0))))((((1.0 0.0)(1.0 0.0))((1.0 0.0)(1.0 0.0)))(((1.0 0.0)(1.0 0.0))((1.0 0.0)(1.0 0.0))))))((((((1.0 0.0)(1.0 0.0))((0.020202 0.979798)(1.0 0.0)))(((0.989899 0.010101)(1.0 0.0))((1.0 0.0)(1.0 0.0))))((((0.400000 0.600000)(1.0 0.0))((1.0 0.0)(1.0 0.0)))(((1.0 0.0)(1.0 0.0))((1.0 0.0)(1.0 0.0)))))(((((0.028571 0.971429)(1.0 0.0))((1.0 0.0)(1.0 0.0)))(((1.0 0.0)(1.0 0.0))((1.0 0.0)(1.0 0.0))))((((1.0 0.0)(1.0 0.0))((1.0 0.0)(1.0 0.0)))(((1.0 0.0)(1.0 0.0))((1.0 0.0)(1.0 0.0)))))))(((((((1.0 0.0)(1.0 0.0))((0.666667 0.333333)(1.0 0.0)))(((0.666667 0.333333)(1.0 0.0))((1.0 0.0)(1.0 0.0))))((((0.666667 0.333333)(1.0 0.0))((1.0 0.0)(1.0 0.0)))(((1.0 0.0)(1.0 0.0))((1.0 0.0)(1.0 0.0)))))(((((0.666667 0.333333)(1.0 0.0))((1.0 0.0)(1.0 0.0)))(((1.0 0.0)(1.0 0.0))((1.0 0.0)(1.0 0.0))))((((1.0 0.0)(1.0 0.0))((1.0 0.0)(1.0 0.0)))(((1.0 0.0)(1.0 0.0))((1.0 0.0)(1.0 0.0))))))((((((1.0 0.0)(1.0 0.0))((1.0 0.0)(1.0 0.0)))(((1.0 0.0)(1.0 0.0))((1.0 0.0)(1.0 0.0))))((((1.0 0.0)(1.0 0.0))((1.0 0.0)(1.0 0.0)))(((1.0 0.0)(1.0 0.0))((1.0 0.0)(1.0 0.0)))))(((((1.0 0.0)(1.0 0.0))((1.0 0.0)(1.0 0.0)))(((1.0 0.0)(1.0 0.0))((1.0 0.0)(1.0 0.0))))((((1.0 0.0)(1.0 0.0))((1.0 0.0)(1.0 0.0)))(((1.0 0.0)(1.0 0.0))((1.0 0.0)(1.0 0.0))))))))((((((((1.0 0.0)(1.0 0.0))((1.0 0.0)(1.0 0.0)))(((1.0 0.0)(1.0 0.0))((1.0 0.0)(1.0 0.0))))((((1.0 0.0)(1.0 0.0))((1.0 0.0)(1.0 0.0)))(((1.0 0.0)(1.0 0.0))((1.0 0.0)(1.0 0.0)))))(((((1.0 0.0)(1.0 0.0))((1.0 0.0)(1.0 0.0)))(((1.0 0.0)(1.0 0.0))((1.0 0.0)(1.0 0.0))))((((1.0 0.0)(1.0 0.0))((1.0 0.0)(1.0 0.0)))(((1.0 0.0)(1.0 0.0))((1.0 0.0)(1.0 0.0))))))((((((1.0 0.0)(1.0 0.0))((1.0 0.0)(1.0 0.0)))(((1.0 0.0)(1.0 0.0))((1.0 0.0)(1.0 0.0))))((((1.0 0.0)(1.0 0.0))((1.0 0.0)(1.0 0.0)))(((1.0 0.0)(1.0 0.0))((1.0 0.0)(1.0 0.0)))))(((((1.0 0.0)(1.0 0.0))((1.0 0.0)(1.0 0.0)))(((1.0 0.0)(1.0 0.0))((1.0 0.0)(1.0 0.0))))((((1.0 0.0)(1.0 0.0))((1.0 0.0)(1.0 0.0)))(((1.0 0.0)(1.0 0.0))((1.0 0.0)(1.0 0.0)))))))(((((((1.0 0.0)(1.0 0.0))((1.0 0.0)(1.0 0.0)))(((1.0 0.0)(1.0 0.0))((1.0 0.0)(1.0 0.0))))((((1.0 0.0)(1.0 0.0))((1.0 0.0)(1.0 0.0)))(((1.0 0.0)(1.0 0.0))((1.0 0.0)(1.0 0.0)))))(((((1.0 0.0)(1.0 0.0))((1.0 0.0)(1.0 0.0)))(((1.0 0.0)(1.0 0.0))((1.0 0.0)(1.0 0.0))))((((1.0 0.0)(1.0 0.0))((1.0 0.0)(1.0 0.0)))(((1.0 0.0)(1.0 0.0))((1.0 0.0)(1.0 0.0))))))((((((1.0 0.0)(1.0 0.0))((1.0 0.0)(1.0 0.0)))(((1.0 0.0)(1.0 0.0))((1.0 0.0)(1.0 0.0))))((((1.0 0.0)(1.0 0.0))((1.0 0.0)(1.0 0.0)))(((1.0 0.0)(1.0 0.0))((1.0 0.0)(1.0 0.0)))))(((((1.0 0.0)(1.0 0.0))((1.0 0.0)(1.0 0.0)))(((1.0 0.0)(1.0 0.0))((1.0 0.0)(1.0 0.0))))((((1.0 0.0)(1.0 0.0))((1.0 0.0)(1.0 0.0)))(((1.0 0.0)(1.0 0.0))((1.0 0.0)(1.0 0.0)))))))))(((((((((1.0 0.0)(1.0 0.0))((1.0 0.0)(1.0 0.0)))(((1.0 0.0)(1.0 0.0))((1.0 0.0)(1.0 0.0))))((((1.0 0.0)(1.0 0.0))((1.0 0.0)(1.0 0.0)))(((1.0 0.0)(1.0 0.0))((1.0 0.0)(1.0 0.0)))))(((((1.0 0.0)(1.0 0.0))((1.0 0.0)(1.0 0.0)))(((1.0 0.0)(1.0 0.0))((1.0 0.0)(1.0 0.0))))((((1.0 0.0)(1.0 0.0))((1.0 0.0)(1.0 0.0)))(((1.0 0.0)(1.0 0.0))((1.0 0.0)(1.0 0.0))))))((((((1.0 0.0)(1.0 0.0))((1.0 0.0)(1.0 0.0)))(((1.0 0.0)(1.0 0.0))((1.0 0.0)(1.0 0.0))))((((1.0 0.0)(1.0 0.0))((1.0 0.0)(1.0 0.0)))(((1.0 0.0)(1.0 0.0))((1.0 0.0)(1.0 0.0)))))(((((1.0 0.0)(1.0 0.0))((1.0 0.0)(1.0 0.0)))(((1.0 0.0)(1.0 0.0))((1.0 0.0)(1.0 0.0))))((((1.0 0.0)(1.0 0.0))((1.0 0.0)(1.0 0.0)))(((1.0 0.0)(1.0 0.0))((1.0 0.0)(1.0 0.0)))))))(((((((1.0 0.0)(1.0 0.0))((1.0 0.0)(1.0 0.0)))(((1.0 0.0)(1.0 0.0))((1.0 0.0)(1.0 0.0))))((((1.0 0.0)(1.0 0.0))((1.0 0.0)(1.0 0.0)))(((1.0 0.0)(1.0 0.0))((1.0 0.0)(1.0 0.0)))))(((((1.0 0.0)(1.0 0.0))((1.0 0.0)(1.0 0.0)))(((1.0 0.0)(1.0 0.0))((1.0 0.0)(1.0 0.0))))((((1.0 0.0)(1.0 0.0))((1.0 0.0)(1.0 0.0)))(((1.0 0.0)(1.0 0.0))((1.0 0.0)(1.0 0.0))))))((((((1.0 0.0)(1.0 0.0))((1.0 0.0)(1.0 0.0)))(((1.0 0.0)(1.0 0.0))((1.0 0.0)(1.0 0.0))))((((1.0 0.0)(1.0 0.0))((1.0 0.0)(1.0 0.0)))(((1.0 0.0)(1.0 0.0))((1.0 0.0)(1.0 0.0)))))(((((1.0 0.0)(1.0 0.0))((1.0 0.0)(1.0 0.0)))(((1.0 0.0)(1.0 0.0))((1.0 0.0)(1.0 0.0))))((((1.0 0.0)(1.0 0.0))((1.0 0.0)(1.0 0.0)))(((1.0 0.0)(1.0 0.0))((1.0 0.0)(1.0 0.0))))))))((((((((1.0 0.0)(1.0 0.0))((1.0 0.0)(1.0 0.0)))(((1.0 0.0)(1.0 0.0))((1.0 0.0)(1.0 0.0))))((((1.0 0.0)(1.0 0.0))((1.0 0.0)(1.0 0.0)))(((1.0 0.0)(1.0 0.0))((1.0 0.0)(1.0 0.0)))))(((((1.0 0.0)(1.0 0.0))((1.0 0.0)(1.0 0.0)))(((1.0 0.0)(1.0 0.0))((1.0 0.0)(1.0 0.0))))((((1.0 0.0)(1.0 0.0))((1.0 0.0)(1.0 0.0)))(((1.0 0.0)(1.0 0.0))((1.0 0.0)(1.0 0.0))))))((((((1.0 0.0)(1.0 0.0))((1.0 0.0)(1.0 0.0)))(((1.0 0.0)(1.0 0.0))((1.0 0.0)(1.0 0.0))))((((1.0 0.0)(1.0 0.0))((1.0 0.0)(1.0 0.0)))(((1.0 0.0)(1.0 0.0))((1.0 0.0)(1.0 0.0)))))(((((1.0 0.0)(1.0 0.0))((1.0 0.0)(1.0 0.0)))(((1.0 0.0)(1.0 0.0))((1.0 0.0)(1.0 0.0))))((((1.0 0.0)(1.0 0.0))((1.0 0.0)(1.0 0.0)))(((1.0 0.0)(1.0 0.0))((1.0 0.0)(1.0 0.0)))))))(((((((1.0 0.0)(1.0 0.0))((1.0 0.0)(1.0 0.0)))(((1.0 0.0)(1.0 0.0))((1.0 0.0)(1.0 0.0))))((((1.0 0.0)(1.0 0.0))((1.0 0.0)(1.0 0.0)))(((1.0 0.0)(1.0 0.0))((1.0 0.0)(1.0 0.0)))))(((((1.0 0.0)(1.0 0.0))((1.0 0.0)(1.0 0.0)))(((1.0 0.0)(1.0 0.0))((1.0 0.0)(1.0 0.0))))((((1.0 0.0)(1.0 0.0))((1.0 0.0)(1.0 0.0)))(((1.0 0.0)(1.0 0.0))((1.0 0.0)(1.0 0.0))))))((((((1.0 0.0)(1.0 0.0))((1.0 0.0)(1.0 0.0)))(((1.0 0.0)(1.0 0.0))((1.0 0.0)(1.0 0.0))))((((1.0 0.0)(1.0 0.0))((1.0 0.0)(1.0 0.0)))(((1.0 0.0)(1.0 0.0))((1.0 0.0)(1.0 0.0)))))(((((1.0 0.0)(1.0 0.0))((1.0 0.0)(1.0 0.0)))(((1.0 0.0)(1.0 0.0))((1.0 0.0)(1.0 0.0))))((((1.0 0.0)(1.0 0.0))((1.0 0.0)(1.0 0.0)))(((1.0 0.0)(1.0 0.0))((1.0 0.0)(1.0 0.0))))))))))) ;
}
potential ( VENTLUNG_NORMAL | VENTTUBE_ZERO VENTTUBE_LOW VENTTUBE_NORMAL VENTTUBE_HIGH KINKEDTUBE_TRUE KINKEDTUBE_FALSE INTUBATION_NORMAL INTUBATION_ESOPHAGEAL INTUBATION_ONESIDED VENTLUNG_LOW  )
{
	data = (((((((((((1.0 0.0)(1.0 0.0))((1.0 0.0)(1.0 0.0)))(((1.0 0.0)(1.0 0.0))((1.0 0.0)(1.0 0.0))))((((1.0 0.0)(1.0 0.0))((1.0 0.0)(1.0 0.0)))(((1.0 0.0)(1.0 0.0))((1.0 0.0)(1.0 0.0)))))(((((1.0 0.0)(1.0 0.0))((1.0 0.0)(1.0 0.0)))(((1.0 0.0)(1.0 0.0))((1.0 0.0)(1.0 0.0))))((((1.0 0.0)(1.0 0.0))((1.0 0.0)(1.0 0.0)))(((1.0 0.0)(1.0 0.0))((1.0 0.0)(1.0 0.0))))))((((((1.0 0.0)(1.0 0.0))((1.0 0.0)(1.0 0.0)))(((1.0 0.0)(1.0 0.0))((1.0 0.0)(1.0 0.0))))((((1.0 0.0)(1.0 0.0))((1.0 0.0)(1.0 0.0)))(((1.0 0.0)(1.0 0.0))((1.0 0.0)(1.0 0.0)))))(((((1.0 0.0)(1.0 0.0))((1.0 0.0)(1.0 0.0)))(((1.0 0.0)(1.0 0.0))((1.0 0.0)(1.0 0.0))))((((1.0 0.0)(1.0 0.0))((1.0 0.0)(1.0 0.0)))(((1.0 0.0)(1.0 0.0))((1.0 0.0)(1.0 0.0)))))))(((((((1.0 0.0)(1.0 0.0))((1.0 0.0)(1.0 0.0)))(((1.0 0.0)(1.0 0.0))((1.0 0.0)(1.0 0.0))))((((1.0 0.0)(1.0 0.0))((1.0 0.0)(1.0 0.0)))(((1.0 0.0)(1.0 0.0))((1.0 0.0)(1.0 0.0)))))(((((1.0 0.0)(1.0 0.0))((1.0 0.0)(1.0 0.0)))(((1.0 0.0)(1.0 0.0))((1.0 0.0)(1.0 0.0))))((((1.0 0.0)(1.0 0.0))((1.0 0.0)(1.0 0.0)))(((1.0 0.0)(1.0 0.0))((1.0 0.0)(1.0 0.0))))))((((((1.0 0.0)(1.0 0.0))((1.0 0.0)(1.0 0.0)))(((1.0 0.0)(1.0 0.0))((1.0 0.0)(1.0 0.0))))((((1.0 0.0)(1.0 0.0))((1.0 0.0)(1.0 0.0)))(((1.0 0.0)(1.0 0.0))((1.0 0.0)(1.0 0.0)))))(((((1.0 0.0)(1.0 0.0))((1.0 0.0)(1.0 0.0)))(((1.0 0.0)(1.0 0.0))((1.0 0.0)(1.0 0.0))))((((1.0 0.0)(1.0 0.0))((1.0 0.0)(1.0 0.0)))(((1.0 0.0)(1.0 0.0))((1.0 0.0)(1.0 0.0))))))))((((((((1.0 0.0)(1.0 0.0))((1.0 0.0)(1.0 0.0)))(((1.0 0.0)(1.0 0.0))((1.0 0.0)(1.0 0.0))))((((1.0 0.0)(1.0 0.0))((1.0 0.0)(1.0 0.0)))(((1.0 0.0)(1.0 0.0))((1.0 0.0)(1.0 0.0)))))(((((1.0 0.0)(1.0 0.0))((1.0 0.0)(1.0 0.0)))(((1.0 0.0)(1.0 0.0))((1.0 0.0)(1.0 0.0))))((((1.0 0.0)(1.0 0.0))((1.0 0.0)(1.0 0.0)))(((1.0 0.0)(1.0 0.0))((1.0 0.0)(1.0 0.0))))))((((((1.0 0.0)(1.0 0.0))((0.989796 0.010204)(1.0 0.0)))(((0.500000 0.500000)(1.0 0.0))((1.0 0.0)(1.0 0.0))))((((0.500000 0.500000)(1.0 0.0))((1.0 0.0)(1.0 0.0)))(((1.0 0.0)(1.0 0.0))((1.0 0.0)(1.0 0.0)))))(((((0.500000 0.500000)(1.0 0.0))((1.0 0.0)(1.0 0.0)))(((1.0 0.0)(1.0 0.0))((1.0 0.0)(1.0 0.0))))((((1.0 0.0)(1.0 0.0))((1.0 0.0)(1.0 0.0)))(((1.0 0.0)(1.0 0.0))((1.0 0.0)(1.0 0.0)))))))(((((((1.0 0.0)(1.0 0.0))((0.500000 0.500000)(1.0 0.0)))(((0.010204 0.989796)(1.0 0.0))((1.0 0.0)(1.0 0.0))))((((0.500000 0.500000)(1.0 0.0))((1.0 0.0)(1.0 0.0)))(((1.0 0.0)(1.0 0.0))((1.0 0.0)(1.0 0.0)))))(((((0.500000 0.500000)(1.0 0.0))((1.0 0.0)(1.0 0.0)))(((1.0 0.0)(1.0 0.0))((1.0 0.0)(1.0 0.0))))((((1.0 0.0)(1.0 0.0))((1.0 0.0)(1.0 0.0)))(((1.0 0.0)(1.0 0.0))((1.0 0.0)(1.0 0.0))))))((((((1.0 0.0)(1.0 0.0))((1.0 0.0)(1.0 0.0)))(((1.0 0.0)(1.0 0.0))((1.0 0.0)(1.0 0.0))))((((1.0 0.0)(1.0 0.0))((1.0 0.0)(1.0 0.0)))(((1.0 0.0)(1.0 0.0))((1.0 0.0)(1.0 0.0)))))(((((1.0 0.0)(1.0 0.0))((1.0 0.0)(1.0 0.0)))(((1.0 0.0)(1.0 0.0))((1.0 0.0)(1.0 0.0))))((((1.0 0.0)(1.0 0.0))((1.0 0.0)(1.0 0.0)))(((1.0 0.0)(1.0 0.0))((1.0 0.0)(1.0 0.0)))))))))(((((((((1.0 0.0)(1.0 0.0))((1.0 0.0)(1.0 0.0)))(((1.0 0.0)(1.0 0.0))((1.0 0.0)(1.0 0.0))))((((1.0 0.0)(1.0 0.0))((1.0 0.0)(1.0 0.0)))(((1.0 0.0)(1.0 0.0))((1.0 0.0)(1.0 0.0)))))(((((1.0 0.0)(1.0 0.0))((1.0 0.0)(1.0 0.0)))(((1.0 0.0)(1.0 0.0))((1.0 0.0)(1.0 0.0))))((((1.0 0.0)(1.0 0.0))((1.0 0.0)(1.0 0.0)))(((1.0 0.0)(1.0 0.0))((1.0 0.0)(1.0 0.0))))))((((((1.0 0.0)(1.0 0.0))((0.010204 0.989796)(1.0 0.0)))(((0.500000 0.500000)(1.0 0.0))((1.0 0.0)(1.0 0.0))))((((0.500000 0.500000)(1.0 0.0))((1.0 0.0)(1.0 0.0)))(((1.0 0.0)(1.0 0.0))((1.0 0.0)(1.0 0.0)))))(((((0.500000 0.500000)(1.0 0.0))((1.0 0.0)(1.0 0.0)))(((1.0 0.0)(1.0 0.0))((1.0 0.0)(1.0 0.0))))((((1.0 0.0)(1.0 0.0))((1.0 0.0)(1.0 0.0)))(((1.0 0.0)(1.0 0.0))((1.0 0.0)(1.0 0.0)))))))(((((((1.0 0.0)(1.0 0.0))((0.500000 0.500000)(1.0 0.0)))(((0.500000 0.500000)(1.0 0.0))((1.0 0.0)(1.0 0.0))))((((0.500000 0.500000)(1.0 0.0))((1.0 0.0)(1.0 0.0)))(((1.0 0.0)(1.0 0.0))((1.0 0.0)(1.0 0.0)))))(((((0.500000 0.500000)(1.0 0.0))((1.0 0.0)(1.0 0.0)))(((1.0 0.0)(1.0 0.0))((1.0 0.0)(1.0 0.0))))((((1.0 0.0)(1.0 0.0))((1.0 0.0)(1.0 0.0)))(((1.0 0.0)(1.0 0.0))((1.0 0.0)(1.0 0.0))))))((((((1.0 0.0)(1.0 0.0))((1.0 0.0)(1.0 0.0)))(((1.0 0.0)(1.0 0.0))((1.0 0.0)(1.0 0.0))))((((1.0 0.0)(1.0 0.0))((1.0 0.0)(1.0 0.0)))(((1.0 0.0)(1.0 0.0))((1.0 0.0)(1.0 0.0)))))(((((1.0 0.0)(1.0 0.0))((1.0 0.0)(1.0 0.0)))(((1.0 0.0)(1.0 0.0))((1.0 0.0)(1.0 0.0))))((((1.0 0.0)(1.0 0.0))((1.0 0.0)(1.0 0.0)))(((1.0 0.0)(1.0 0.0))((1.0 0.0)(1.0 0.0))))))))((((((((1.0 0.0)(1.0 0.0))((1.0 0.0)(1.0 0.0)))(((1.0 0.0)(1.0 0.0))((1.0 0.0)(1.0 0.0))))((((1.0 0.0)(1.0 0.0))((1.0 0.0)(1.0 0.0)))(((1.0 0.0)(1.0 0.0))((1.0 0.0)(1.0 0.0)))))(((((1.0 0.0)(1.0 0.0))((1.0 0.0)(1.0 0.0)))(((1.0 0.0)(1.0 0.0))((1.0 0.0)(1.0 0.0))))((((1.0 0.0)(1.0 0.0))((1.0 0.0)(1.0 0.0)))(((1.0 0.0)(1.0 0.0))((1.0 0.0)(1.0 0.0))))))((((((1.0 0.0)(1.0 0.0))((1.0 0.0)(1.0 0.0)))(((1.0 0.0)(1.0 0.0))((1.0 0.0)(1.0 0.0))))((((1.0 0.0)(1.0 0.0))((1.0 0.0)(1.0 0.0)))(((1.0 0.0)(1.0 0.0))((1.0 0.0)(1.0 0.0)))))(((((1.0 0.0)(1.0 0.0))((1.0 0.0)(1.0 0.0)))(((1.0 0.0)(1.0 0.0))((1.0 0.0)(1.0 0.0))))((((1.0 0.0)(1.0 0.0))((1.0 0.0)(1.0 0.0)))(((1.0 0.0)(1.0 0.0))((1.0 0.0)(1.0 0.0)))))))(((((((1.0 0.0)(1.0 0.0))((1.0 0.0)(1.0 0.0)))(((1.0 0.0)(1.0 0.0))((1.0 0.0)(1.0 0.0))))((((1.0 0.0)(1.0 0.0))((1.0 0.0)(1.0 0.0)))(((1.0 0.0)(1.0 0.0))((1.0 0.0)(1.0 0.0)))))(((((1.0 0.0)(1.0 0.0))((1.0 0.0)(1.0 0.0)))(((1.0 0.0)(1.0 0.0))((1.0 0.0)(1.0 0.0))))((((1.0 0.0)(1.0 0.0))((1.0 0.0)(1.0 0.0)))(((1.0 0.0)(1.0 0.0))((1.0 0.0)(1.0 0.0))))))((((((1.0 0.0)(1.0 0.0))((1.0 0.0)(1.0 0.0)))(((1.0 0.0)(1.0 0.0))((1.0 0.0)(1.0 0.0))))((((1.0 0.0)(1.0 0.0))((1.0 0.0)(1.0 0.0)))(((1.0 0.0)(1.0 0.0))((1.0 0.0)(1.0 0.0)))))(((((1.0 0.0)(1.0 0.0))((1.0 0.0)(1.0 0.0)))(((1.0 0.0)(1.0 0.0))((1.0 0.0)(1.0 0.0))))((((1.0 0.0)(1.0 0.0))((1.0 0.0)(1.0 0.0)))(((1.0 0.0)(1.0 0.0))((1.0 0.0)(1.0 0.0))))))))))((((((((((1.0 0.0)(1.0 0.0))((1.0 0.0)(1.0 0.0)))(((1.0 0.0)(1.0 0.0))((1.0 0.0)(1.0 0.0))))((((1.0 0.0)(1.0 0.0))((1.0 0.0)(1.0 0.0)))(((1.0 0.0)(1.0 0.0))((1.0 0.0)(1.0 0.0)))))(((((1.0 0.0)(1.0 0.0))((1.0 0.0)(1.0 0.0)))(((1.0 0.0)(1.0 0.0))((1.0 0.0)(1.0 0.0))))((((1.0 0.0)(1.0 0.0))((1.0 0.0)(1.0 0.0)))(((1.0 0.0)(1.0 0.0))((1.0 0.0)(1.0 0.0))))))((((((1.0 0.0)(1.0 0.0))((0.500000 0.500000)(1.0 0.0)))(((0.989796 0.010204)(1.0 0.0))((1.0 0.0)(1.0 0.0))))((((0.500000 0.500000)(1.0 0.0))((1.0 0.0)(1.0 0.0)))(((1.0 0.0)(1.0 0.0))((1.0 0.0)(1.0 0.0)))))(((((0.500000 0.500000)(1.0 0.0))((1.0 0.0)(1.0 0.0)))(((1.0 0.0)(1.0 0.0))((1.0 0.0)(1.0 0.0))))((((1.0 0.0)(1.0 0.0))((1.0 0.0)(1.0 0.0)))(((1.0 0.0)(1.0 0.0))((1.0 0.0)(1.0 0.0)))))))(((((((1.0 0.0)(1.0 0.0))((0.500000 0.500000)(1.0 0.0)))(((0.500000 0.500000)(1.0 0.0))((1.0 0.0)(1.0 0.0))))((((0.500000 0.500000)(1.0 0.0))((1.0 0.0)(1.0 0.0)))(((1.0 0.0)(1.0 0.0))((1.0 0.0)(1.0 0.0)))))(((((0.500000 0.500000)(1.0 0.0))((1.0 0.0)(1.0 0.0)))(((1.0 0.0)(1.0 0.0))((1.0 0.0)(1.0 0.0))))((((1.0 0.0)(1.0 0.0))((1.0 0.0)(1.0 0.0)))(((1.0 0.0)(1.0 0.0))((1.0 0.0)(1.0 0.0))))))((((((1.0 0.0)(1.0 0.0))((1.0 0.0)(1.0 0.0)))(((1.0 0.0)(1.0 0.0))((1.0 0.0)(1.0 0.0))))((((1.0 0.0)(1.0 0.0))((1.0 0.0)(1.0 0.0)))(((1.0 0.0)(1.0 0.0))((1.0 0.0)(1.0 0.0)))))(((((1.0 0.0)(1.0 0.0))((1.0 0.0)(1.0 0.0)))(((1.0 0.0)(1.0 0.0))((1.0 0.0)(1.0 0.0))))((((1.0 0.0)(1.0 0.0))((1.0 0.0)(1.0 0.0)))(((1.0 0.0)(1.0 0.0))((1.0 0.0)(1.0 0.0))))))))((((((((1.0 0.0)(1.0 0.0))((1.0 0.0)(1.0 0.0)))(((1.0 0.0)(1.0 0.0))((1.0 0.0)(1.0 0.0))))((((1.0 0.0)(1.0 0.0))((1.0 0.0)(1.0 0.0)))(((1.0 0.0)(1.0 0.0))((1.0 0.0)(1.0 0.0)))))(((((1.0 0.0)(1.0 0.0))((1.0 0.0)(1.0 0.0)))(((1.0 0.0)(1.0 0.0))((1.0 0.0)(1.0 0.0))))((((1.0 0.0)(1.0 0.0))((1.0 0.0)(1.0 0.0)))(((1.0 0.0)(1.0 0.0))((1.0 0.0)(1.0 0.0))))))((((((1.0 0.0)(1.0 0.0))((1.0 0.0)(1.0 0.0)))(((1.0 0.0)(1.0 0.0))((1.0 0.0)(1.0 0.0))))((((1.0 0.0)(1.0 0.0))((1.0 0.0)(1.0 0.0)))(((1.0 0.0)(1.0 0.0))((1.0 0.0)(1.0 0.0)))))(((((1.0 0.0)(1.0 0.0))((1.0 0.0)(1.0 0.0)))(((1.0 0.0)(1.0 0.0))((1.0 0.0)(1.0 0.0))))((((1.0 0.0)(1.0 0.0))((1.0 0.0)(1.0 0.0)))(((1.0 0.0)(1.0 0.0))((1.0 0.0)(1.0 0.0)))))))(((((((1.0 0.0)(1.0 0.0))((1.0 0.0)(1.0 0.0)))(((1.0 0.0)(1.0 0.0))((1.0 0.0)(1.0 0.0))))((((1.0 0.0)(1.0 0.0))((1.0 0.0)(1.0 0.0)))(((1.0 0.0)(1.0 0.0))((1.0 0.0)(1.0 0.0)))))(((((1.0 0.0)(1.0 0.0))((1.0 0.0)(1.0 0.0)))(((1.0 0.0)(1.0 0.0))((1.0 0.0)(1.0 0.0))))((((1.0 0.0)(1.0 0.0))((1.0 0.0)(1.0 0.0)))(((1.0 0.0)(1.0 0.0))((1.0 0.0)(1.0 0.0))))))((((((1.0 0.0)(1.0 0.0))((1.0 0.0)(1.0 0.0)))(((1.0 0.0)(1.0 0.0))((1.0 0.0)(1.0 0.0))))((((1.0 0.0)(1.0 0.0))((1.0 0.0)(1.0 0.0)))(((1.0 0.0)(1.0 0.0))((1.0 0.0)(1.0 0.0)))))(((((1.0 0.0)(1.0 0.0))((1.0 0.0)(1.0 0.0)))(((1.0 0.0)(1.0 0.0))((1.0 0.0)(1.0 0.0))))((((1.0 0.0)(1.0 0.0))((1.0 0.0)(1.0 0.0)))(((1.0 0.0)(1.0 0.0))((1.0 0.0)(1.0 0.0)))))))))(((((((((1.0 0.0)(1.0 0.0))((1.0 0.0)(1.0 0.0)))(((1.0 0.0)(1.0 0.0))((1.0 0.0)(1.0 0.0))))((((1.0 0.0)(1.0 0.0))((1.0 0.0)(1.0 0.0)))(((1.0 0.0)(1.0 0.0))((1.0 0.0)(1.0 0.0)))))(((((1.0 0.0)(1.0 0.0))((1.0 0.0)(1.0 0.0)))(((1.0 0.0)(1.0 0.0))((1.0 0.0)(1.0 0.0))))((((1.0 0.0)(1.0 0.0))((1.0 0.0)(1.0 0.0)))(((1.0 0.0)(1.0 0.0))((1.0 0.0)(1.0 0.0))))))((((((1.0 0.0)(1.0 0.0))((1.0 0.0)(1.0 0.0)))(((1.0 0.0)(1.0 0.0))((1.0 0.0)(1.0 0.0))))((((1.0 0.0)(1.0 0.0))((1.0 0.0)(1.0 0.0)))(((1.0 0.0)(1.0 0.0))((1.0 0.0)(1.0 0.0)))))(((((1.0 0.0)(1.0 0.0))((1.0 0.0)(1.0 0.0)))(((1.0 0.0)(1.0 0.0))((1.0 0.0)(1.0 0.0))))((((1.0 0.0)(1.0 0.0))((1.0 0.0)(1.0 0.0)))(((1.0 0.0)(1.0 0.0))((1.0 0.0)(1.0 0.0)))))))(((((((1.0 0.0)(1.0 0.0))((1.0 0.0)(1.0 0.0)))(((1.0 0.0)(1.0 0.0))((1.0 0.0)(1.0 0.0))))((((1.0 0.0)(1.0 0.0))((1.0 0.0)(1.0 0.0)))(((1.0 0.0)(1.0 0.0))((1.0 0.0)(1.0 0.0)))))(((((1.0 0.0)(1.0 0.0))((1.0 0.0)(1.0 0.0)))(((1.0 0.0)(1.0 0.0))((1.0 0.0)(1.0 0.0))))((((1.0 0.0)(1.0 0.0))((1.0 0.0)(1.0 0.0)))(((1.0 0.0)(1.0 0.0))((1.0 0.0)(1.0 0.0))))))((((((1.0 0.0)(1.0 0.0))((1.0 0.0)(1.0 0.0)))(((1.0 0.0)(1.0 0.0))((1.0 0.0)(1.0 0.0))))((((1.0 0.0)(1.0 0.0))((1.0 0.0)(1.0 0.0)))(((1.0 0.0)(1.0 0.0))((1.0 0.0)(1.0 0.0)))))(((((1.0 0.0)(1.0 0.0))((1.0 0.0)(1.0 0.0)))(((1.0 0.0)(1.0 0.0))((1.0 0.0)(1.0 0.0))))((((1.0 0.0)(1.0 0.0))((1.0 0.0)(1.0 0.0)))(((1.0 0.0)(1.0 0.0))((1.0 0.0)(1.0 0.0))))))))((((((((1.0 0.0)(1.0 0.0))((1.0 0.0)(1.0 0.0)))(((1.0 0.0)(1.0 0.0))((1.0 0.0)(1.0 0.0))))((((1.0 0.0)(1.0 0.0))((1.0 0.0)(1.0 0.0)))(((1.0 0.0)(1.0 0.0))((1.0 0.0)(1.0 0.0)))))(((((1.0 0.0)(1.0 0.0))((1.0 0.0)(1.0 0.0)))(((1.0 0.0)(1.0 0.0))((1.0 0.0)(1.0 0.0))))((((1.0 0.0)(1.0 0.0))((1.0 0.0)(1.0 0.0)))(((1.0 0.0)(1.0 0.0))((1.0 0.0)(1.0 0.0))))))((((((1.0 0.0)(1.0 0.0))((1.0 0.0)(1.0 0.0)))(((1.0 0.0)(1.0 0.0))((1.0 0.0)(1.0 0.0))))((((1.0 0.0)(1.0 0.0))((1.0 0.0)(1.0 0.0)))(((1.0 0.0)(1.0 0.0))((1.0 0.0)(1.0 0.0)))))(((((1.0 0.0)(1.0 0.0))((1.0 0.0)(1.0 0.0)))(((1.0 0.0)(1.0 0.0))((1.0 0.0)(1.0 0.0))))((((1.0 0.0)(1.0 0.0))((1.0 0.0)(1.0 0.0)))(((1.0 0.0)(1.0 0.0))((1.0 0.0)(1.0 0.0)))))))(((((((1.0 0.0)(1.0 0.0))((1.0 0.0)(1.0 0.0)))(((1.0 0.0)(1.0 0.0))((1.0 0.0)(1.0 0.0))))((((1.0 0.0)(1.0 0.0))((1.0 0.0)(1.0 0.0)))(((1.0 0.0)(1.0 0.0))((1.0 0.0)(1.0 0.0)))))(((((1.0 0.0)(1.0 0.0))((1.0 0.0)(1.0 0.0)))(((1.0 0.0)(1.0 0.0))((1.0 0.0)(1.0 0.0))))((((1.0 0.0)(1.0 0.0))((1.0 0.0)(1.0 0.0)))(((1.0 0.0)(1.0 0.0))((1.0 0.0)(1.0 0.0))))))((((((1.0 0.0)(1.0 0.0))((1.0 0.0)(1.0 0.0)))(((1.0 0.0)(1.0 0.0))((1.0 0.0)(1.0 0.0))))((((1.0 0.0)(1.0 0.0))((1.0 0.0)(1.0 0.0)))(((1.0 0.0)(1.0 0.0))((1.0 0.0)(1.0 0.0)))))(((((1.0 0.0)(1.0 0.0))((1.0 0.0)(1.0 0.0)))(((1.0 0.0)(1.0 0.0))((1.0 0.0)(1.0 0.0))))((((1.0 0.0)(1.0 0.0))((1.0 0.0)(1.0 0.0)))(((1.0 0.0)(1.0 0.0))((1.0 0.0)(1.0 0.0))))))))))) ;
}
potential ( VENTLUNG_HIGH | VENTTUBE_ZERO VENTTUBE_LOW VENTTUBE_NORMAL VENTTUBE_HIGH KINKEDTUBE_TRUE KINKEDTUBE_FALSE INTUBATION_NORMAL INTUBATION_ESOPHAGEAL INTUBATION_ONESIDED VENTLUNG_NORMAL  )
{
	data = (((((((((((1.0 0.0)(1.0 0.0))((1.0 0.0)(1.0 0.0)))(((1.0 0.0)(1.0 0.0))((1.0 0.0)(1.0 0.0))))((((1.0 0.0)(1.0 0.0))((1.0 0.0)(1.0 0.0)))(((1.0 0.0)(1.0 0.0))((1.0 0.0)(1.0 0.0)))))(((((1.0 0.0)(1.0 0.0))((1.0 0.0)(1.0 0.0)))(((1.0 0.0)(1.0 0.0))((1.0 0.0)(1.0 0.0))))((((1.0 0.0)(1.0 0.0))((1.0 0.0)(1.0 0.0)))(((1.0 0.0)(1.0 0.0))((1.0 0.0)(1.0 0.0))))))((((((1.0 0.0)(1.0 0.0))((1.0 0.0)(1.0 0.0)))(((1.0 0.0)(1.0 0.0))((1.0 0.0)(1.0 0.0))))((((1.0 0.0)(1.0 0.0))((1.0 0.0)(1.0 0.0)))(((1.0 0.0)(1.0 0.0))((1.0 0.0)(1.0 0.0)))))(((((1.0 0.0)(1.0 0.0))((1.0 0.0)(1.0 0.0)))(((1.0 0.0)(1.0 0.0))((1.0 0.0)(1.0 0.0))))((((1.0 0.0)(1.0 0.0))((1.0 0.0)(1.0 0.0)))(((1.0 0.0)(1.0 0.0))((1.0 0.0)(1.0 0.0)))))))(((((((1.0 0.0)(1.0 0.0))((1.0 0.0)(1.0 0.0)))(((1.0 0.0)(1.0 0.0))((1.0 0.0)(1.0 0.0))))((((1.0 0.0)(1.0 0.0))((1.0 0.0)(1.0 0.0)))(((1.0 0.0)(1.0 0.0))((1.0 0.0)(1.0 0.0)))))(((((1.0 0.0)(1.0 0.0))((1.0 0.0)(1.0 0.0)))(((1.0 0.0)(1.0 0.0))((1.0 0.0)(1.0 0.0))))((((1.0 0.0)(1.0 0.0))((1.0 0.0)(1.0 0.0)))(((1.0 0.0)(1.0 0.0))((1.0 0.0)(1.0 0.0))))))((((((1.0 0.0)(1.0 0.0))((1.0 0.0)(1.0 0.0)))(((1.0 0.0)(1.0 0.0))((1.0 0.0)(1.0 0.0))))((((1.0 0.0)(1.0 0.0))((1.0 0.0)(1.0 0.0)))(((1.0 0.0)(1.0 0.0))((1.0 0.0)(1.0 0.0)))))(((((1.0 0.0)(1.0 0.0))((1.0 0.0)(1.0 0.0)))(((1.0 0.0)(1.0 0.0))((1.0 0.0)(1.0 0.0))))((((1.0 0.0)(1.0 0.0))((1.0 0.0)(1.0 0.0)))(((1.0 0.0)(1.0 0.0))((1.0 0.0)(1.0 0.0))))))))((((((((1.0 0.0)(1.0 0.0))((1.0 0.0)(1.0 0.0)))(((1.0 0.0)(1.0 0.0))((1.0 0.0)(1.0 0.0))))((((1.0 0.0)(1.0 0.0))((1.0 0.0)(1.0 0.0)))(((1.0 0.0)(1.0 0.0))((1.0 0.0)(1.0 0.0)))))(((((1.0 0.0)(1.0 0.0))((1.0 0.0)(1.0 0.0)))(((1.0 0.0)(1.0 0.0))((1.0 0.0)(1.0 0.0))))((((1.0 0.0)(1.0 0.0))((1.0 0.0)(1.0 0.0)))(((1.0 0.0)(1.0 0.0))((1.0 0.0)(1.0 0.0))))))((((((1.0 0.0)(1.0 0.0))((0.000000 1.000000)(1.0 0.0)))(((0.000000 1.000000)(1.0 0.0))((1.0 0.0)(1.0 0.0))))((((0.000000 1.000000)(1.0 0.0))((1.0 0.0)(1.0 0.0)))(((1.0 0.0)(1.0 0.0))((1.0 0.0)(1.0 0.0)))))(((((0.000000 1.000000)(1.0 0.0))((1.0 0.0)(1.0 0.0)))(((1.0 0.0)(1.0 0.0))((1.0 0.0)(1.0 0.0))))((((1.0 0.0)(1.0 0.0))((1.0 0.0)(1.0 0.0)))(((1.0 0.0)(1.0 0.0))((1.0 0.0)(1.0 0.0)))))))(((((((1.0 0.0)(1.0 0.0))((0.000000 1.000000)(1.0 0.0)))(((0.000000 1.000000)(1.0 0.0))((1.0 0.0)(1.0 0.0))))((((0.000000 1.000000)(1.0 0.0))((1.0 0.0)(1.0 0.0)))(((1.0 0.0)(1.0 0.0))((1.0 0.0)(1.0 0.0)))))(((((0.000000 1.000000)(1.0 0.0))((1.0 0.0)(1.0 0.0)))(((1.0 0.0)(1.0 0.0))((1.0 0.0)(1.0 0.0))))((((1.0 0.0)(1.0 0.0))((1.0 0.0)(1.0 0.0)))(((1.0 0.0)(1.0 0.0))((1.0 0.0)(1.0 0.0))))))((((((1.0 0.0)(1.0 0.0))((1.0 0.0)(1.0 0.0)))(((1.0 0.0)(1.0 0.0))((1.0 0.0)(1.0 0.0))))((((1.0 0.0)(1.0 0.0))((1.0 0.0)(1.0 0.0)))(((1.0 0.0)(1.0 0.0))((1.0 0.0)(1.0 0.0)))))(((((1.0 0.0)(1.0 0.0))((1.0 0.0)(1.0 0.0)))(((1.0 0.0)(1.0 0.0))((1.0 0.0)(1.0 0.0))))((((1.0 0.0)(1.0 0.0))((1.0 0.0)(1.0 0.0)))(((1.0 0.0)(1.0 0.0))((1.0 0.0)(1.0 0.0)))))))))(((((((((1.0 0.0)(1.0 0.0))((1.0 0.0)(1.0 0.0)))(((1.0 0.0)(1.0 0.0))((1.0 0.0)(1.0 0.0))))((((1.0 0.0)(1.0 0.0))((1.0 0.0)(1.0 0.0)))(((1.0 0.0)(1.0 0.0))((1.0 0.0)(1.0 0.0)))))(((((1.0 0.0)(1.0 0.0))((1.0 0.0)(1.0 0.0)))(((1.0 0.0)(1.0 0.0))((1.0 0.0)(1.0 0.0))))((((1.0 0.0)(1.0 0.0))((1.0 0.0)(1.0 0.0)))(((1.0 0.0)(1.0 0.0))((1.0 0.0)(1.0 0.0))))))((((((1.0 0.0)(1.0 0.0))((0.000000 1.000000)(1.0 0.0)))(((0.000000 1.000000)(1.0 0.0))((1.0 0.0)(1.0 0.0))))((((0.000000 1.000000)(1.0 0.0))((1.0 0.0)(1.0 0.0)))(((1.0 0.0)(1.0 0.0))((1.0 0.0)(1.0 0.0)))))(((((0.000000 1.000000)(1.0 0.0))((1.0 0.0)(1.0 0.0)))(((1.0 0.0)(1.0 0.0))((1.0 0.0)(1.0 0.0))))((((1.0 0.0)(1.0 0.0))((1.0 0.0)(1.0 0.0)))(((1.0 0.0)(1.0 0.0))((1.0 0.0)(1.0 0.0)))))))(((((((1.0 0.0)(1.0 0.0))((0.000000 1.000000)(1.0 0.0)))(((0.000000 1.000000)(1.0 0.0))((1.0 0.0)(1.0 0.0))))((((0.000000 1.000000)(1.0 0.0))((1.0 0.0)(1.0 0.0)))(((1.0 0.0)(1.0 0.0))((1.0 0.0)(1.0 0.0)))))(((((0.000000 1.000000)(1.0 0.0))((1.0 0.0)(1.0 0.0)))(((1.0 0.0)(1.0 0.0))((1.0 0.0)(1.0 0.0))))((((1.0 0.0)(1.0 0.0))((1.0 0.0)(1.0 0.0)))(((1.0 0.0)(1.0 0.0))((1.0 0.0)(1.0 0.0))))))((((((1.0 0.0)(1.0 0.0))((1.0 0.0)(1.0 0.0)))(((1.0 0.0)(1.0 0.0))((1.0 0.0)(1.0 0.0))))((((1.0 0.0)(1.0 0.0))((1.0 0.0)(1.0 0.0)))(((1.0 0.0)(1.0 0.0))((1.0 0.0)(1.0 0.0)))))(((((1.0 0.0)(1.0 0.0))((1.0 0.0)(1.0 0.0)))(((1.0 0.0)(1.0 0.0))((1.0 0.0)(1.0 0.0))))((((1.0 0.0)(1.0 0.0))((1.0 0.0)(1.0 0.0)))(((1.0 0.0)(1.0 0.0))((1.0 0.0)(1.0 0.0))))))))((((((((1.0 0.0)(1.0 0.0))((1.0 0.0)(1.0 0.0)))(((1.0 0.0)(1.0 0.0))((1.0 0.0)(1.0 0.0))))((((1.0 0.0)(1.0 0.0))((1.0 0.0)(1.0 0.0)))(((1.0 0.0)(1.0 0.0))((1.0 0.0)(1.0 0.0)))))(((((1.0 0.0)(1.0 0.0))((1.0 0.0)(1.0 0.0)))(((1.0 0.0)(1.0 0.0))((1.0 0.0)(1.0 0.0))))((((1.0 0.0)(1.0 0.0))((1.0 0.0)(1.0 0.0)))(((1.0 0.0)(1.0 0.0))((1.0 0.0)(1.0 0.0))))))((((((1.0 0.0)(1.0 0.0))((1.0 0.0)(1.0 0.0)))(((1.0 0.0)(1.0 0.0))((1.0 0.0)(1.0 0.0))))((((1.0 0.0)(1.0 0.0))((1.0 0.0)(1.0 0.0)))(((1.0 0.0)(1.0 0.0))((1.0 0.0)(1.0 0.0)))))(((((1.0 0.0)(1.0 0.0))((1.0 0.0)(1.0 0.0)))(((1.0 0.0)(1.0 0.0))((1.0 0.0)(1.0 0.0))))((((1.0 0.0)(1.0 0.0))((1.0 0.0)(1.0 0.0)))(((1.0 0.0)(1.0 0.0))((1.0 0.0)(1.0 0.0)))))))(((((((1.0 0.0)(1.0 0.0))((1.0 0.0)(1.0 0.0)))(((1.0 0.0)(1.0 0.0))((1.0 0.0)(1.0 0.0))))((((1.0 0.0)(1.0 0.0))((1.0 0.0)(1.0 0.0)))(((1.0 0.0)(1.0 0.0))((1.0 0.0)(1.0 0.0)))))(((((1.0 0.0)(1.0 0.0))((1.0 0.0)(1.0 0.0)))(((1.0 0.0)(1.0 0.0))((1.0 0.0)(1.0 0.0))))((((1.0 0.0)(1.0 0.0))((1.0 0.0)(1.0 0.0)))(((1.0 0.0)(1.0 0.0))((1.0 0.0)(1.0 0.0))))))((((((1.0 0.0)(1.0 0.0))((1.0 0.0)(1.0 0.0)))(((1.0 0.0)(1.0 0.0))((1.0 0.0)(1.0 0.0))))((((1.0 0.0)(1.0 0.0))((1.0 0.0)(1.0 0.0)))(((1.0 0.0)(1.0 0.0))((1.0 0.0)(1.0 0.0)))))(((((1.0 0.0)(1.0 0.0))((1.0 0.0)(1.0 0.0)))(((1.0 0.0)(1.0 0.0))((1.0 0.0)(1.0 0.0))))((((1.0 0.0)(1.0 0.0))((1.0 0.0)(1.0 0.0)))(((1.0 0.0)(1.0 0.0))((1.0 0.0)(1.0 0.0))))))))))((((((((((1.0 0.0)(1.0 0.0))((1.0 0.0)(1.0 0.0)))(((1.0 0.0)(1.0 0.0))((1.0 0.0)(1.0 0.0))))((((1.0 0.0)(1.0 0.0))((1.0 0.0)(1.0 0.0)))(((1.0 0.0)(1.0 0.0))((1.0 0.0)(1.0 0.0)))))(((((1.0 0.0)(1.0 0.0))((1.0 0.0)(1.0 0.0)))(((1.0 0.0)(1.0 0.0))((1.0 0.0)(1.0 0.0))))((((1.0 0.0)(1.0 0.0))((1.0 0.0)(1.0 0.0)))(((1.0 0.0)(1.0 0.0))((1.0 0.0)(1.0 0.0))))))((((((1.0 0.0)(1.0 0.0))((0.000000 1.000000)(1.0 0.0)))(((0.000000 1.000000)(1.0 0.0))((1.0 0.0)(1.0 0.0))))((((0.000000 1.000000)(1.0 0.0))((1.0 0.0)(1.0 0.0)))(((1.0 0.0)(1.0 0.0))((1.0 0.0)(1.0 0.0)))))(((((0.000000 1.000000)(1.0 0.0))((1.0 0.0)(1.0 0.0)))(((1.0 0.0)(1.0 0.0))((1.0 0.0)(1.0 0.0))))((((1.0 0.0)(1.0 0.0))((1.0 0.0)(1.0 0.0)))(((1.0 0.0)(1.0 0.0))((1.0 0.0)(1.0 0.0)))))))(((((((1.0 0.0)(1.0 0.0))((0.000000 1.000000)(1.0 0.0)))(((0.000000 1.000000)(1.0 0.0))((1.0 0.0)(1.0 0.0))))((((0.000000 1.000000)(1.0 0.0))((1.0 0.0)(1.0 0.0)))(((1.0 0.0)(1.0 0.0))((1.0 0.0)(1.0 0.0)))))(((((0.000000 1.000000)(1.0 0.0))((1.0 0.0)(1.0 0.0)))(((1.0 0.0)(1.0 0.0))((1.0 0.0)(1.0 0.0))))((((1.0 0.0)(1.0 0.0))((1.0 0.0)(1.0 0.0)))(((1.0 0.0)(1.0 0.0))((1.0 0.0)(1.0 0.0))))))((((((1.0 0.0)(1.0 0.0))((1.0 0.0)(1.0 0.0)))(((1.0 0.0)(1.0 0.0))((1.0 0.0)(1.0 0.0))))((((1.0 0.0)(1.0 0.0))((1.0 0.0)(1.0 0.0)))(((1.0 0.0)(1.0 0.0))((1.0 0.0)(1.0 0.0)))))(((((1.0 0.0)(1.0 0.0))((1.0 0.0)(1.0 0.0)))(((1.0 0.0)(1.0 0.0))((1.0 0.0)(1.0 0.0))))((((1.0 0.0)(1.0 0.0))((1.0 0.0)(1.0 0.0)))(((1.0 0.0)(1.0 0.0))((1.0 0.0)(1.0 0.0))))))))((((((((1.0 0.0)(1.0 0.0))((1.0 0.0)(1.0 0.0)))(((1.0 0.0)(1.0 0.0))((1.0 0.0)(1.0 0.0))))((((1.0 0.0)(1.0 0.0))((1.0 0.0)(1.0 0.0)))(((1.0 0.0)(1.0 0.0))((1.0 0.0)(1.0 0.0)))))(((((1.0 0.0)(1.0 0.0))((1.0 0.0)(1.0 0.0)))(((1.0 0.0)(1.0 0.0))((1.0 0.0)(1.0 0.0))))((((1.0 0.0)(1.0 0.0))((1.0 0.0)(1.0 0.0)))(((1.0 0.0)(1.0 0.0))((1.0 0.0)(1.0 0.0))))))((((((1.0 0.0)(1.0 0.0))((1.0 0.0)(1.0 0.0)))(((1.0 0.0)(1.0 0.0))((1.0 0.0)(1.0 0.0))))((((1.0 0.0)(1.0 0.0))((1.0 0.0)(1.0 0.0)))(((1.0 0.0)(1.0 0.0))((1.0 0.0)(1.0 0.0)))))(((((1.0 0.0)(1.0 0.0))((1.0 0.0)(1.0 0.0)))(((1.0 0.0)(1.0 0.0))((1.0 0.0)(1.0 0.0))))((((1.0 0.0)(1.0 0.0))((1.0 0.0)(1.0 0.0)))(((1.0 0.0)(1.0 0.0))((1.0 0.0)(1.0 0.0)))))))(((((((1.0 0.0)(1.0 0.0))((1.0 0.0)(1.0 0.0)))(((1.0 0.0)(1.0 0.0))((1.0 0.0)(1.0 0.0))))((((1.0 0.0)(1.0 0.0))((1.0 0.0)(1.0 0.0)))(((1.0 0.0)(1.0 0.0))((1.0 0.0)(1.0 0.0)))))(((((1.0 0.0)(1.0 0.0))((1.0 0.0)(1.0 0.0)))(((1.0 0.0)(1.0 0.0))((1.0 0.0)(1.0 0.0))))((((1.0 0.0)(1.0 0.0))((1.0 0.0)(1.0 0.0)))(((1.0 0.0)(1.0 0.0))((1.0 0.0)(1.0 0.0))))))((((((1.0 0.0)(1.0 0.0))((1.0 0.0)(1.0 0.0)))(((1.0 0.0)(1.0 0.0))((1.0 0.0)(1.0 0.0))))((((1.0 0.0)(1.0 0.0))((1.0 0.0)(1.0 0.0)))(((1.0 0.0)(1.0 0.0))((1.0 0.0)(1.0 0.0)))))(((((1.0 0.0)(1.0 0.0))((1.0 0.0)(1.0 0.0)))(((1.0 0.0)(1.0 0.0))((1.0 0.0)(1.0 0.0))))((((1.0 0.0)(1.0 0.0))((1.0 0.0)(1.0 0.0)))(((1.0 0.0)(1.0 0.0))((1.0 0.0)(1.0 0.0)))))))))(((((((((1.0 0.0)(1.0 0.0))((1.0 0.0)(1.0 0.0)))(((1.0 0.0)(1.0 0.0))((1.0 0.0)(1.0 0.0))))((((1.0 0.0)(1.0 0.0))((1.0 0.0)(1.0 0.0)))(((1.0 0.0)(1.0 0.0))((1.0 0.0)(1.0 0.0)))))(((((1.0 0.0)(1.0 0.0))((1.0 0.0)(1.0 0.0)))(((1.0 0.0)(1.0 0.0))((1.0 0.0)(1.0 0.0))))((((1.0 0.0)(1.0 0.0))((1.0 0.0)(1.0 0.0)))(((1.0 0.0)(1.0 0.0))((1.0 0.0)(1.0 0.0))))))((((((1.0 0.0)(1.0 0.0))((1.0 0.0)(1.0 0.0)))(((1.0 0.0)(1.0 0.0))((1.0 0.0)(1.0 0.0))))((((1.0 0.0)(1.0 0.0))((1.0 0.0)(1.0 0.0)))(((1.0 0.0)(1.0 0.0))((1.0 0.0)(1.0 0.0)))))(((((1.0 0.0)(1.0 0.0))((1.0 0.0)(1.0 0.0)))(((1.0 0.0)(1.0 0.0))((1.0 0.0)(1.0 0.0))))((((1.0 0.0)(1.0 0.0))((1.0 0.0)(1.0 0.0)))(((1.0 0.0)(1.0 0.0))((1.0 0.0)(1.0 0.0)))))))(((((((1.0 0.0)(1.0 0.0))((1.0 0.0)(1.0 0.0)))(((1.0 0.0)(1.0 0.0))((1.0 0.0)(1.0 0.0))))((((1.0 0.0)(1.0 0.0))((1.0 0.0)(1.0 0.0)))(((1.0 0.0)(1.0 0.0))((1.0 0.0)(1.0 0.0)))))(((((1.0 0.0)(1.0 0.0))((1.0 0.0)(1.0 0.0)))(((1.0 0.0)(1.0 0.0))((1.0 0.0)(1.0 0.0))))((((1.0 0.0)(1.0 0.0))((1.0 0.0)(1.0 0.0)))(((1.0 0.0)(1.0 0.0))((1.0 0.0)(1.0 0.0))))))((((((1.0 0.0)(1.0 0.0))((1.0 0.0)(1.0 0.0)))(((1.0 0.0)(1.0 0.0))((1.0 0.0)(1.0 0.0))))((((1.0 0.0)(1.0 0.0))((1.0 0.0)(1.0 0.0)))(((1.0 0.0)(1.0 0.0))((1.0 0.0)(1.0 0.0)))))(((((1.0 0.0)(1.0 0.0))((1.0 0.0)(1.0 0.0)))(((1.0 0.0)(1.0 0.0))((1.0 0.0)(1.0 0.0))))((((1.0 0.0)(1.0 0.0))((1.0 0.0)(1.0 0.0)))(((1.0 0.0)(1.0 0.0))((1.0 0.0)(1.0 0.0))))))))((((((((1.0 0.0)(1.0 0.0))((1.0 0.0)(1.0 0.0)))(((1.0 0.0)(1.0 0.0))((1.0 0.0)(1.0 0.0))))((((1.0 0.0)(1.0 0.0))((1.0 0.0)(1.0 0.0)))(((1.0 0.0)(1.0 0.0))((1.0 0.0)(1.0 0.0)))))(((((1.0 0.0)(1.0 0.0))((1.0 0.0)(1.0 0.0)))(((1.0 0.0)(1.0 0.0))((1.0 0.0)(1.0 0.0))))((((1.0 0.0)(1.0 0.0))((1.0 0.0)(1.0 0.0)))(((1.0 0.0)(1.0 0.0))((1.0 0.0)(1.0 0.0))))))((((((1.0 0.0)(1.0 0.0))((1.0 0.0)(1.0 0.0)))(((1.0 0.0)(1.0 0.0))((1.0 0.0)(1.0 0.0))))((((1.0 0.0)(1.0 0.0))((1.0 0.0)(1.0 0.0)))(((1.0 0.0)(1.0 0.0))((1.0 0.0)(1.0 0.0)))))(((((1.0 0.0)(1.0 0.0))((1.0 0.0)(1.0 0.0)))(((1.0 0.0)(1.0 0.0))((1.0 0.0)(1.0 0.0))))((((1.0 0.0)(1.0 0.0))((1.0 0.0)(1.0 0.0)))(((1.0 0.0)(1.0 0.0))((1.0 0.0)(1.0 0.0)))))))(((((((1.0 0.0)(1.0 0.0))((1.0 0.0)(1.0 0.0)))(((1.0 0.0)(1.0 0.0))((1.0 0.0)(1.0 0.0))))((((1.0 0.0)(1.0 0.0))((1.0 0.0)(1.0 0.0)))(((1.0 0.0)(1.0 0.0))((1.0 0.0)(1.0 0.0)))))(((((1.0 0.0)(1.0 0.0))((1.0 0.0)(1.0 0.0)))(((1.0 0.0)(1.0 0.0))((1.0 0.0)(1.0 0.0))))((((1.0 0.0)(1.0 0.0))((1.0 0.0)(1.0 0.0)))(((1.0 0.0)(1.0 0.0))((1.0 0.0)(1.0 0.0))))))((((((1.0 0.0)(1.0 0.0))((1.0 0.0)(1.0 0.0)))(((1.0 0.0)(1.0 0.0))((1.0 0.0)(1.0 0.0))))((((1.0 0.0)(1.0 0.0))((1.0 0.0)(1.0 0.0)))(((1.0 0.0)(1.0 0.0))((1.0 0.0)(1.0 0.0)))))(((((1.0 0.0)(1.0 0.0))((1.0 0.0)(1.0 0.0)))(((1.0 0.0)(1.0 0.0))((1.0 0.0)(1.0 0.0))))((((1.0 0.0)(1.0 0.0))((1.0 0.0)(1.0 0.0)))(((1.0 0.0)(1.0 0.0))((1.0 0.0)(1.0 0.0))))))))))) ;
}
potential ( VENTALV_ZERO | VENTLUNG_ZERO VENTLUNG_LOW VENTLUNG_NORMAL VENTLUNG_HIGH INTUBATION_NORMAL INTUBATION_ESOPHAGEAL INTUBATION_ONESIDED  )
{
	data = ((((((((1.0 0.0)(1.0 0.0))((1.0 0.0)(1.0 0.0)))(((1.0 0.0)(1.0 0.0))((1.0 0.0)(1.0 0.0))))((((1.0 0.0)(1.0 0.0))((1.0 0.0)(1.0 0.0)))(((1.0 0.0)(1.0 0.0))((1.0 0.0)(1.0 0.0)))))(((((1.0 0.0)(0.990000 0.010000))((0.030000 0.970000)(1.0 0.0)))(((0.990000 0.010000)(1.0 0.0))((1.0 0.0)(1.0 0.0))))((((0.990000 0.010000)(1.0 0.0))((1.0 0.0)(1.0 0.0)))(((1.0 0.0)(1.0 0.0))((1.0 0.0)(1.0 0.0))))))((((((1.0 0.0)(0.990000 0.010000))((0.990000 0.010000)(1.0 0.0)))(((0.030000 0.970000)(1.0 0.0))((1.0 0.0)(1.0 0.0))))((((0.990000 0.010000)(1.0 0.0))((1.0 0.0)(1.0 0.0)))(((1.0 0.0)(1.0 0.0))((1.0 0.0)(1.0 0.0)))))(((((1.0 0.0)(1.0 0.0))((1.0 0.0)(1.0 0.0)))(((1.0 0.0)(1.0 0.0))((1.0 0.0)(1.0 0.0))))((((1.0 0.0)(1.0 0.0))((1.0 0.0)(1.0 0.0)))(((1.0 0.0)(1.0 0.0))((1.0 0.0)(1.0 0.0)))))))(((((((1.0 0.0)(0.970000 0.030000))((0.990000 0.010000)(1.0 0.0)))(((0.990000 0.010000)(1.0 0.0))((1.0 0.0)(1.0 0.0))))((((0.030000 0.970000)(1.0 0.0))((1.0 0.0)(1.0 0.0)))(((1.0 0.0)(1.0 0.0))((1.0 0.0)(1.0 0.0)))))(((((1.0 0.0)(1.0 0.0))((1.0 0.0)(1.0 0.0)))(((1.0 0.0)(1.0 0.0))((1.0 0.0)(1.0 0.0))))((((1.0 0.0)(1.0 0.0))((1.0 0.0)(1.0 0.0)))(((1.0 0.0)(1.0 0.0))((1.0 0.0)(1.0 0.0))))))((((((1.0 0.0)(1.0 0.0))((1.0 0.0)(1.0 0.0)))(((1.0 0.0)(1.0 0.0))((1.0 0.0)(1.0 0.0))))((((1.0 0.0)(1.0 0.0))((1.0 0.0)(1.0 0.0)))(((1.0 0.0)(1.0 0.0))((1.0 0.0)(1.0 0.0)))))(((((1.0 0.0)(1.0 0.0))((1.0 0.0)(1.0 0.0)))(((1.0 0.0)(1.0 0.0))((1.0 0.0)(1.0 0.0))))((((1.0 0.0)(1.0 0.0))((1.0 0.0)(1.0 0.0)))(((1.0 0.0)(1.0 0.0))((1.0 0.0)(1.0 0.0)))))))) ;
}
potential ( VENTALV_LOW | VENTLUNG_ZERO VENTLUNG_LOW VENTLUNG_NORMAL VENTLUNG_HIGH INTUBATION_NORMAL INTUBATION_ESOPHAGEAL INTUBATION_ONESIDED VENTALV_ZERO  )
{
	data = (((((((((1.0 0.0)(1.0 0.0))((1.0 0.0)(1.0 0.0)))(((1.0 0.0)(1.0 0.0))((1.0 0.0)(1.0 0.0))))((((1.0 0.0)(1.0 0.0))((1.0 0.0)(1.0 0.0)))(((1.0 0.0)(1.0 0.0))((1.0 0.0)(1.0 0.0)))))(((((1.0 0.0)(1.0 0.0))((1.0 0.0)(1.0 0.0)))(((1.0 0.0)(1.0 0.0))((1.0 0.0)(1.0 0.0))))((((1.0 0.0)(1.0 0.0))((1.0 0.0)(1.0 0.0)))(((1.0 0.0)(1.0 0.0))((1.0 0.0)(1.0 0.0))))))((((((1.0 0.0)(1.0 0.0))((0.111111 0.888889)(1.0 0.0)))(((0.666667 0.333333)(1.0 0.0))((1.0 0.0)(1.0 0.0))))((((0.020202 0.979798)(1.0 0.0))((1.0 0.0)(1.0 0.0)))(((1.0 0.0)(1.0 0.0))((1.0 0.0)(1.0 0.0)))))(((((0.989899 0.010101)(1.0 0.0))((1.0 0.0)(1.0 0.0)))(((1.0 0.0)(1.0 0.0))((1.0 0.0)(1.0 0.0))))((((1.0 0.0)(1.0 0.0))((1.0 0.0)(1.0 0.0)))(((1.0 0.0)(1.0 0.0))((1.0 0.0)(1.0 0.0)))))))(((((((1.0 0.0)(1.0 0.0))((0.050505 0.949495)(1.0 0.0)))(((0.989899 0.010101)(1.0 0.0))((1.0 0.0)(1.0 0.0))))((((0.666667 0.333333)(1.0 0.0))((1.0 0.0)(1.0 0.0)))(((1.0 0.0)(1.0 0.0))((1.0 0.0)(1.0 0.0)))))(((((0.020202 0.979798)(1.0 0.0))((1.0 0.0)(1.0 0.0)))(((1.0 0.0)(1.0 0.0))((1.0 0.0)(1.0 0.0))))((((1.0 0.0)(1.0 0.0))((1.0 0.0)(1.0 0.0)))(((1.0 0.0)(1.0 0.0))((1.0 0.0)(1.0 0.0))))))((((((1.0 0.0)(1.0 0.0))((1.0 0.0)(1.0 0.0)))(((1.0 0.0)(1.0 0.0))((1.0 0.0)(1.0 0.0))))((((1.0 0.0)(1.0 0.0))((1.0 0.0)(1.0 0.0)))(((1.0 0.0)(1.0 0.0))((1.0 0.0)(1.0 0.0)))))(((((1.0 0.0)(1.0 0.0))((1.0 0.0)(1.0 0.0)))(((1.0 0.0)(1.0 0.0))((1.0 0.0)(1.0 0.0))))((((1.0 0.0)(1.0 0.0))((1.0 0.0)(1.0 0.0)))(((1.0 0.0)(1.0 0.0))((1.0 0.0)(1.0 0.0))))))))((((((((1.0 0.0)(1.0 0.0))((0.020619 0.979381)(1.0 0.0)))(((0.989899 0.010101)(1.0 0.0))((1.0 0.0)(1.0 0.0))))((((0.989899 0.010101)(1.0 0.0))((1.0 0.0)(1.0 0.0)))(((1.0 0.0)(1.0 0.0))((1.0 0.0)(1.0 0.0)))))(((((0.666667 0.333333)(1.0 0.0))((1.0 0.0)(1.0 0.0)))(((1.0 0.0)(1.0 0.0))((1.0 0.0)(1.0 0.0))))((((1.0 0.0)(1.0 0.0))((1.0 0.0)(1.0 0.0)))(((1.0 0.0)(1.0 0.0))((1.0 0.0)(1.0 0.0))))))((((((1.0 0.0)(1.0 0.0))((1.0 0.0)(1.0 0.0)))(((1.0 0.0)(1.0 0.0))((1.0 0.0)(1.0 0.0))))((((1.0 0.0)(1.0 0.0))((1.0 0.0)(1.0 0.0)))(((1.0 0.0)(1.0 0.0))((1.0 0.0)(1.0 0.0)))))(((((1.0 0.0)(1.0 0.0))((1.0 0.0)(1.0 0.0)))(((1.0 0.0)(1.0 0.0))((1.0 0.0)(1.0 0.0))))((((1.0 0.0)(1.0 0.0))((1.0 0.0)(1.0 0.0)))(((1.0 0.0)(1.0 0.0))((1.0 0.0)(1.0 0.0)))))))(((((((1.0 0.0)(1.0 0.0))((1.0 0.0)(1.0 0.0)))(((1.0 0.0)(1.0 0.0))((1.0 0.0)(1.0 0.0))))((((1.0 0.0)(1.0 0.0))((1.0 0.0)(1.0 0.0)))(((1.0 0.0)(1.0 0.0))((1.0 0.0)(1.0 0.0)))))(((((1.0 0.0)(1.0 0.0))((1.0 0.0)(1.0 0.0)))(((1.0 0.0)(1.0 0.0))((1.0 0.0)(1.0 0.0))))((((1.0 0.0)(1.0 0.0))((1.0 0.0)(1.0 0.0)))(((1.0 0.0)(1.0 0.0))((1.0 0.0)(1.0 0.0))))))((((((1.0 0.0)(1.0 0.0))((1.0 0.0)(1.0 0.0)))(((1.0 0.0)(1.0 0.0))((1.0 0.0)(1.0 0.0))))((((1.0 0.0)(1.0 0.0))((1.0 0.0)(1.0 0.0)))(((1.0 0.0)(1.0 0.0))((1.0 0.0)(1.0 0.0)))))(((((1.0 0.0)(1.0 0.0))((1.0 0.0)(1.0 0.0)))(((1.0 0.0)(1.0 0.0))((1.0 0.0)(1.0 0.0))))((((1.0 0.0)(1.0 0.0))((1.0 0.0)(1.0 0.0)))(((1.0 0.0)(1.0 0.0))((1.0 0.0)(1.0 0.0))))))))) ;
}
potential ( VENTALV_NORMAL | VENTLUNG_ZERO VENTLUNG_LOW VENTLUNG_NORMAL VENTLUNG_HIGH INTUBATION_NORMAL INTUBATION_ESOPHAGEAL INTUBATION_ONESIDED VENTALV_LOW  )
{
	data = (((((((((1.0 0.0)(1.0 0.0))((1.0 0.0)(1.0 0.0)))(((1.0 0.0)(1.0 0.0))((1.0 0.0)(1.0 0.0))))((((1.0 0.0)(1.0 0.0))((1.0 0.0)(1.0 0.0)))(((1.0 0.0)(1.0 0.0))((1.0 0.0)(1.0 0.0)))))(((((1.0 0.0)(1.0 0.0))((1.0 0.0)(1.0 0.0)))(((1.0 0.0)(1.0 0.0))((1.0 0.0)(1.0 0.0))))((((1.0 0.0)(1.0 0.0))((1.0 0.0)(1.0 0.0)))(((1.0 0.0)(1.0 0.0))((1.0 0.0)(1.0 0.0))))))((((((1.0 0.0)(1.0 0.0))((0.090909 0.909091)(1.0 0.0)))(((0.500000 0.500000)(1.0 0.0))((1.0 0.0)(1.0 0.0))))((((0.500000 0.500000)(1.0 0.0))((1.0 0.0)(1.0 0.0)))(((1.0 0.0)(1.0 0.0))((1.0 0.0)(1.0 0.0)))))(((((0.010204 0.989796)(1.0 0.0))((1.0 0.0)(1.0 0.0)))(((1.0 0.0)(1.0 0.0))((1.0 0.0)(1.0 0.0))))((((1.0 0.0)(1.0 0.0))((1.0 0.0)(1.0 0.0)))(((1.0 0.0)(1.0 0.0))((1.0 0.0)(1.0 0.0)))))))(((((((1.0 0.0)(1.0 0.0))((0.200000 0.800000)(1.0 0.0)))(((0.989796 0.010204)(1.0 0.0))((1.0 0.0)(1.0 0.0))))((((0.500000 0.500000)(1.0 0.0))((1.0 0.0)(1.0 0.0)))(((1.0 0.0)(1.0 0.0))((1.0 0.0)(1.0 0.0)))))(((((0.500000 0.500000)(1.0 0.0))((1.0 0.0)(1.0 0.0)))(((1.0 0.0)(1.0 0.0))((1.0 0.0)(1.0 0.0))))((((1.0 0.0)(1.0 0.0))((1.0 0.0)(1.0 0.0)))(((1.0 0.0)(1.0 0.0))((1.0 0.0)(1.0 0.0))))))((((((1.0 0.0)(1.0 0.0))((1.0 0.0)(1.0 0.0)))(((1.0 0.0)(1.0 0.0))((1.0 0.0)(1.0 0.0))))((((1.0 0.0)(1.0 0.0))((1.0 0.0)(1.0 0.0)))(((1.0 0.0)(1.0 0.0))((1.0 0.0)(1.0 0.0)))))(((((1.0 0.0)(1.0 0.0))((1.0 0.0)(1.0 0.0)))(((1.0 0.0)(1.0 0.0))((1.0 0.0)(1.0 0.0))))((((1.0 0.0)(1.0 0.0))((1.0 0.0)(1.0 0.0)))(((1.0 0.0)(1.0 0.0))((1.0 0.0)(1.0 0.0))))))))((((((((1.0 0.0)(1.0 0.0))((0.500000 0.500000)(1.0 0.0)))(((0.010204 0.989796)(1.0 0.0))((1.0 0.0)(1.0 0.0))))((((0.989796 0.010204)(1.0 0.0))((1.0 0.0)(1.0 0.0)))(((1.0 0.0)(1.0 0.0))((1.0 0.0)(1.0 0.0)))))(((((0.500000 0.500000)(1.0 0.0))((1.0 0.0)(1.0 0.0)))(((1.0 0.0)(1.0 0.0))((1.0 0.0)(1.0 0.0))))((((1.0 0.0)(1.0 0.0))((1.0 0.0)(1.0 0.0)))(((1.0 0.0)(1.0 0.0))((1.0 0.0)(1.0 0.0))))))((((((1.0 0.0)(1.0 0.0))((1.0 0.0)(1.0 0.0)))(((1.0 0.0)(1.0 0.0))((1.0 0.0)(1.0 0.0))))((((1.0 0.0)(1.0 0.0))((1.0 0.0)(1.0 0.0)))(((1.0 0.0)(1.0 0.0))((1.0 0.0)(1.0 0.0)))))(((((1.0 0.0)(1.0 0.0))((1.0 0.0)(1.0 0.0)))(((1.0 0.0)(1.0 0.0))((1.0 0.0)(1.0 0.0))))((((1.0 0.0)(1.0 0.0))((1.0 0.0)(1.0 0.0)))(((1.0 0.0)(1.0 0.0))((1.0 0.0)(1.0 0.0)))))))(((((((1.0 0.0)(1.0 0.0))((1.0 0.0)(1.0 0.0)))(((1.0 0.0)(1.0 0.0))((1.0 0.0)(1.0 0.0))))((((1.0 0.0)(1.0 0.0))((1.0 0.0)(1.0 0.0)))(((1.0 0.0)(1.0 0.0))((1.0 0.0)(1.0 0.0)))))(((((1.0 0.0)(1.0 0.0))((1.0 0.0)(1.0 0.0)))(((1.0 0.0)(1.0 0.0))((1.0 0.0)(1.0 0.0))))((((1.0 0.0)(1.0 0.0))((1.0 0.0)(1.0 0.0)))(((1.0 0.0)(1.0 0.0))((1.0 0.0)(1.0 0.0))))))((((((1.0 0.0)(1.0 0.0))((1.0 0.0)(1.0 0.0)))(((1.0 0.0)(1.0 0.0))((1.0 0.0)(1.0 0.0))))((((1.0 0.0)(1.0 0.0))((1.0 0.0)(1.0 0.0)))(((1.0 0.0)(1.0 0.0))((1.0 0.0)(1.0 0.0)))))(((((1.0 0.0)(1.0 0.0))((1.0 0.0)(1.0 0.0)))(((1.0 0.0)(1.0 0.0))((1.0 0.0)(1.0 0.0))))((((1.0 0.0)(1.0 0.0))((1.0 0.0)(1.0 0.0)))(((1.0 0.0)(1.0 0.0))((1.0 0.0)(1.0 0.0))))))))) ;
}
potential ( VENTALV_HIGH | VENTLUNG_ZERO VENTLUNG_LOW VENTLUNG_NORMAL VENTLUNG_HIGH INTUBATION_NORMAL INTUBATION_ESOPHAGEAL INTUBATION_ONESIDED VENTALV_NORMAL  )
{
	data = (((((((((1.0 0.0)(1.0 0.0))((1.0 0.0)(1.0 0.0)))(((1.0 0.0)(1.0 0.0))((1.0 0.0)(1.0 0.0))))((((1.0 0.0)(1.0 0.0))((1.0 0.0)(1.0 0.0)))(((1.0 0.0)(1.0 0.0))((1.0 0.0)(1.0 0.0)))))(((((1.0 0.0)(1.0 0.0))((1.0 0.0)(1.0 0.0)))(((1.0 0.0)(1.0 0.0))((1.0 0.0)(1.0 0.0))))((((1.0 0.0)(1.0 0.0))((1.0 0.0)(1.0 0.0)))(((1.0 0.0)(1.0 0.0))((1.0 0.0)(1.0 0.0))))))((((((1.0 0.0)(1.0 0.0))((0.000000 1.000000)(1.0 0.0)))(((0.000000 1.000000)(1.0 0.0))((1.0 0.0)(1.0 0.0))))((((0.000000 1.000000)(1.0 0.0))((1.0 0.0)(1.0 0.0)))(((1.0 0.0)(1.0 0.0))((1.0 0.0)(1.0 0.0)))))(((((0.000000 1.000000)(1.0 0.0))((1.0 0.0)(1.0 0.0)))(((1.0 0.0)(1.0 0.0))((1.0 0.0)(1.0 0.0))))((((1.0 0.0)(1.0 0.0))((1.0 0.0)(1.0 0.0)))(((1.0 0.0)(1.0 0.0))((1.0 0.0)(1.0 0.0)))))))(((((((1.0 0.0)(1.0 0.0))((0.000000 1.000000)(1.0 0.0)))(((0.000000 1.000000)(1.0 0.0))((1.0 0.0)(1.0 0.0))))((((0.000000 1.000000)(1.0 0.0))((1.0 0.0)(1.0 0.0)))(((1.0 0.0)(1.0 0.0))((1.0 0.0)(1.0 0.0)))))(((((0.000000 1.000000)(1.0 0.0))((1.0 0.0)(1.0 0.0)))(((1.0 0.0)(1.0 0.0))((1.0 0.0)(1.0 0.0))))((((1.0 0.0)(1.0 0.0))((1.0 0.0)(1.0 0.0)))(((1.0 0.0)(1.0 0.0))((1.0 0.0)(1.0 0.0))))))((((((1.0 0.0)(1.0 0.0))((1.0 0.0)(1.0 0.0)))(((1.0 0.0)(1.0 0.0))((1.0 0.0)(1.0 0.0))))((((1.0 0.0)(1.0 0.0))((1.0 0.0)(1.0 0.0)))(((1.0 0.0)(1.0 0.0))((1.0 0.0)(1.0 0.0)))))(((((1.0 0.0)(1.0 0.0))((1.0 0.0)(1.0 0.0)))(((1.0 0.0)(1.0 0.0))((1.0 0.0)(1.0 0.0))))((((1.0 0.0)(1.0 0.0))((1.0 0.0)(1.0 0.0)))(((1.0 0.0)(1.0 0.0))((1.0 0.0)(1.0 0.0))))))))((((((((1.0 0.0)(1.0 0.0))((0.000000 1.000000)(1.0 0.0)))(((0.000000 1.000000)(1.0 0.0))((1.0 0.0)(1.0 0.0))))((((0.000000 1.000000)(1.0 0.0))((1.0 0.0)(1.0 0.0)))(((1.0 0.0)(1.0 0.0))((1.0 0.0)(1.0 0.0)))))(((((0.000000 1.000000)(1.0 0.0))((1.0 0.0)(1.0 0.0)))(((1.0 0.0)(1.0 0.0))((1.0 0.0)(1.0 0.0))))((((1.0 0.0)(1.0 0.0))((1.0 0.0)(1.0 0.0)))(((1.0 0.0)(1.0 0.0))((1.0 0.0)(1.0 0.0))))))((((((1.0 0.0)(1.0 0.0))((1.0 0.0)(1.0 0.0)))(((1.0 0.0)(1.0 0.0))((1.0 0.0)(1.0 0.0))))((((1.0 0.0)(1.0 0.0))((1.0 0.0)(1.0 0.0)))(((1.0 0.0)(1.0 0.0))((1.0 0.0)(1.0 0.0)))))(((((1.0 0.0)(1.0 0.0))((1.0 0.0)(1.0 0.0)))(((1.0 0.0)(1.0 0.0))((1.0 0.0)(1.0 0.0))))((((1.0 0.0)(1.0 0.0))((1.0 0.0)(1.0 0.0)))(((1.0 0.0)(1.0 0.0))((1.0 0.0)(1.0 0.0)))))))(((((((1.0 0.0)(1.0 0.0))((1.0 0.0)(1.0 0.0)))(((1.0 0.0)(1.0 0.0))((1.0 0.0)(1.0 0.0))))((((1.0 0.0)(1.0 0.0))((1.0 0.0)(1.0 0.0)))(((1.0 0.0)(1.0 0.0))((1.0 0.0)(1.0 0.0)))))(((((1.0 0.0)(1.0 0.0))((1.0 0.0)(1.0 0.0)))(((1.0 0.0)(1.0 0.0))((1.0 0.0)(1.0 0.0))))((((1.0 0.0)(1.0 0.0))((1.0 0.0)(1.0 0.0)))(((1.0 0.0)(1.0 0.0))((1.0 0.0)(1.0 0.0))))))((((((1.0 0.0)(1.0 0.0))((1.0 0.0)(1.0 0.0)))(((1.0 0.0)(1.0 0.0))((1.0 0.0)(1.0 0.0))))((((1.0 0.0)(1.0 0.0))((1.0 0.0)(1.0 0.0)))(((1.0 0.0)(1.0 0.0))((1.0 0.0)(1.0 0.0)))))(((((1.0 0.0)(1.0 0.0))((1.0 0.0)(1.0 0.0)))(((1.0 0.0)(1.0 0.0))((1.0 0.0)(1.0 0.0))))((((1.0 0.0)(1.0 0.0))((1.0 0.0)(1.0 0.0)))(((1.0 0.0)(1.0 0.0))((1.0 0.0)(1.0 0.0))))))))) ;
}
potential ( ARTCO2_LOW | VENTALV_ZERO VENTALV_LOW VENTALV_NORMAL VENTALV_HIGH  )
{
	data = (((((1.0 0.0)(0.100000 0.900000))((0.960000 0.040000)(1.0 0.0)))(((0.990000 0.010000)(1.0 0.0))((1.0 0.0)(1.0 0.0))))((((0.990000 0.010000)(1.0 0.0))((1.0 0.0)(1.0 0.0)))(((1.0 0.0)(1.0 0.0))((1.0 0.0)(1.0 0.0))))) ;
}
potential ( ARTCO2_NORMAL | VENTALV_ZERO VENTALV_LOW VENTALV_NORMAL VENTALV_HIGH ARTCO2_LOW  )
{
	data = ((((((1.0 0.0)(1.0 0.0))((0.100000 0.900000)(1.0 0.0)))(((0.041667 0.958333)(1.0 0.0))((1.0 0.0)(1.0 0.0))))((((0.989899 0.010101)(1.0 0.0))((1.0 0.0)(1.0 0.0)))(((1.0 0.0)(1.0 0.0))((1.0 0.0)(1.0 0.0)))))(((((0.989899 0.010101)(1.0 0.0))((1.0 0.0)(1.0 0.0)))(((1.0 0.0)(1.0 0.0))((1.0 0.0)(1.0 0.0))))((((1.0 0.0)(1.0 0.0))((1.0 0.0)(1.0 0.0)))(((1.0 0.0)(1.0 0.0))((1.0 0.0)(1.0 0.0)))))) ;
}
potential ( ARTCO2_HIGH | VENTALV_ZERO VENTALV_LOW VENTALV_NORMAL VENTALV_HIGH ARTCO2_NORMAL  )
{
	data = ((((((1.0 0.0)(1.0 0.0))((0.000000 1.000000)(1.0 0.0)))(((0.000000 1.000000)(1.0 0.0))((1.0 0.0)(1.0 0.0))))((((0.000000 1.000000)(1.0 0.0))((1.0 0.0)(1.0 0.0)))(((1.0 0.0)(1.0 0.0))((1.0 0.0)(1.0 0.0)))))(((((0.000000 1.000000)(1.0 0.0))((1.0 0.0)(1.0 0.0)))(((1.0 0.0)(1.0 0.0))((1.0 0.0)(1.0 0.0))))((((1.0 0.0)(1.0 0.0))((1.0 0.0)(1.0 0.0)))(((1.0 0.0)(1.0 0.0))((1.0 0.0)(1.0 0.0)))))) ;
}
potential ( INSUFFANESTH_TRUE  )
{
	data = (0.900000 0.100000) ;
}
potential ( INSUFFANESTH_FALSE | INSUFFANESTH_TRUE  )
{
	data = ((0.000000 1.000000)(1.0 0.0)) ;
}
potential ( FIO2_LOW  )
{
	data = (0.950000 0.050000) ;
}
potential ( FIO2_NORMAL | FIO2_LOW  )
{
	data = ((0.000000 1.000000)(1.0 0.0)) ;
}
potential ( PVSAT_LOW | VENTALV_ZERO VENTALV_LOW VENTALV_NORMAL VENTALV_HIGH FIO2_LOW FIO2_NORMAL  )
{
	data = (((((((1.0 0.0)(1.0 0.0))((1.0 0.0)(1.0 0.0)))(((1.0 0.0)(1.0 0.0))((1.0 0.0)(1.0 0.0))))((((1.0 0.0)(1.0 0.0))((1.0 0.0)(1.0 0.0)))(((1.0 0.0)(1.0 0.0))((1.0 0.0)(1.0 0.0)))))(((((1.0 0.0)(0.990000 0.010000))((0.050000 0.950000)(1.0 0.0)))(((0.050000 0.950000)(1.0 0.0))((1.0 0.0)(1.0 0.0))))((((0.010000 0.990000)(1.0 0.0))((1.0 0.0)(1.0 0.0)))(((1.0 0.0)(1.0 0.0))((1.0 0.0)(1.0 0.0))))))((((((1.0 0.0)(0.990000 0.010000))((0.000000 1.000000)(1.0 0.0)))(((0.050000 0.950000)(1.0 0.0))((1.0 0.0)(1.0 0.0))))((((0.000000 1.000000)(1.0 0.0))((1.0 0.0)(1.0 0.0)))(((1.0 0.0)(1.0 0.0))((1.0 0.0)(1.0 0.0)))))(((((1.0 0.0)(1.0 0.0))((1.0 0.0)(1.0 0.0)))(((1.0 0.0)(1.0 0.0))((1.0 0.0)(1.0 0.0))))((((1.0 0.0)(1.0 0.0))((1.0 0.0)(1.0 0.0)))(((1.0 0.0)(1.0 0.0))((1.0 0.0)(1.0 0.0))))))) ;
}
potential ( PVSAT_NORMAL | VENTALV_ZERO VENTALV_LOW VENTALV_NORMAL VENTALV_HIGH FIO2_LOW FIO2_NORMAL PVSAT_LOW  )
{
	data = ((((((((1.0 0.0)(1.0 0.0))((1.0 0.0)(1.0 0.0)))(((1.0 0.0)(1.0 0.0))((1.0 0.0)(1.0 0.0))))((((1.0 0.0)(1.0 0.0))((1.0 0.0)(1.0 0.0)))(((1.0 0.0)(1.0 0.0))((1.0 0.0)(1.0 0.0)))))(((((1.0 0.0)(1.0 0.0))((1.0 0.0)(1.0 0.0)))(((1.0 0.0)(1.0 0.0))((1.0 0.0)(1.0 0.0))))((((1.0 0.0)(1.0 0.0))((1.0 0.0)(1.0 0.0)))(((1.0 0.0)(1.0 0.0))((1.0 0.0)(1.0 0.0))))))((((((1.0 0.0)(1.0 0.0))((0.989899 0.010101)(1.0 0.0)))(((0.200000 0.800000)(1.0 0.0))((1.0 0.0)(1.0 0.0))))((((0.200000 0.800000)(1.0 0.0))((1.0 0.0)(1.0 0.0)))(((1.0 0.0)(1.0 0.0))((1.0 0.0)(1.0 0.0)))))(((((0.000000 1.000000)(1.0 0.0))((1.0 0.0)(1.0 0.0)))(((1.0 0.0)(1.0 0.0))((1.0 0.0)(1.0 0.0))))((((1.0 0.0)(1.0 0.0))((1.0 0.0)(1.0 0.0)))(((1.0 0.0)(1.0 0.0))((1.0 0.0)(1.0 0.0)))))))(((((((1.0 0.0)(1.0 0.0))((0.040404 0.959596)(1.0 0.0)))(((0.000000 1.000000)(1.0 0.0))((1.0 0.0)(1.0 0.0))))((((0.200000 0.800000)(1.0 0.0))((1.0 0.0)(1.0 0.0)))(((1.0 0.0)(1.0 0.0))((1.0 0.0)(1.0 0.0)))))(((((0.000000 1.000000)(1.0 0.0))((1.0 0.0)(1.0 0.0)))(((1.0 0.0)(1.0 0.0))((1.0 0.0)(1.0 0.0))))((((1.0 0.0)(1.0 0.0))((1.0 0.0)(1.0 0.0)))(((1.0 0.0)(1.0 0.0))((1.0 0.0)(1.0 0.0))))))((((((1.0 0.0)(1.0 0.0))((1.0 0.0)(1.0 0.0)))(((1.0 0.0)(1.0 0.0))((1.0 0.0)(1.0 0.0))))((((1.0 0.0)(1.0 0.0))((1.0 0.0)(1.0 0.0)))(((1.0 0.0)(1.0 0.0))((1.0 0.0)(1.0 0.0)))))(((((1.0 0.0)(1.0 0.0))((1.0 0.0)(1.0 0.0)))(((1.0 0.0)(1.0 0.0))((1.0 0.0)(1.0 0.0))))((((1.0 0.0)(1.0 0.0))((1.0 0.0)(1.0 0.0)))(((1.0 0.0)(1.0 0.0))((1.0 0.0)(1.0 0.0)))))))) ;
}
potential ( PVSAT_HIGH | VENTALV_ZERO VENTALV_LOW VENTALV_NORMAL VENTALV_HIGH FIO2_LOW FIO2_NORMAL PVSAT_NORMAL  )
{
	data = ((((((((1.0 0.0)(1.0 0.0))((1.0 0.0)(1.0 0.0)))(((1.0 0.0)(1.0 0.0))((1.0 0.0)(1.0 0.0))))((((1.0 0.0)(1.0 0.0))((1.0 0.0)(1.0 0.0)))(((1.0 0.0)(1.0 0.0))((1.0 0.0)(1.0 0.0)))))(((((1.0 0.0)(1.0 0.0))((1.0 0.0)(1.0 0.0)))(((1.0 0.0)(1.0 0.0))((1.0 0.0)(1.0 0.0))))((((1.0 0.0)(1.0 0.0))((1.0 0.0)(1.0 0.0)))(((1.0 0.0)(1.0 0.0))((1.0 0.0)(1.0 0.0))))))((((((1.0 0.0)(1.0 0.0))((0.000000 1.000000)(1.0 0.0)))(((0.000000 1.000000)(1.0 0.0))((1.0 0.0)(1.0 0.0))))((((0.000000 1.000000)(1.0 0.0))((1.0 0.0)(1.0 0.0)))(((1.0 0.0)(1.0 0.0))((1.0 0.0)(1.0 0.0)))))(((((0.000000 1.000000)(1.0 0.0))((1.0 0.0)(1.0 0.0)))(((1.0 0.0)(1.0 0.0))((1.0 0.0)(1.0 0.0))))((((1.0 0.0)(1.0 0.0))((1.0 0.0)(1.0 0.0)))(((1.0 0.0)(1.0 0.0))((1.0 0.0)(1.0 0.0)))))))(((((((1.0 0.0)(1.0 0.0))((0.000000 1.000000)(1.0 0.0)))(((0.000000 1.000000)(1.0 0.0))((1.0 0.0)(1.0 0.0))))((((0.000000 1.000000)(1.0 0.0))((1.0 0.0)(1.0 0.0)))(((1.0 0.0)(1.0 0.0))((1.0 0.0)(1.0 0.0)))))(((((0.000000 1.000000)(1.0 0.0))((1.0 0.0)(1.0 0.0)))(((1.0 0.0)(1.0 0.0))((1.0 0.0)(1.0 0.0))))((((1.0 0.0)(1.0 0.0))((1.0 0.0)(1.0 0.0)))(((1.0 0.0)(1.0 0.0))((1.0 0.0)(1.0 0.0))))))((((((1.0 0.0)(1.0 0.0))((1.0 0.0)(1.0 0.0)))(((1.0 0.0)(1.0 0.0))((1.0 0.0)(1.0 0.0))))((((1.0 0.0)(1.0 0.0))((1.0 0.0)(1.0 0.0)))(((1.0 0.0)(1.0 0.0))((1.0 0.0)(1.0 0.0)))))(((((1.0 0.0)(1.0 0.0))((1.0 0.0)(1.0 0.0)))(((1.0 0.0)(1.0 0.0))((1.0 0.0)(1.0 0.0))))((((1.0 0.0)(1.0 0.0))((1.0 0.0)(1.0 0.0)))(((1.0 0.0)(1.0 0.0))((1.0 0.0)(1.0 0.0)))))))) ;
}
potential ( PULMEMBOLUS_TRUE  )
{
	data = (0.990000 0.010000) ;
}
potential ( PULMEMBOLUS_FALSE | PULMEMBOLUS_TRUE  )
{
	data = ((0.000000 1.000000)(1.0 0.0)) ;
}
potential ( SHUNT_NORMAL | PULMEMBOLUS_TRUE PULMEMBOLUS_FALSE INTUBATION_NORMAL INTUBATION_ESOPHAGEAL INTUBATION_ONESIDED  )
{
	data = ((((((1.0 0.0)(1.0 0.0))((1.0 0.0)(1.0 0.0)))(((1.0 0.0)(0.950000 0.050000))((0.990000 0.010000)(1.0 0.0))))((((1.0 0.0)(0.050000 0.950000))((0.900000 0.100000)(1.0 0.0)))(((1.0 0.0)(1.0 0.0))((1.0 0.0)(1.0 0.0)))))(((((1.0 0.0)(0.050000 0.950000))((0.900000 0.100000)(1.0 0.0)))(((1.0 0.0)(1.0 0.0))((1.0 0.0)(1.0 0.0))))((((1.0 0.0)(1.0 0.0))((1.0 0.0)(1.0 0.0)))(((1.0 0.0)(1.0 0.0))((1.0 0.0)(1.0 0.0)))))) ;
}
potential ( SHUNT_HIGH | PULMEMBOLUS_TRUE PULMEMBOLUS_FALSE INTUBATION_NORMAL INTUBATION_ESOPHAGEAL INTUBATION_ONESIDED SHUNT_NORMAL  )
{
	data = (((((((1.0 0.0)(1.0 0.0))((1.0 0.0)(1.0 0.0)))(((1.0 0.0)(1.0 0.0))((1.0 0.0)(1.0 0.0))))((((1.0 0.0)(1.0 0.0))((0.000000 1.000000)(1.0 0.0)))(((0.000000 1.000000)(1.0 0.0))((1.0 0.0)(1.0 0.0)))))(((((1.0 0.0)(1.0 0.0))((0.000000 1.000000)(1.0 0.0)))(((0.000000 1.000000)(1.0 0.0))((1.0 0.0)(1.0 0.0))))((((1.0 0.0)(1.0 0.0))((1.0 0.0)(1.0 0.0)))(((1.0 0.0)(1.0 0.0))((1.0 0.0)(1.0 0.0))))))((((((1.0 0.0)(1.0 0.0))((0.000000 1.000000)(1.0 0.0)))(((0.000000 1.000000)(1.0 0.0))((1.0 0.0)(1.0 0.0))))((((1.0 0.0)(1.0 0.0))((1.0 0.0)(1.0 0.0)))(((1.0 0.0)(1.0 0.0))((1.0 0.0)(1.0 0.0)))))(((((1.0 0.0)(1.0 0.0))((1.0 0.0)(1.0 0.0)))(((1.0 0.0)(1.0 0.0))((1.0 0.0)(1.0 0.0))))((((1.0 0.0)(1.0 0.0))((1.0 0.0)(1.0 0.0)))(((1.0 0.0)(1.0 0.0))((1.0 0.0)(1.0 0.0))))))) ;
}
potential ( SAO2_LOW | SHUNT_NORMAL SHUNT_HIGH PVSAT_LOW PVSAT_NORMAL PVSAT_HIGH  )
{
	data = ((((((1.0 0.0)(1.0 0.0))((1.0 0.0)(1.0 0.0)))(((1.0 0.0)(0.310000 0.690000))((0.990000 0.010000)(1.0 0.0))))((((1.0 0.0)(0.020000 0.980000))((0.990000 0.010000)(1.0 0.0)))(((1.0 0.0)(1.0 0.0))((1.0 0.0)(1.0 0.0)))))(((((1.0 0.0)(0.020000 0.980000))((0.020000 0.980000)(1.0 0.0)))(((1.0 0.0)(1.0 0.0))((1.0 0.0)(1.0 0.0))))((((1.0 0.0)(1.0 0.0))((1.0 0.0)(1.0 0.0)))(((1.0 0.0)(1.0 0.0))((1.0 0.0)(1.0 0.0)))))) ;
}
potential ( SAO2_NORMAL | SHUNT_NORMAL SHUNT_HIGH PVSAT_LOW PVSAT_NORMAL PVSAT_HIGH SAO2_LOW  )
{
	data = (((((((1.0 0.0)(1.0 0.0))((1.0 0.0)(1.0 0.0)))(((1.0 0.0)(1.0 0.0))((1.0 0.0)(1.0 0.0))))((((1.0 0.0)(1.0 0.0))((0.032258 0.967742)(1.0 0.0)))(((0.989899 0.010101)(1.0 0.0))((1.0 0.0)(1.0 0.0)))))(((((1.0 0.0)(1.0 0.0))((0.500000 0.500000)(1.0 0.0)))(((0.010101 0.989899)(1.0 0.0))((1.0 0.0)(1.0 0.0))))((((1.0 0.0)(1.0 0.0))((1.0 0.0)(1.0 0.0)))(((1.0 0.0)(1.0 0.0))((1.0 0.0)(1.0 0.0))))))((((((1.0 0.0)(1.0 0.0))((0.500000 0.500000)(1.0 0.0)))(((0.500000 0.500000)(1.0 0.0))((1.0 0.0)(1.0 0.0))))((((1.0 0.0)(1.0 0.0))((1.0 0.0)(1.0 0.0)))(((1.0 0.0)(1.0 0.0))((1.0 0.0)(1.0 0.0)))))(((((1.0 0.0)(1.0 0.0))((1.0 0.0)(1.0 0.0)))(((1.0 0.0)(1.0 0.0))((1.0 0.0)(1.0 0.0))))((((1.0 0.0)(1.0 0.0))((1.0 0.0)(1.0 0.0)))(((1.0 0.0)(1.0 0.0))((1.0 0.0)(1.0 0.0))))))) ;
}
potential ( SAO2_HIGH | SHUNT_NORMAL SHUNT_HIGH PVSAT_LOW PVSAT_NORMAL PVSAT_HIGH SAO2_NORMAL  )
{
	data = (((((((1.0 0.0)(1.0 0.0))((1.0 0.0)(1.0 0.0)))(((1.0 0.0)(1.0 0.0))((1.0 0.0)(1.0 0.0))))((((1.0 0.0)(1.0 0.0))((0.000000 1.000000)(1.0 0.0)))(((0.000000 1.000000)(1.0 0.0))((1.0 0.0)(1.0 0.0)))))(((((1.0 0.0)(1.0 0.0))((0.000000 1.000000)(1.0 0.0)))(((0.000000 1.000000)(1.0 0.0))((1.0 0.0)(1.0 0.0))))((((1.0 0.0)(1.0 0.0))((1.0 0.0)(1.0 0.0)))(((1.0 0.0)(1.0 0.0))((1.0 0.0)(1.0 0.0))))))((((((1.0 0.0)(1.0 0.0))((0.000000 1.000000)(1.0 0.0)))(((0.000000 1.000000)(1.0 0.0))((1.0 0.0)(1.0 0.0))))((((1.0 0.0)(1.0 0.0))((1.0 0.0)(1.0 0.0)))(((1.0 0.0)(1.0 0.0))((1.0 0.0)(1.0 0.0)))))(((((1.0 0.0)(1.0 0.0))((1.0 0.0)(1.0 0.0)))(((1.0 0.0)(1.0 0.0))((1.0 0.0)(1.0 0.0))))((((1.0 0.0)(1.0 0.0))((1.0 0.0)(1.0 0.0)))(((1.0 0.0)(1.0 0.0))((1.0 0.0)(1.0 0.0))))))) ;
}
potential ( ANAPHYLAXIS_TRUE  )
{
	data = (0.990000 0.010000) ;
}
potential ( ANAPHYLAXIS_FALSE | ANAPHYLAXIS_TRUE  )
{
	data = ((0.000000 1.000000)(1.0 0.0)) ;
}
potential ( TPR_LOW | ANAPHYLAXIS_TRUE ANAPHYLAXIS_FALSE  )
{
	data = (((1.0 0.0)(0.700000 0.300000))((0.020000 0.980000)(1.0 0.0))) ;
}
potential ( TPR_NORMAL | ANAPHYLAXIS_TRUE ANAPHYLAXIS_FALSE TPR_LOW  )
{
	data = ((((1.0 0.0)(1.0 0.0))((0.428571 0.571429)(1.0 0.0)))(((0.500000 0.500000)(1.0 0.0))((1.0 0.0)(1.0 0.0)))) ;
}
potential ( TPR_HIGH | ANAPHYLAXIS_TRUE ANAPHYLAXIS_FALSE TPR_NORMAL  )
{
	data = ((((1.0 0.0)(1.0 0.0))((0.000000 1.000000)(1.0 0.0)))(((0.000000 1.000000)(1.0 0.0))((1.0 0.0)(1.0 0.0)))) ;
}
potential ( CATECHOL_NORMAL | TPR_LOW TPR_NORMAL TPR_HIGH SAO2_LOW SAO2_NORMAL SAO2_HIGH INSUFFANESTH_TRUE INSUFFANESTH_FALSE ARTCO2_LOW ARTCO2_NORMAL ARTCO2_HIGH  )
{
