net
{
}
node Pollution_low
{
	states = ( "false" "true" );
}
node Pollution_high
{
	states = ( "false" "true" );
}
node Smoker_True
{
	states = ( "false" "true" );
}
node Smoker_False
{
	states = ( "false" "true" );
}
node Cancer_True
{
	states = ( "false" "true" );
}
node Cancer_False
{
	states = ( "false" "true" );
}
node Xray_positive
{
	states = ( "false" "true" );
}
node Xray_negative
{
	states = ( "false" "true" );
}
node Dyspnoea_True
{
	states = ( "false" "true" );
}
node Dyspnoea_False
{
	states = ( "false" "true" );
}
potential ( Pollution_low  )
{
	data = (0.100000 0.900000) ;
}
potential ( Pollution_high | Pollution_low  )
{
	data = ((-0.000000 1.000000)(1.0 0.0)) ;
}
potential ( Smoker_True  )
{
	data = (0.700000 0.300000) ;
}
potential ( Smoker_False | Smoker_True  )
{
	data = ((0.000000 1.000000)(1.0 0.0)) ;
}
potential ( Cancer_True | Smoker_True Smoker_False Pollution_low Pollution_high  )
{
	data = (((((0.970000 0.030000)(0.950000 0.050000))((0.999000 0.001000)(0.980000 0.020000)))(((1.0 0.0)(1.0 0.0))((1.0 0.0)(1.0 0.0))))((((1.0 0.0)(1.0 0.0))((1.0 0.0)(1.0 0.0)))(((1.0 0.0)(1.0 0.0))((1.0 0.0)(1.0 0.0))))) ;
}
potential ( Cancer_False | Smoker_True Smoker_False Pollution_low Pollution_high Cancer_True  )
{
	data = ((((((0.000000 1.000000)(1.0 0.0))((0.000000 1.000000)(1.0 0.0)))(((0.000000 1.000000)(1.0 0.0))((0.000000 1.000000)(1.0 0.0))))((((1.0 0.0)(1.0 0.0))((1.0 0.0)(1.0 0.0)))(((1.0 0.0)(1.0 0.0))((1.0 0.0)(1.0 0.0)))))(((((1.0 0.0)(1.0 0.0))((1.0 0.0)(1.0 0.0)))(((1.0 0.0)(1.0 0.0))((1.0 0.0)(1.0 0.0))))((((1.0 0.0)(1.0 0.0))((1.0 0.0)(1.0 0.0)))(((1.0 0.0)(1.0 0.0))((1.0 0.0)(1.0 0.0)))))) ;
}
potential ( Xray_positive | Cancer_True Cancer_False  )
{
	data = (((0.100000 0.900000)(0.800000 0.200000))((1.0 0.0)(1.0 0.0))) ;
}
potential ( Xray_negative | Cancer_True Cancer_False Xray_positive  )
{
	data = ((((-0.000000 1.000000)(1.0 0.0))((0.000000 1.000000)(1.0 0.0)))(((1.0 0.0)(1.0 0.0))((1.0 0.0)(1.0 0.0)))) ;
}
potential ( Dyspnoea_True | Cancer_True Cancer_False  )
{
	data = (((0.350000 0.650000)(0.700000 0.300000))((1.0 0.0)(1.0 0.0))) ;
}
potential ( Dyspnoea_False | Cancer_True Cancer_False Dyspnoea_True  )
{
	data = ((((0.000000 1.000000)(1.0 0.0))((0.000000 1.000000)(1.0 0.0)))(((1.0 0.0)(1.0 0.0))((1.0 0.0)(1.0 0.0)))) ;
}
