net
{
}
node GoodStudent_True
{
	states = ( "false" "true" );
}
node GoodStudent_False
{
	states = ( "false" "true" );
}
node Age_Adolescent
{
	states = ( "false" "true" );
}
node Age_Adult
{
	states = ( "false" "true" );
}
node Age_Senior
{
	states = ( "false" "true" );
}
node SocioEcon_Prole
{
	states = ( "false" "true" );
}
node SocioEcon_Middle
{
	states = ( "false" "true" );
}
node SocioEcon_UpperMiddle
{
	states = ( "false" "true" );
}
node SocioEcon_Wealthy
{
	states = ( "false" "true" );
}
node RiskAversion_Psychopath
{
	states = ( "false" "true" );
}
node RiskAversion_Adventurous
{
	states = ( "false" "true" );
}
node RiskAversion_Normal
{
	states = ( "false" "true" );
}
node RiskAversion_Cautious
{
	states = ( "false" "true" );
}
node VehicleYear_Current
{
	states = ( "false" "true" );
}
node VehicleYear_Older
{
	states = ( "false" "true" );
}
node ThisCarDam_None
{
	states = ( "false" "true" );
}
node ThisCarDam_Mild
{
	states = ( "false" "true" );
}
node ThisCarDam_Moderate
{
	states = ( "false" "true" );
}
node ThisCarDam_Severe
{
	states = ( "false" "true" );
}
node RuggedAuto_EggShell
{
	states = ( "false" "true" );
}
node RuggedAuto_Football
{
	states = ( "false" "true" );
}
node RuggedAuto_Tank
{
	states = ( "false" "true" );
}
node Accident_None
{
	states = ( "false" "true" );
}
node Accident_Mild
{
	states = ( "false" "true" );
}
node Accident_Moderate
{
	states = ( "false" "true" );
}
node Accident_Severe
{
	states = ( "false" "true" );
}
node MakeModel_SportsCar
{
	states = ( "false" "true" );
}
node MakeModel_Economy
{
	states = ( "false" "true" );
}
node MakeModel_FamilySedan
{
	states = ( "false" "true" );
}
node MakeModel_Luxury
{
	states = ( "false" "true" );
}
node MakeModel_SuperLuxury
{
	states = ( "false" "true" );
}
node DrivQuality_Poor
{
	states = ( "false" "true" );
}
node DrivQuality_Normal
{
	states = ( "false" "true" );
}
node DrivQuality_Excellent
{
	states = ( "false" "true" );
}
node Mileage_FiveThou
{
	states = ( "false" "true" );
}
node Mileage_TwentyThou
{
	states = ( "false" "true" );
}
node Mileage_FiftyThou
{
	states = ( "false" "true" );
}
node Mileage_Domino
{
	states = ( "false" "true" );
}
node Antilock_True
{
	states = ( "false" "true" );
}
node Antilock_False
{
	states = ( "false" "true" );
}
node DrivingSkill_SubStandard
{
	states = ( "false" "true" );
}
node DrivingSkill_Normal
{
	states = ( "false" "true" );
}
node DrivingSkill_Expert
{
	states = ( "false" "true" );
}
node SeniorTrain_True
{
	states = ( "false" "true" );
}
node SeniorTrain_False
{
	states = ( "false" "true" );
}
node ThisCarCost_Thousand
{
	states = ( "false" "true" );
}
node ThisCarCost_TenThou
{
	states = ( "false" "true" );
}
node ThisCarCost_HundredThou
{
	states = ( "false" "true" );
}
node ThisCarCost_Million
{
	states = ( "false" "true" );
}
node Theft_True
{
	states = ( "false" "true" );
}
node Theft_False
{
	states = ( "false" "true" );
}
node CarValue_FiveThou
{
	states = ( "false" "true" );
}
node CarValue_TenThou
{
	states = ( "false" "true" );
}
node CarValue_TwentyThou
{
	states = ( "false" "true" );
}
node CarValue_FiftyThou
{
	states = ( "false" "true" );
}
node CarValue_Million
{
	states = ( "false" "true" );
}
node HomeBase_Secure
{
	states = ( "false" "true" );
}
node HomeBase_City
{
	states = ( "false" "true" );
}
node HomeBase_Suburb
{
	states = ( "false" "true" );
}
node HomeBase_Rural
{
	states = ( "false" "true" );
}
node AntiTheft_True
{
	states = ( "false" "true" );
}
node AntiTheft_False
{
	states = ( "false" "true" );
}
node PropCost_Thousand
{
	states = ( "false" "true" );
}
node PropCost_TenThou
{
	states = ( "false" "true" );
}
node PropCost_HundredThou
{
	states = ( "false" "true" );
}
node PropCost_Million
{
	states = ( "false" "true" );
}
node OtherCarCost_Thousand
{
	states = ( "false" "true" );
}
node OtherCarCost_TenThou
{
	states = ( "false" "true" );
}
node OtherCarCost_HundredThou
{
	states = ( "false" "true" );
}
node OtherCarCost_Million
{
	states = ( "false" "true" );
}
node OtherCar_True
{
	states = ( "false" "true" );
}
node OtherCar_False
{
	states = ( "false" "true" );
}
node MedCost_Thousand
{
	states = ( "false" "true" );
}
node MedCost_TenThou
{
	states = ( "false" "true" );
}
node MedCost_HundredThou
{
	states = ( "false" "true" );
}
node MedCost_Million
{
	states = ( "false" "true" );
}
node Cushioning_Poor
{
	states = ( "false" "true" );
}
node Cushioning_Fair
{
	states = ( "false" "true" );
}
node Cushioning_Good
{
	states = ( "false" "true" );
}
node Cushioning_Excellent
{
	states = ( "false" "true" );
}
node Airbag_True
{
	states = ( "false" "true" );
}
node Airbag_False
{
	states = ( "false" "true" );
}
node ILiCost_Thousand
{
	states = ( "false" "true" );
}
node ILiCost_TenThou
{
	states = ( "false" "true" );
}
node ILiCost_HundredThou
{
	states = ( "false" "true" );
}
node ILiCost_Million
{
	states = ( "false" "true" );
}
node DrivHist_Zero
{
	states = ( "false" "true" );
}
node DrivHist_One
{
	states = ( "false" "true" );
}
node DrivHist_Many
{
	states = ( "false" "true" );
}
potential ( Age_Adolescent  )
{
	data = (0.800000 0.200000) ;
}
potential ( Age_Adult | Age_Adolescent  )
{
	data = ((0.250000 0.750000)(1.0 0.0)) ;
}
potential ( Age_Senior | Age_Adult  )
{
	data = ((0.000000 1.000000)(1.0 0.0)) ;
}
potential ( SocioEcon_Prole | Age_Adolescent Age_Adult Age_Senior  )
{
	data = ((((0.600000 0.400000)(0.600000 0.400000))((0.500000 0.500000)(1.0 0.0)))(((1.0 0.0)(1.0 0.0))((1.0 0.0)(1.0 0.0)))) ;
}
potential ( SocioEcon_Middle | Age_Adolescent Age_Adult Age_Senior SocioEcon_Prole  )
{
	data = (((((0.333333 0.666667)(1.0 0.0))((0.333333 0.666667)(1.0 0.0)))(((0.600000 0.400000)(1.0 0.0))((1.0 0.0)(1.0 0.0))))((((1.0 0.0)(1.0 0.0))((1.0 0.0)(1.0 0.0)))(((1.0 0.0)(1.0 0.0))((1.0 0.0)(1.0 0.0))))) ;
}
potential ( SocioEcon_UpperMiddle | Age_Adolescent Age_Adult Age_Senior SocioEcon_Middle  )
{
	data = (((((0.050000 0.950000)(1.0 0.0))((0.050000 0.950000)(1.0 0.0)))(((0.033333 0.966667)(1.0 0.0))((1.0 0.0)(1.0 0.0))))((((1.0 0.0)(1.0 0.0))((1.0 0.0)(1.0 0.0)))(((1.0 0.0)(1.0 0.0))((1.0 0.0)(1.0 0.0))))) ;
}
potential ( SocioEcon_Wealthy | Age_Adolescent Age_Adult Age_Senior SocioEcon_UpperMiddle  )
{
	data = (((((0.000000 1.000000)(1.0 0.0))((0.000000 1.000000)(1.0 0.0)))(((0.000000 1.000000)(1.0 0.0))((1.0 0.0)(1.0 0.0))))((((1.0 0.0)(1.0 0.0))((1.0 0.0)(1.0 0.0)))(((1.0 0.0)(1.0 0.0))((1.0 0.0)(1.0 0.0))))) ;
}
potential ( GoodStudent_True | Age_Adolescent Age_Adult Age_Senior SocioEcon_Prole SocioEcon_Middle SocioEcon_UpperMiddle SocioEcon_Wealthy  )
{
	data = ((((((((0.900000 0.100000)(0.800000 0.200000))((0.500000 0.500000)(0.600000 0.400000)))(((1.000000 0.000000)(1.000000 0.000000))((1.000000 0.000000)(1.000000 0.000000))))((((1.000000 0.000000)(1.000000 0.000000))((1.000000 0.000000)(1.000000 0.000000)))(((1.0 0.0)(1.0 0.0))((1.0 0.0)(1.0 0.0)))))(((((1.0 0.0)(1.0 0.0))((1.0 0.0)(1.0 0.0)))(((1.0 0.0)(1.0 0.0))((1.0 0.0)(1.0 0.0))))((((1.0 0.0)(1.0 0.0))((1.0 0.0)(1.0 0.0)))(((1.0 0.0)(1.0 0.0))((1.0 0.0)(1.0 0.0))))))((((((1.0 0.0)(1.0 0.0))((1.0 0.0)(1.0 0.0)))(((1.0 0.0)(1.0 0.0))((1.0 0.0)(1.0 0.0))))((((1.0 0.0)(1.0 0.0))((1.0 0.0)(1.0 0.0)))(((1.0 0.0)(1.0 0.0))((1.0 0.0)(1.0 0.0)))))(((((1.0 0.0)(1.0 0.0))((1.0 0.0)(1.0 0.0)))(((1.0 0.0)(1.0 0.0))((1.0 0.0)(1.0 0.0))))((((1.0 0.0)(1.0 0.0))((1.0 0.0)(1.0 0.0)))(((1.0 0.0)(1.0 0.0))((1.0 0.0)(1.0 0.0)))))))(((((((1.0 0.0)(1.0 0.0))((1.0 0.0)(1.0 0.0)))(((1.0 0.0)(1.0 0.0))((1.0 0.0)(1.0 0.0))))((((1.0 0.0)(1.0 0.0))((1.0 0.0)(1.0 0.0)))(((1.0 0.0)(1.0 0.0))((1.0 0.0)(1.0 0.0)))))(((((1.0 0.0)(1.0 0.0))((1.0 0.0)(1.0 0.0)))(((1.0 0.0)(1.0 0.0))((1.0 0.0)(1.0 0.0))))((((1.0 0.0)(1.0 0.0))((1.0 0.0)(1.0 0.0)))(((1.0 0.0)(1.0 0.0))((1.0 0.0)(1.0 0.0))))))((((((1.0 0.0)(1.0 0.0))((1.0 0.0)(1.0 0.0)))(((1.0 0.0)(1.0 0.0))((1.0 0.0)(1.0 0.0))))((((1.0 0.0)(1.0 0.0))((1.0 0.0)(1.0 0.0)))(((1.0 0.0)(1.0 0.0))((1.0 0.0)(1.0 0.0)))))(((((1.0 0.0)(1.0 0.0))((1.0 0.0)(1.0 0.0)))(((1.0 0.0)(1.0 0.0))((1.0 0.0)(1.0 0.0))))((((1.0 0.0)(1.0 0.0))((1.0 0.0)(1.0 0.0)))(((1.0 0.0)(1.0 0.0))((1.0 0.0)(1.0 0.0)))))))) ;
}
potential ( GoodStudent_False | Age_Adolescent Age_Adult Age_Senior SocioEcon_Prole SocioEcon_Middle SocioEcon_UpperMiddle SocioEcon_Wealthy GoodStudent_True  )
{
	data = (((((((((0.000000 1.000000)(1.0 0.0))((0.000000 1.000000)(1.0 0.0)))(((0.000000 1.000000)(1.0 0.0))((0.000000 1.000000)(1.0 0.0))))((((0.000000 1.000000)(1.0 0.0))((0.000000 1.000000)(1.0 0.0)))(((0.000000 1.000000)(1.0 0.0))((0.000000 1.000000)(1.0 0.0)))))(((((0.000000 1.000000)(1.0 0.0))((0.000000 1.000000)(1.0 0.0)))(((0.000000 1.000000)(1.0 0.0))((0.000000 1.000000)(1.0 0.0))))((((1.0 0.0)(1.0 0.0))((1.0 0.0)(1.0 0.0)))(((1.0 0.0)(1.0 0.0))((1.0 0.0)(1.0 0.0))))))((((((1.0 0.0)(1.0 0.0))((1.0 0.0)(1.0 0.0)))(((1.0 0.0)(1.0 0.0))((1.0 0.0)(1.0 0.0))))((((1.0 0.0)(1.0 0.0))((1.0 0.0)(1.0 0.0)))(((1.0 0.0)(1.0 0.0))((1.0 0.0)(1.0 0.0)))))(((((1.0 0.0)(1.0 0.0))((1.0 0.0)(1.0 0.0)))(((1.0 0.0)(1.0 0.0))((1.0 0.0)(1.0 0.0))))((((1.0 0.0)(1.0 0.0))((1.0 0.0)(1.0 0.0)))(((1.0 0.0)(1.0 0.0))((1.0 0.0)(1.0 0.0)))))))(((((((1.0 0.0)(1.0 0.0))((1.0 0.0)(1.0 0.0)))(((1.0 0.0)(1.0 0.0))((1.0 0.0)(1.0 0.0))))((((1.0 0.0)(1.0 0.0))((1.0 0.0)(1.0 0.0)))(((1.0 0.0)(1.0 0.0))((1.0 0.0)(1.0 0.0)))))(((((1.0 0.0)(1.0 0.0))((1.0 0.0)(1.0 0.0)))(((1.0 0.0)(1.0 0.0))((1.0 0.0)(1.0 0.0))))((((1.0 0.0)(1.0 0.0))((1.0 0.0)(1.0 0.0)))(((1.0 0.0)(1.0 0.0))((1.0 0.0)(1.0 0.0))))))((((((1.0 0.0)(1.0 0.0))((1.0 0.0)(1.0 0.0)))(((1.0 0.0)(1.0 0.0))((1.0 0.0)(1.0 0.0))))((((1.0 0.0)(1.0 0.0))((1.0 0.0)(1.0 0.0)))(((1.0 0.0)(1.0 0.0))((1.0 0.0)(1.0 0.0)))))(((((1.0 0.0)(1.0 0.0))((1.0 0.0)(1.0 0.0)))(((1.0 0.0)(1.0 0.0))((1.0 0.0)(1.0 0.0))))((((1.0 0.0)(1.0 0.0))((1.0 0.0)(1.0 0.0)))(((1.0 0.0)(1.0 0.0))((1.0 0.0)(1.0 0.0))))))))((((((((1.0 0.0)(1.0 0.0))((1.0 0.0)(1.0 0.0)))(((1.0 0.0)(1.0 0.0))((1.0 0.0)(1.0 0.0))))((((1.0 0.0)(1.0 0.0))((1.0 0.0)(1.0 0.0)))(((1.0 0.0)(1.0 0.0))((1.0 0.0)(1.0 0.0)))))(((((1.0 0.0)(1.0 0.0))((1.0 0.0)(1.0 0.0)))(((1.0 0.0)(1.0 0.0))((1.0 0.0)(1.0 0.0))))((((1.0 0.0)(1.0 0.0))((1.0 0.0)(1.0 0.0)))(((1.0 0.0)(1.0 0.0))((1.0 0.0)(1.0 0.0))))))((((((1.0 0.0)(1.0 0.0))((1.0 0.0)(1.0 0.0)))(((1.0 0.0)(1.0 0.0))((1.0 0.0)(1.0 0.0))))((((1.0 0.0)(1.0 0.0))((1.0 0.0)(1.0 0.0)))(((1.0 0.0)(1.0 0.0))((1.0 0.0)(1.0 0.0)))))(((((1.0 0.0)(1.0 0.0))((1.0 0.0)(1.0 0.0)))(((1.0 0.0)(1.0 0.0))((1.0 0.0)(1.0 0.0))))((((1.0 0.0)(1.0 0.0))((1.0 0.0)(1.0 0.0)))(((1.0 0.0)(1.0 0.0))((1.0 0.0)(1.0 0.0)))))))(((((((1.0 0.0)(1.0 0.0))((1.0 0.0)(1.0 0.0)))(((1.0 0.0)(1.0 0.0))((1.0 0.0)(1.0 0.0))))((((1.0 0.0)(1.0 0.0))((1.0 0.0)(1.0 0.0)))(((1.0 0.0)(1.0 0.0))((1.0 0.0)(1.0 0.0)))))(((((1.0 0.0)(1.0 0.0))((1.0 0.0)(1.0 0.0)))(((1.0 0.0)(1.0 0.0))((1.0 0.0)(1.0 0.0))))((((1.0 0.0)(1.0 0.0))((1.0 0.0)(1.0 0.0)))(((1.0 0.0)(1.0 0.0))((1.0 0.0)(1.0 0.0))))))((((((1.0 0.0)(1.0 0.0))((1.0 0.0)(1.0 0.0)))(((1.0 0.0)(1.0 0.0))((1.0 0.0)(1.0 0.0))))((((1.0 0.0)(1.0 0.0))((1.0 0.0)(1.0 0.0)))(((1.0 0.0)(1.0 0.0))((1.0 0.0)(1.0 0.0)))))(((((1.0 0.0)(1.0 0.0))((1.0 0.0)(1.0 0.0)))(((1.0 0.0)(1.0 0.0))((1.0 0.0)(1.0 0.0))))((((1.0 0.0)(1.0 0.0))((1.0 0.0)(1.0 0.0)))(((1.0 0.0)(1.0 0.0))((1.0 0.0)(1.0 0.0))))))))) ;
}
potential ( RiskAversion_Psychopath | SocioEcon_Prole SocioEcon_Middle SocioEcon_UpperMiddle SocioEcon_Wealthy Age_Adolescent Age_Adult Age_Senior  )
{
	data = ((((((((0.980000 0.020000)(0.985000 0.015000))((0.990000 0.010000)(0.980000 0.020000)))(((0.985000 0.015000)(0.990000 0.010000))((0.980000 0.020000)(0.985000 0.015000))))((((0.990000 0.010000)(0.980000 0.020000))((0.985000 0.015000)(0.990000 0.010000)))(((1.0 0.0)(1.0 0.0))((1.0 0.0)(1.0 0.0)))))(((((1.0 0.0)(1.0 0.0))((1.0 0.0)(1.0 0.0)))(((1.0 0.0)(1.0 0.0))((1.0 0.0)(1.0 0.0))))((((1.0 0.0)(1.0 0.0))((1.0 0.0)(1.0 0.0)))(((1.0 0.0)(1.0 0.0))((1.0 0.0)(1.0 0.0))))))((((((1.0 0.0)(1.0 0.0))((1.0 0.0)(1.0 0.0)))(((1.0 0.0)(1.0 0.0))((1.0 0.0)(1.0 0.0))))((((1.0 0.0)(1.0 0.0))((1.0 0.0)(1.0 0.0)))(((1.0 0.0)(1.0 0.0))((1.0 0.0)(1.0 0.0)))))(((((1.0 0.0)(1.0 0.0))((1.0 0.0)(1.0 0.0)))(((1.0 0.0)(1.0 0.0))((1.0 0.0)(1.0 0.0))))((((1.0 0.0)(1.0 0.0))((1.0 0.0)(1.0 0.0)))(((1.0 0.0)(1.0 0.0))((1.0 0.0)(1.0 0.0)))))))(((((((1.0 0.0)(1.0 0.0))((1.0 0.0)(1.0 0.0)))(((1.0 0.0)(1.0 0.0))((1.0 0.0)(1.0 0.0))))((((1.0 0.0)(1.0 0.0))((1.0 0.0)(1.0 0.0)))(((1.0 0.0)(1.0 0.0))((1.0 0.0)(1.0 0.0)))))(((((1.0 0.0)(1.0 0.0))((1.0 0.0)(1.0 0.0)))(((1.0 0.0)(1.0 0.0))((1.0 0.0)(1.0 0.0))))((((1.0 0.0)(1.0 0.0))((1.0 0.0)(1.0 0.0)))(((1.0 0.0)(1.0 0.0))((1.0 0.0)(1.0 0.0))))))((((((1.0 0.0)(1.0 0.0))((1.0 0.0)(1.0 0.0)))(((1.0 0.0)(1.0 0.0))((1.0 0.0)(1.0 0.0))))((((1.0 0.0)(1.0 0.0))((1.0 0.0)(1.0 0.0)))(((1.0 0.0)(1.0 0.0))((1.0 0.0)(1.0 0.0)))))(((((1.0 0.0)(1.0 0.0))((1.0 0.0)(1.0 0.0)))(((1.0 0.0)(1.0 0.0))((1.0 0.0)(1.0 0.0))))((((1.0 0.0)(1.0 0.0))((1.0 0.0)(1.0 0.0)))(((1.0 0.0)(1.0 0.0))((1.0 0.0)(1.0 0.0)))))))) ;
}
potential ( RiskAversion_Adventurous | SocioEcon_Prole SocioEcon_Middle SocioEcon_UpperMiddle SocioEcon_Wealthy Age_Adolescent Age_Adult Age_Senior RiskAversion_Psychopath  )
{
	data = (((((((((0.408163 0.591837)(1.0 0.0))((0.710660 0.289340)(1.0 0.0)))(((0.909091 0.090909)(1.0 0.0))((0.612245 0.387755)(1.0 0.0))))((((0.812183 0.187817)(1.0 0.0))((0.959596 0.040404)(1.0 0.0)))(((0.510204 0.489796)(1.0 0.0))((0.710660 0.289340)(1.0 0.0)))))(((((0.909091 0.090909)(1.0 0.0))((0.408163 0.591837)(1.0 0.0)))(((0.710660 0.289340)(1.0 0.0))((0.909091 0.090909)(1.0 0.0))))((((1.0 0.0)(1.0 0.0))((1.0 0.0)(1.0 0.0)))(((1.0 0.0)(1.0 0.0))((1.0 0.0)(1.0 0.0))))))((((((1.0 0.0)(1.0 0.0))((1.0 0.0)(1.0 0.0)))(((1.0 0.0)(1.0 0.0))((1.0 0.0)(1.0 0.0))))((((1.0 0.0)(1.0 0.0))((1.0 0.0)(1.0 0.0)))(((1.0 0.0)(1.0 0.0))((1.0 0.0)(1.0 0.0)))))(((((1.0 0.0)(1.0 0.0))((1.0 0.0)(1.0 0.0)))(((1.0 0.0)(1.0 0.0))((1.0 0.0)(1.0 0.0))))((((1.0 0.0)(1.0 0.0))((1.0 0.0)(1.0 0.0)))(((1.0 0.0)(1.0 0.0))((1.0 0.0)(1.0 0.0)))))))(((((((1.0 0.0)(1.0 0.0))((1.0 0.0)(1.0 0.0)))(((1.0 0.0)(1.0 0.0))((1.0 0.0)(1.0 0.0))))((((1.0 0.0)(1.0 0.0))((1.0 0.0)(1.0 0.0)))(((1.0 0.0)(1.0 0.0))((1.0 0.0)(1.0 0.0)))))(((((1.0 0.0)(1.0 0.0))((1.0 0.0)(1.0 0.0)))(((1.0 0.0)(1.0 0.0))((1.0 0.0)(1.0 0.0))))((((1.0 0.0)(1.0 0.0))((1.0 0.0)(1.0 0.0)))(((1.0 0.0)(1.0 0.0))((1.0 0.0)(1.0 0.0))))))((((((1.0 0.0)(1.0 0.0))((1.0 0.0)(1.0 0.0)))(((1.0 0.0)(1.0 0.0))((1.0 0.0)(1.0 0.0))))((((1.0 0.0)(1.0 0.0))((1.0 0.0)(1.0 0.0)))(((1.0 0.0)(1.0 0.0))((1.0 0.0)(1.0 0.0)))))(((((1.0 0.0)(1.0 0.0))((1.0 0.0)(1.0 0.0)))(((1.0 0.0)(1.0 0.0))((1.0 0.0)(1.0 0.0))))((((1.0 0.0)(1.0 0.0))((1.0 0.0)(1.0 0.0)))(((1.0 0.0)(1.0 0.0))((1.0 0.0)(1.0 0.0))))))))((((((((1.0 0.0)(1.0 0.0))((1.0 0.0)(1.0 0.0)))(((1.0 0.0)(1.0 0.0))((1.0 0.0)(1.0 0.0))))((((1.0 0.0)(1.0 0.0))((1.0 0.0)(1.0 0.0)))(((1.0 0.0)(1.0 0.0))((1.0 0.0)(1.0 0.0)))))(((((1.0 0.0)(1.0 0.0))((1.0 0.0)(1.0 0.0)))(((1.0 0.0)(1.0 0.0))((1.0 0.0)(1.0 0.0))))((((1.0 0.0)(1.0 0.0))((1.0 0.0)(1.0 0.0)))(((1.0 0.0)(1.0 0.0))((1.0 0.0)(1.0 0.0))))))((((((1.0 0.0)(1.0 0.0))((1.0 0.0)(1.0 0.0)))(((1.0 0.0)(1.0 0.0))((1.0 0.0)(1.0 0.0))))((((1.0 0.0)(1.0 0.0))((1.0 0.0)(1.0 0.0)))(((1.0 0.0)(1.0 0.0))((1.0 0.0)(1.0 0.0)))))(((((1.0 0.0)(1.0 0.0))((1.0 0.0)(1.0 0.0)))(((1.0 0.0)(1.0 0.0))((1.0 0.0)(1.0 0.0))))((((1.0 0.0)(1.0 0.0))((1.0 0.0)(1.0 0.0)))(((1.0 0.0)(1.0 0.0))((1.0 0.0)(1.0 0.0)))))))(((((((1.0 0.0)(1.0 0.0))((1.0 0.0)(1.0 0.0)))(((1.0 0.0)(1.0 0.0))((1.0 0.0)(1.0 0.0))))((((1.0 0.0)(1.0 0.0))((1.0 0.0)(1.0 0.0)))(((1.0 0.0)(1.0 0.0))((1.0 0.0)(1.0 0.0)))))(((((1.0 0.0)(1.0 0.0))((1.0 0.0)(1.0 0.0)))(((1.0 0.0)(1.0 0.0))((1.0 0.0)(1.0 0.0))))((((1.0 0.0)(1.0 0.0))((1.0 0.0)(1.0 0.0)))(((1.0 0.0)(1.0 0.0))((1.0 0.0)(1.0 0.0))))))((((((1.0 0.0)(1.0 0.0))((1.0 0.0)(1.0 0.0)))(((1.0 0.0)(1.0 0.0))((1.0 0.0)(1.0 0.0))))((((1.0 0.0)(1.0 0.0))((1.0 0.0)(1.0 0.0)))(((1.0 0.0)(1.0 0.0))((1.0 0.0)(1.0 0.0)))))(((((1.0 0.0)(1.0 0.0))((1.0 0.0)(1.0 0.0)))(((1.0 0.0)(1.0 0.0))((1.0 0.0)(1.0 0.0))))((((1.0 0.0)(1.0 0.0))((1.0 0.0)(1.0 0.0)))(((1.0 0.0)(1.0 0.0))((1.0 0.0)(1.0 0.0))))))))) ;
}
potential ( RiskAversion_Normal | SocioEcon_Prole SocioEcon_Middle SocioEcon_UpperMiddle SocioEcon_Wealthy Age_Adolescent Age_Adult Age_Senior RiskAversion_Adventurous  )
{
	data = (((((((((0.250000 0.750000)(1.0 0.0))((0.285714 0.714286)(1.0 0.0)))(((0.555556 0.444444)(1.0 0.0))((0.166667 0.833333)(1.0 0.0))))((((0.250000 0.750000)(1.0 0.0))((0.631579 0.368421)(1.0 0.0)))(((0.200000 0.800000)(1.0 0.0))((0.285714 0.714286)(1.0 0.0)))))(((((0.555556 0.444444)(1.0 0.0))((0.250000 0.750000)(1.0 0.0)))(((0.428571 0.571429)(1.0 0.0))((0.555556 0.444444)(1.0 0.0))))((((1.0 0.0)(1.0 0.0))((1.0 0.0)(1.0 0.0)))(((1.0 0.0)(1.0 0.0))((1.0 0.0)(1.0 0.0))))))((((((1.0 0.0)(1.0 0.0))((1.0 0.0)(1.0 0.0)))(((1.0 0.0)(1.0 0.0))((1.0 0.0)(1.0 0.0))))((((1.0 0.0)(1.0 0.0))((1.0 0.0)(1.0 0.0)))(((1.0 0.0)(1.0 0.0))((1.0 0.0)(1.0 0.0)))))(((((1.0 0.0)(1.0 0.0))((1.0 0.0)(1.0 0.0)))(((1.0 0.0)(1.0 0.0))((1.0 0.0)(1.0 0.0))))((((1.0 0.0)(1.0 0.0))((1.0 0.0)(1.0 0.0)))(((1.0 0.0)(1.0 0.0))((1.0 0.0)(1.0 0.0)))))))(((((((1.0 0.0)(1.0 0.0))((1.0 0.0)(1.0 0.0)))(((1.0 0.0)(1.0 0.0))((1.0 0.0)(1.0 0.0))))((((1.0 0.0)(1.0 0.0))((1.0 0.0)(1.0 0.0)))(((1.0 0.0)(1.0 0.0))((1.0 0.0)(1.0 0.0)))))(((((1.0 0.0)(1.0 0.0))((1.0 0.0)(1.0 0.0)))(((1.0 0.0)(1.0 0.0))((1.0 0.0)(1.0 0.0))))((((1.0 0.0)(1.0 0.0))((1.0 0.0)(1.0 0.0)))(((1.0 0.0)(1.0 0.0))((1.0 0.0)(1.0 0.0))))))((((((1.0 0.0)(1.0 0.0))((1.0 0.0)(1.0 0.0)))(((1.0 0.0)(1.0 0.0))((1.0 0.0)(1.0 0.0))))((((1.0 0.0)(1.0 0.0))((1.0 0.0)(1.0 0.0)))(((1.0 0.0)(1.0 0.0))((1.0 0.0)(1.0 0.0)))))(((((1.0 0.0)(1.0 0.0))((1.0 0.0)(1.0 0.0)))(((1.0 0.0)(1.0 0.0))((1.0 0.0)(1.0 0.0))))((((1.0 0.0)(1.0 0.0))((1.0 0.0)(1.0 0.0)))(((1.0 0.0)(1.0 0.0))((1.0 0.0)(1.0 0.0))))))))((((((((1.0 0.0)(1.0 0.0))((1.0 0.0)(1.0 0.0)))(((1.0 0.0)(1.0 0.0))((1.0 0.0)(1.0 0.0))))((((1.0 0.0)(1.0 0.0))((1.0 0.0)(1.0 0.0)))(((1.0 0.0)(1.0 0.0))((1.0 0.0)(1.0 0.0)))))(((((1.0 0.0)(1.0 0.0))((1.0 0.0)(1.0 0.0)))(((1.0 0.0)(1.0 0.0))((1.0 0.0)(1.0 0.0))))((((1.0 0.0)(1.0 0.0))((1.0 0.0)(1.0 0.0)))(((1.0 0.0)(1.0 0.0))((1.0 0.0)(1.0 0.0))))))((((((1.0 0.0)(1.0 0.0))((1.0 0.0)(1.0 0.0)))(((1.0 0.0)(1.0 0.0))((1.0 0.0)(1.0 0.0))))((((1.0 0.0)(1.0 0.0))((1.0 0.0)(1.0 0.0)))(((1.0 0.0)(1.0 0.0))((1.0 0.0)(1.0 0.0)))))(((((1.0 0.0)(1.0 0.0))((1.0 0.0)(1.0 0.0)))(((1.0 0.0)(1.0 0.0))((1.0 0.0)(1.0 0.0))))((((1.0 0.0)(1.0 0.0))((1.0 0.0)(1.0 0.0)))(((1.0 0.0)(1.0 0.0))((1.0 0.0)(1.0 0.0)))))))(((((((1.0 0.0)(1.0 0.0))((1.0 0.0)(1.0 0.0)))(((1.0 0.0)(1.0 0.0))((1.0 0.0)(1.0 0.0))))((((1.0 0.0)(1.0 0.0))((1.0 0.0)(1.0 0.0)))(((1.0 0.0)(1.0 0.0))((1.0 0.0)(1.0 0.0)))))(((((1.0 0.0)(1.0 0.0))((1.0 0.0)(1.0 0.0)))(((1.0 0.0)(1.0 0.0))((1.0 0.0)(1.0 0.0))))((((1.0 0.0)(1.0 0.0))((1.0 0.0)(1.0 0.0)))(((1.0 0.0)(1.0 0.0))((1.0 0.0)(1.0 0.0))))))((((((1.0 0.0)(1.0 0.0))((1.0 0.0)(1.0 0.0)))(((1.0 0.0)(1.0 0.0))((1.0 0.0)(1.0 0.0))))((((1.0 0.0)(1.0 0.0))((1.0 0.0)(1.0 0.0)))(((1.0 0.0)(1.0 0.0))((1.0 0.0)(1.0 0.0)))))(((((1.0 0.0)(1.0 0.0))((1.0 0.0)(1.0 0.0)))(((1.0 0.0)(1.0 0.0))((1.0 0.0)(1.0 0.0))))((((1.0 0.0)(1.0 0.0))((1.0 0.0)(1.0 0.0)))(((1.0 0.0)(1.0 0.0))((1.0 0.0)(1.0 0.0))))))))) ;
}
potential ( RiskAversion_Cautious | SocioEcon_Prole SocioEcon_Middle SocioEcon_UpperMiddle SocioEcon_Wealthy Age_Adolescent Age_Adult Age_Senior RiskAversion_Normal  )
{
	data = (((((((((0.000000 1.000000)(1.0 0.0))((0.000000 1.000000)(1.0 0.0)))(((0.000000 1.000000)(1.0 0.0))((0.000000 1.000000)(1.0 0.0))))((((0.000000 1.000000)(1.0 0.0))((0.000000 1.000000)(1.0 0.0)))(((0.000000 1.000000)(1.0 0.0))((0.000000 1.000000)(1.0 0.0)))))(((((0.000000 1.000000)(1.0 0.0))((0.000000 1.000000)(1.0 0.0)))(((0.000000 1.000000)(1.0 0.0))((0.000000 1.000000)(1.0 0.0))))((((1.0 0.0)(1.0 0.0))((1.0 0.0)(1.0 0.0)))(((1.0 0.0)(1.0 0.0))((1.0 0.0)(1.0 0.0))))))((((((1.0 0.0)(1.0 0.0))((1.0 0.0)(1.0 0.0)))(((1.0 0.0)(1.0 0.0))((1.0 0.0)(1.0 0.0))))((((1.0 0.0)(1.0 0.0))((1.0 0.0)(1.0 0.0)))(((1.0 0.0)(1.0 0.0))((1.0 0.0)(1.0 0.0)))))(((((1.0 0.0)(1.0 0.0))((1.0 0.0)(1.0 0.0)))(((1.0 0.0)(1.0 0.0))((1.0 0.0)(1.0 0.0))))((((1.0 0.0)(1.0 0.0))((1.0 0.0)(1.0 0.0)))(((1.0 0.0)(1.0 0.0))((1.0 0.0)(1.0 0.0)))))))(((((((1.0 0.0)(1.0 0.0))((1.0 0.0)(1.0 0.0)))(((1.0 0.0)(1.0 0.0))((1.0 0.0)(1.0 0.0))))((((1.0 0.0)(1.0 0.0))((1.0 0.0)(1.0 0.0)))(((1.0 0.0)(1.0 0.0))((1.0 0.0)(1.0 0.0)))))(((((1.0 0.0)(1.0 0.0))((1.0 0.0)(1.0 0.0)))(((1.0 0.0)(1.0 0.0))((1.0 0.0)(1.0 0.0))))((((1.0 0.0)(1.0 0.0))((1.0 0.0)(1.0 0.0)))(((1.0 0.0)(1.0 0.0))((1.0 0.0)(1.0 0.0))))))((((((1.0 0.0)(1.0 0.0))((1.0 0.0)(1.0 0.0)))(((1.0 0.0)(1.0 0.0))((1.0 0.0)(1.0 0.0))))((((1.0 0.0)(1.0 0.0))((1.0 0.0)(1.0 0.0)))(((1.0 0.0)(1.0 0.0))((1.0 0.0)(1.0 0.0)))))(((((1.0 0.0)(1.0 0.0))((1.0 0.0)(1.0 0.0)))(((1.0 0.0)(1.0 0.0))((1.0 0.0)(1.0 0.0))))((((1.0 0.0)(1.0 0.0))((1.0 0.0)(1.0 0.0)))(((1.0 0.0)(1.0 0.0))((1.0 0.0)(1.0 0.0))))))))((((((((1.0 0.0)(1.0 0.0))((1.0 0.0)(1.0 0.0)))(((1.0 0.0)(1.0 0.0))((1.0 0.0)(1.0 0.0))))((((1.0 0.0)(1.0 0.0))((1.0 0.0)(1.0 0.0)))(((1.0 0.0)(1.0 0.0))((1.0 0.0)(1.0 0.0)))))(((((1.0 0.0)(1.0 0.0))((1.0 0.0)(1.0 0.0)))(((1.0 0.0)(1.0 0.0))((1.0 0.0)(1.0 0.0))))((((1.0 0.0)(1.0 0.0))((1.0 0.0)(1.0 0.0)))(((1.0 0.0)(1.0 0.0))((1.0 0.0)(1.0 0.0))))))((((((1.0 0.0)(1.0 0.0))((1.0 0.0)(1.0 0.0)))(((1.0 0.0)(1.0 0.0))((1.0 0.0)(1.0 0.0))))((((1.0 0.0)(1.0 0.0))((1.0 0.0)(1.0 0.0)))(((1.0 0.0)(1.0 0.0))((1.0 0.0)(1.0 0.0)))))(((((1.0 0.0)(1.0 0.0))((1.0 0.0)(1.0 0.0)))(((1.0 0.0)(1.0 0.0))((1.0 0.0)(1.0 0.0))))((((1.0 0.0)(1.0 0.0))((1.0 0.0)(1.0 0.0)))(((1.0 0.0)(1.0 0.0))((1.0 0.0)(1.0 0.0)))))))(((((((1.0 0.0)(1.0 0.0))((1.0 0.0)(1.0 0.0)))(((1.0 0.0)(1.0 0.0))((1.0 0.0)(1.0 0.0))))((((1.0 0.0)(1.0 0.0))((1.0 0.0)(1.0 0.0)))(((1.0 0.0)(1.0 0.0))((1.0 0.0)(1.0 0.0)))))(((((1.0 0.0)(1.0 0.0))((1.0 0.0)(1.0 0.0)))(((1.0 0.0)(1.0 0.0))((1.0 0.0)(1.0 0.0))))((((1.0 0.0)(1.0 0.0))((1.0 0.0)(1.0 0.0)))(((1.0 0.0)(1.0 0.0))((1.0 0.0)(1.0 0.0))))))((((((1.0 0.0)(1.0 0.0))((1.0 0.0)(1.0 0.0)))(((1.0 0.0)(1.0 0.0))((1.0 0.0)(1.0 0.0))))((((1.0 0.0)(1.0 0.0))((1.0 0.0)(1.0 0.0)))(((1.0 0.0)(1.0 0.0))((1.0 0.0)(1.0 0.0)))))(((((1.0 0.0)(1.0 0.0))((1.0 0.0)(1.0 0.0)))(((1.0 0.0)(1.0 0.0))((1.0 0.0)(1.0 0.0))))((((1.0 0.0)(1.0 0.0))((1.0 0.0)(1.0 0.0)))(((1.0 0.0)(1.0 0.0))((1.0 0.0)(1.0 0.0))))))))) ;
}
potential ( VehicleYear_Current | RiskAversion_Psychopath RiskAversion_Adventurous RiskAversion_Normal RiskAversion_Cautious SocioEcon_Prole SocioEcon_Middle SocioEcon_UpperMiddle SocioEcon_Wealthy  )
{
	data = (((((((((0.850000 0.150000)(0.700000 0.300000))((0.200000 0.800000)(0.100000 0.900000)))(((0.850000 0.150000)(0.700000 0.300000))((0.200000 0.800000)(0.100000 0.900000))))((((0.850000 0.150000)(0.700000 0.300000))((0.200000 0.800000)(0.100000 0.900000)))(((0.850000 0.150000)(0.700000 0.300000))((0.200000 0.800000)(0.100000 0.900000)))))(((((1.0 0.0)(1.0 0.0))((1.0 0.0)(1.0 0.0)))(((1.0 0.0)(1.0 0.0))((1.0 0.0)(1.0 0.0))))((((1.0 0.0)(1.0 0.0))((1.0 0.0)(1.0 0.0)))(((1.0 0.0)(1.0 0.0))((1.0 0.0)(1.0 0.0))))))((((((1.0 0.0)(1.0 0.0))((1.0 0.0)(1.0 0.0)))(((1.0 0.0)(1.0 0.0))((1.0 0.0)(1.0 0.0))))((((1.0 0.0)(1.0 0.0))((1.0 0.0)(1.0 0.0)))(((1.0 0.0)(1.0 0.0))((1.0 0.0)(1.0 0.0)))))(((((1.0 0.0)(1.0 0.0))((1.0 0.0)(1.0 0.0)))(((1.0 0.0)(1.0 0.0))((1.0 0.0)(1.0 0.0))))((((1.0 0.0)(1.0 0.0))((1.0 0.0)(1.0 0.0)))(((1.0 0.0)(1.0 0.0))((1.0 0.0)(1.0 0.0)))))))(((((((1.0 0.0)(1.0 0.0))((1.0 0.0)(1.0 0.0)))(((1.0 0.0)(1.0 0.0))((1.0 0.0)(1.0 0.0))))((((1.0 0.0)(1.0 0.0))((1.0 0.0)(1.0 0.0)))(((1.0 0.0)(1.0 0.0))((1.0 0.0)(1.0 0.0)))))(((((1.0 0.0)(1.0 0.0))((1.0 0.0)(1.0 0.0)))(((1.0 0.0)(1.0 0.0))((1.0 0.0)(1.0 0.0))))((((1.0 0.0)(1.0 0.0))((1.0 0.0)(1.0 0.0)))(((1.0 0.0)(1.0 0.0))((1.0 0.0)(1.0 0.0))))))((((((1.0 0.0)(1.0 0.0))((1.0 0.0)(1.0 0.0)))(((1.0 0.0)(1.0 0.0))((1.0 0.0)(1.0 0.0))))((((1.0 0.0)(1.0 0.0))((1.0 0.0)(1.0 0.0)))(((1.0 0.0)(1.0 0.0))((1.0 0.0)(1.0 0.0)))))(((((1.0 0.0)(1.0 0.0))((1.0 0.0)(1.0 0.0)))(((1.0 0.0)(1.0 0.0))((1.0 0.0)(1.0 0.0))))((((1.0 0.0)(1.0 0.0))((1.0 0.0)(1.0 0.0)))(((1.0 0.0)(1.0 0.0))((1.0 0.0)(1.0 0.0))))))))((((((((1.0 0.0)(1.0 0.0))((1.0 0.0)(1.0 0.0)))(((1.0 0.0)(1.0 0.0))((1.0 0.0)(1.0 0.0))))((((1.0 0.0)(1.0 0.0))((1.0 0.0)(1.0 0.0)))(((1.0 0.0)(1.0 0.0))((1.0 0.0)(1.0 0.0)))))(((((1.0 0.0)(1.0 0.0))((1.0 0.0)(1.0 0.0)))(((1.0 0.0)(1.0 0.0))((1.0 0.0)(1.0 0.0))))((((1.0 0.0)(1.0 0.0))((1.0 0.0)(1.0 0.0)))(((1.0 0.0)(1.0 0.0))((1.0 0.0)(1.0 0.0))))))((((((1.0 0.0)(1.0 0.0))((1.0 0.0)(1.0 0.0)))(((1.0 0.0)(1.0 0.0))((1.0 0.0)(1.0 0.0))))((((1.0 0.0)(1.0 0.0))((1.0 0.0)(1.0 0.0)))(((1.0 0.0)(1.0 0.0))((1.0 0.0)(1.0 0.0)))))(((((1.0 0.0)(1.0 0.0))((1.0 0.0)(1.0 0.0)))(((1.0 0.0)(1.0 0.0))((1.0 0.0)(1.0 0.0))))((((1.0 0.0)(1.0 0.0))((1.0 0.0)(1.0 0.0)))(((1.0 0.0)(1.0 0.0))((1.0 0.0)(1.0 0.0)))))))(((((((1.0 0.0)(1.0 0.0))((1.0 0.0)(1.0 0.0)))(((1.0 0.0)(1.0 0.0))((1.0 0.0)(1.0 0.0))))((((1.0 0.0)(1.0 0.0))((1.0 0.0)(1.0 0.0)))(((1.0 0.0)(1.0 0.0))((1.0 0.0)(1.0 0.0)))))(((((1.0 0.0)(1.0 0.0))((1.0 0.0)(1.0 0.0)))(((1.0 0.0)(1.0 0.0))((1.0 0.0)(1.0 0.0))))((((1.0 0.0)(1.0 0.0))((1.0 0.0)(1.0 0.0)))(((1.0 0.0)(1.0 0.0))((1.0 0.0)(1.0 0.0))))))((((((1.0 0.0)(1.0 0.0))((1.0 0.0)(1.0 0.0)))(((1.0 0.0)(1.0 0.0))((1.0 0.0)(1.0 0.0))))((((1.0 0.0)(1.0 0.0))((1.0 0.0)(1.0 0.0)))(((1.0 0.0)(1.0 0.0))((1.0 0.0)(1.0 0.0)))))(((((1.0 0.0)(1.0 0.0))((1.0 0.0)(1.0 0.0)))(((1.0 0.0)(1.0 0.0))((1.0 0.0)(1.0 0.0))))((((1.0 0.0)(1.0 0.0))((1.0 0.0)(1.0 0.0)))(((1.0 0.0)(1.0 0.0))((1.0 0.0)(1.0 0.0))))))))) ;
}
potential ( VehicleYear_Older | RiskAversion_Psychopath RiskAversion_Adventurous RiskAversion_Normal RiskAversion_Cautious SocioEcon_Prole SocioEcon_Middle SocioEcon_UpperMiddle SocioEcon_Wealthy VehicleYear_Current  )
{
	data = ((((((((((0.000000 1.000000)(1.0 0.0))((0.000000 1.000000)(1.0 0.0)))(((0.000000 1.000000)(1.0 0.0))((0.000000 1.000000)(1.0 0.0))))((((0.000000 1.000000)(1.0 0.0))((0.000000 1.000000)(1.0 0.0)))(((0.000000 1.000000)(1.0 0.0))((0.000000 1.000000)(1.0 0.0)))))(((((0.000000 1.000000)(1.0 0.0))((0.000000 1.000000)(1.0 0.0)))(((0.000000 1.000000)(1.0 0.0))((0.000000 1.000000)(1.0 0.0))))((((0.000000 1.000000)(1.0 0.0))((0.000000 1.000000)(1.0 0.0)))(((0.000000 1.000000)(1.0 0.0))((0.000000 1.000000)(1.0 0.0))))))((((((1.0 0.0)(1.0 0.0))((1.0 0.0)(1.0 0.0)))(((1.0 0.0)(1.0 0.0))((1.0 0.0)(1.0 0.0))))((((1.0 0.0)(1.0 0.0))((1.0 0.0)(1.0 0.0)))(((1.0 0.0)(1.0 0.0))((1.0 0.0)(1.0 0.0)))))(((((1.0 0.0)(1.0 0.0))((1.0 0.0)(1.0 0.0)))(((1.0 0.0)(1.0 0.0))((1.0 0.0)(1.0 0.0))))((((1.0 0.0)(1.0 0.0))((1.0 0.0)(1.0 0.0)))(((1.0 0.0)(1.0 0.0))((1.0 0.0)(1.0 0.0)))))))(((((((1.0 0.0)(1.0 0.0))((1.0 0.0)(1.0 0.0)))(((1.0 0.0)(1.0 0.0))((1.0 0.0)(1.0 0.0))))((((1.0 0.0)(1.0 0.0))((1.0 0.0)(1.0 0.0)))(((1.0 0.0)(1.0 0.0))((1.0 0.0)(1.0 0.0)))))(((((1.0 0.0)(1.0 0.0))((1.0 0.0)(1.0 0.0)))(((1.0 0.0)(1.0 0.0))((1.0 0.0)(1.0 0.0))))((((1.0 0.0)(1.0 0.0))((1.0 0.0)(1.0 0.0)))(((1.0 0.0)(1.0 0.0))((1.0 0.0)(1.0 0.0))))))((((((1.0 0.0)(1.0 0.0))((1.0 0.0)(1.0 0.0)))(((1.0 0.0)(1.0 0.0))((1.0 0.0)(1.0 0.0))))((((1.0 0.0)(1.0 0.0))((1.0 0.0)(1.0 0.0)))(((1.0 0.0)(1.0 0.0))((1.0 0.0)(1.0 0.0)))))(((((1.0 0.0)(1.0 0.0))((1.0 0.0)(1.0 0.0)))(((1.0 0.0)(1.0 0.0))((1.0 0.0)(1.0 0.0))))((((1.0 0.0)(1.0 0.0))((1.0 0.0)(1.0 0.0)))(((1.0 0.0)(1.0 0.0))((1.0 0.0)(1.0 0.0))))))))((((((((1.0 0.0)(1.0 0.0))((1.0 0.0)(1.0 0.0)))(((1.0 0.0)(1.0 0.0))((1.0 0.0)(1.0 0.0))))((((1.0 0.0)(1.0 0.0))((1.0 0.0)(1.0 0.0)))(((1.0 0.0)(1.0 0.0))((1.0 0.0)(1.0 0.0)))))(((((1.0 0.0)(1.0 0.0))((1.0 0.0)(1.0 0.0)))(((1.0 0.0)(1.0 0.0))((1.0 0.0)(1.0 0.0))))((((1.0 0.0)(1.0 0.0))((1.0 0.0)(1.0 0.0)))(((1.0 0.0)(1.0 0.0))((1.0 0.0)(1.0 0.0))))))((((((1.0 0.0)(1.0 0.0))((1.0 0.0)(1.0 0.0)))(((1.0 0.0)(1.0 0.0))((1.0 0.0)(1.0 0.0))))((((1.0 0.0)(1.0 0.0))((1.0 0.0)(1.0 0.0)))(((1.0 0.0)(1.0 0.0))((1.0 0.0)(1.0 0.0)))))(((((1.0 0.0)(1.0 0.0))((1.0 0.0)(1.0 0.0)))(((1.0 0.0)(1.0 0.0))((1.0 0.0)(1.0 0.0))))((((1.0 0.0)(1.0 0.0))((1.0 0.0)(1.0 0.0)))(((1.0 0.0)(1.0 0.0))((1.0 0.0)(1.0 0.0)))))))(((((((1.0 0.0)(1.0 0.0))((1.0 0.0)(1.0 0.0)))(((1.0 0.0)(1.0 0.0))((1.0 0.0)(1.0 0.0))))((((1.0 0.0)(1.0 0.0))((1.0 0.0)(1.0 0.0)))(((1.0 0.0)(1.0 0.0))((1.0 0.0)(1.0 0.0)))))(((((1.0 0.0)(1.0 0.0))((1.0 0.0)(1.0 0.0)))(((1.0 0.0)(1.0 0.0))((1.0 0.0)(1.0 0.0))))((((1.0 0.0)(1.0 0.0))((1.0 0.0)(1.0 0.0)))(((1.0 0.0)(1.0 0.0))((1.0 0.0)(1.0 0.0))))))((((((1.0 0.0)(1.0 0.0))((1.0 0.0)(1.0 0.0)))(((1.0 0.0)(1.0 0.0))((1.0 0.0)(1.0 0.0))))((((1.0 0.0)(1.0 0.0))((1.0 0.0)(1.0 0.0)))(((1.0 0.0)(1.0 0.0))((1.0 0.0)(1.0 0.0)))))(((((1.0 0.0)(1.0 0.0))((1.0 0.0)(1.0 0.0)))(((1.0 0.0)(1.0 0.0))((1.0 0.0)(1.0 0.0))))((((1.0 0.0)(1.0 0.0))((1.0 0.0)(1.0 0.0)))(((1.0 0.0)(1.0 0.0))((1.0 0.0)(1.0 0.0)))))))))(((((((((1.0 0.0)(1.0 0.0))((1.0 0.0)(1.0 0.0)))(((1.0 0.0)(1.0 0.0))((1.0 0.0)(1.0 0.0))))((((1.0 0.0)(1.0 0.0))((1.0 0.0)(1.0 0.0)))(((1.0 0.0)(1.0 0.0))((1.0 0.0)(1.0 0.0)))))(((((1.0 0.0)(1.0 0.0))((1.0 0.0)(1.0 0.0)))(((1.0 0.0)(1.0 0.0))((1.0 0.0)(1.0 0.0))))((((1.0 0.0)(1.0 0.0))((1.0 0.0)(1.0 0.0)))(((1.0 0.0)(1.0 0.0))((1.0 0.0)(1.0 0.0))))))((((((1.0 0.0)(1.0 0.0))((1.0 0.0)(1.0 0.0)))(((1.0 0.0)(1.0 0.0))((1.0 0.0)(1.0 0.0))))((((1.0 0.0)(1.0 0.0))((1.0 0.0)(1.0 0.0)))(((1.0 0.0)(1.0 0.0))((1.0 0.0)(1.0 0.0)))))(((((1.0 0.0)(1.0 0.0))((1.0 0.0)(1.0 0.0)))(((1.0 0.0)(1.0 0.0))((1.0 0.0)(1.0 0.0))))((((1.0 0.0)(1.0 0.0))((1.0 0.0)(1.0 0.0)))(((1.0 0.0)(1.0 0.0))((1.0 0.0)(1.0 0.0)))))))(((((((1.0 0.0)(1.0 0.0))((1.0 0.0)(1.0 0.0)))(((1.0 0.0)(1.0 0.0))((1.0 0.0)(1.0 0.0))))((((1.0 0.0)(1.0 0.0))((1.0 0.0)(1.0 0.0)))(((1.0 0.0)(1.0 0.0))((1.0 0.0)(1.0 0.0)))))(((((1.0 0.0)(1.0 0.0))((1.0 0.0)(1.0 0.0)))(((1.0 0.0)(1.0 0.0))((1.0 0.0)(1.0 0.0))))((((1.0 0.0)(1.0 0.0))((1.0 0.0)(1.0 0.0)))(((1.0 0.0)(1.0 0.0))((1.0 0.0)(1.0 0.0))))))((((((1.0 0.0)(1.0 0.0))((1.0 0.0)(1.0 0.0)))(((1.0 0.0)(1.0 0.0))((1.0 0.0)(1.0 0.0))))((((1.0 0.0)(1.0 0.0))((1.0 0.0)(1.0 0.0)))(((1.0 0.0)(1.0 0.0))((1.0 0.0)(1.0 0.0)))))(((((1.0 0.0)(1.0 0.0))((1.0 0.0)(1.0 0.0)))(((1.0 0.0)(1.0 0.0))((1.0 0.0)(1.0 0.0))))((((1.0 0.0)(1.0 0.0))((1.0 0.0)(1.0 0.0)))(((1.0 0.0)(1.0 0.0))((1.0 0.0)(1.0 0.0))))))))((((((((1.0 0.0)(1.0 0.0))((1.0 0.0)(1.0 0.0)))(((1.0 0.0)(1.0 0.0))((1.0 0.0)(1.0 0.0))))((((1.0 0.0)(1.0 0.0))((1.0 0.0)(1.0 0.0)))(((1.0 0.0)(1.0 0.0))((1.0 0.0)(1.0 0.0)))))(((((1.0 0.0)(1.0 0.0))((1.0 0.0)(1.0 0.0)))(((1.0 0.0)(1.0 0.0))((1.0 0.0)(1.0 0.0))))((((1.0 0.0)(1.0 0.0))((1.0 0.0)(1.0 0.0)))(((1.0 0.0)(1.0 0.0))((1.0 0.0)(1.0 0.0))))))((((((1.0 0.0)(1.0 0.0))((1.0 0.0)(1.0 0.0)))(((1.0 0.0)(1.0 0.0))((1.0 0.0)(1.0 0.0))))((((1.0 0.0)(1.0 0.0))((1.0 0.0)(1.0 0.0)))(((1.0 0.0)(1.0 0.0))((1.0 0.0)(1.0 0.0)))))(((((1.0 0.0)(1.0 0.0))((1.0 0.0)(1.0 0.0)))(((1.0 0.0)(1.0 0.0))((1.0 0.0)(1.0 0.0))))((((1.0 0.0)(1.0 0.0))((1.0 0.0)(1.0 0.0)))(((1.0 0.0)(1.0 0.0))((1.0 0.0)(1.0 0.0)))))))(((((((1.0 0.0)(1.0 0.0))((1.0 0.0)(1.0 0.0)))(((1.0 0.0)(1.0 0.0))((1.0 0.0)(1.0 0.0))))((((1.0 0.0)(1.0 0.0))((1.0 0.0)(1.0 0.0)))(((1.0 0.0)(1.0 0.0))((1.0 0.0)(1.0 0.0)))))(((((1.0 0.0)(1.0 0.0))((1.0 0.0)(1.0 0.0)))(((1.0 0.0)(1.0 0.0))((1.0 0.0)(1.0 0.0))))((((1.0 0.0)(1.0 0.0))((1.0 0.0)(1.0 0.0)))(((1.0 0.0)(1.0 0.0))((1.0 0.0)(1.0 0.0))))))((((((1.0 0.0)(1.0 0.0))((1.0 0.0)(1.0 0.0)))(((1.0 0.0)(1.0 0.0))((1.0 0.0)(1.0 0.0))))((((1.0 0.0)(1.0 0.0))((1.0 0.0)(1.0 0.0)))(((1.0 0.0)(1.0 0.0))((1.0 0.0)(1.0 0.0)))))(((((1.0 0.0)(1.0 0.0))((1.0 0.0)(1.0 0.0)))(((1.0 0.0)(1.0 0.0))((1.0 0.0)(1.0 0.0))))((((1.0 0.0)(1.0 0.0))((1.0 0.0)(1.0 0.0)))(((1.0 0.0)(1.0 0.0))((1.0 0.0)(1.0 0.0)))))))))) ;
}
potential ( MakeModel_SportsCar | RiskAversion_Psychopath RiskAversion_Adventurous RiskAversion_Normal RiskAversion_Cautious SocioEcon_Prole SocioEcon_Middle SocioEcon_UpperMiddle SocioEcon_Wealthy  )
{
	data = (((((((((0.900000 0.100000)(0.850000 0.150000))((0.800000 0.200000)(0.700000 0.300000)))(((0.900000 0.100000)(0.850000 0.150000))((0.800000 0.200000)(0.700000 0.300000))))((((0.900000 0.100000)(0.850000 0.150000))((0.800000 0.200000)(0.700000 0.300000)))(((0.900000 0.100000)(0.850000 0.150000))((0.800000 0.200000)(0.700000 0.300000)))))(((((1.0 0.0)(1.0 0.0))((1.0 0.0)(1.0 0.0)))(((1.0 0.0)(1.0 0.0))((1.0 0.0)(1.0 0.0))))((((1.0 0.0)(1.0 0.0))((1.0 0.0)(1.0 0.0)))(((1.0 0.0)(1.0 0.0))((1.0 0.0)(1.0 0.0))))))((((((1.0 0.0)(1.0 0.0))((1.0 0.0)(1.0 0.0)))(((1.0 0.0)(1.0 0.0))((1.0 0.0)(1.0 0.0))))((((1.0 0.0)(1.0 0.0))((1.0 0.0)(1.0 0.0)))(((1.0 0.0)(1.0 0.0))((1.0 0.0)(1.0 0.0)))))(((((1.0 0.0)(1.0 0.0))((1.0 0.0)(1.0 0.0)))(((1.0 0.0)(1.0 0.0))((1.0 0.0)(1.0 0.0))))((((1.0 0.0)(1.0 0.0))((1.0 0.0)(1.0 0.0)))(((1.0 0.0)(1.0 0.0))((1.0 0.0)(1.0 0.0)))))))(((((((1.0 0.0)(1.0 0.0))((1.0 0.0)(1.0 0.0)))(((1.0 0.0)(1.0 0.0))((1.0 0.0)(1.0 0.0))))((((1.0 0.0)(1.0 0.0))((1.0 0.0)(1.0 0.0)))(((1.0 0.0)(1.0 0.0))((1.0 0.0)(1.0 0.0)))))(((((1.0 0.0)(1.0 0.0))((1.0 0.0)(1.0 0.0)))(((1.0 0.0)(1.0 0.0))((1.0 0.0)(1.0 0.0))))((((1.0 0.0)(1.0 0.0))((1.0 0.0)(1.0 0.0)))(((1.0 0.0)(1.0 0.0))((1.0 0.0)(1.0 0.0))))))((((((1.0 0.0)(1.0 0.0))((1.0 0.0)(1.0 0.0)))(((1.0 0.0)(1.0 0.0))((1.0 0.0)(1.0 0.0))))((((1.0 0.0)(1.0 0.0))((1.0 0.0)(1.0 0.0)))(((1.0 0.0)(1.0 0.0))((1.0 0.0)(1.0 0.0)))))(((((1.0 0.0)(1.0 0.0))((1.0 0.0)(1.0 0.0)))(((1.0 0.0)(1.0 0.0))((1.0 0.0)(1.0 0.0))))((((1.0 0.0)(1.0 0.0))((1.0 0.0)(1.0 0.0)))(((1.0 0.0)(1.0 0.0))((1.0 0.0)(1.0 0.0))))))))((((((((1.0 0.0)(1.0 0.0))((1.0 0.0)(1.0 0.0)))(((1.0 0.0)(1.0 0.0))((1.0 0.0)(1.0 0.0))))((((1.0 0.0)(1.0 0.0))((1.0 0.0)(1.0 0.0)))(((1.0 0.0)(1.0 0.0))((1.0 0.0)(1.0 0.0)))))(((((1.0 0.0)(1.0 0.0))((1.0 0.0)(1.0 0.0)))(((1.0 0.0)(1.0 0.0))((1.0 0.0)(1.0 0.0))))((((1.0 0.0)(1.0 0.0))((1.0 0.0)(1.0 0.0)))(((1.0 0.0)(1.0 0.0))((1.0 0.0)(1.0 0.0))))))((((((1.0 0.0)(1.0 0.0))((1.0 0.0)(1.0 0.0)))(((1.0 0.0)(1.0 0.0))((1.0 0.0)(1.0 0.0))))((((1.0 0.0)(1.0 0.0))((1.0 0.0)(1.0 0.0)))(((1.0 0.0)(1.0 0.0))((1.0 0.0)(1.0 0.0)))))(((((1.0 0.0)(1.0 0.0))((1.0 0.0)(1.0 0.0)))(((1.0 0.0)(1.0 0.0))((1.0 0.0)(1.0 0.0))))((((1.0 0.0)(1.0 0.0))((1.0 0.0)(1.0 0.0)))(((1.0 0.0)(1.0 0.0))((1.0 0.0)(1.0 0.0)))))))(((((((1.0 0.0)(1.0 0.0))((1.0 0.0)(1.0 0.0)))(((1.0 0.0)(1.0 0.0))((1.0 0.0)(1.0 0.0))))((((1.0 0.0)(1.0 0.0))((1.0 0.0)(1.0 0.0)))(((1.0 0.0)(1.0 0.0))((1.0 0.0)(1.0 0.0)))))(((((1.0 0.0)(1.0 0.0))((1.0 0.0)(1.0 0.0)))(((1.0 0.0)(1.0 0.0))((1.0 0.0)(1.0 0.0))))((((1.0 0.0)(1.0 0.0))((1.0 0.0)(1.0 0.0)))(((1.0 0.0)(1.0 0.0))((1.0 0.0)(1.0 0.0))))))((((((1.0 0.0)(1.0 0.0))((1.0 0.0)(1.0 0.0)))(((1.0 0.0)(1.0 0.0))((1.0 0.0)(1.0 0.0))))((((1.0 0.0)(1.0 0.0))((1.0 0.0)(1.0 0.0)))(((1.0 0.0)(1.0 0.0))((1.0 0.0)(1.0 0.0)))))(((((1.0 0.0)(1.0 0.0))((1.0 0.0)(1.0 0.0)))(((1.0 0.0)(1.0 0.0))((1.0 0.0)(1.0 0.0))))((((1.0 0.0)(1.0 0.0))((1.0 0.0)(1.0 0.0)))(((1.0 0.0)(1.0 0.0))((1.0 0.0)(1.0 0.0))))))))) ;
}
potential ( MakeModel_Economy | RiskAversion_Psychopath RiskAversion_Adventurous RiskAversion_Normal RiskAversion_Cautious SocioEcon_Prole SocioEcon_Middle SocioEcon_UpperMiddle SocioEcon_Wealthy MakeModel_SportsCar  )
{
	data = ((((((((((0.222222 0.777778)(1.0 0.0))((0.764706 0.235294)(1.0 0.0)))(((0.937500 0.062500)(1.0 0.0))((0.985714 0.014286)(1.0 0.0))))((((0.222222 0.777778)(1.0 0.0))((0.764706 0.235294)(1.0 0.0)))(((0.937500 0.062500)(1.0 0.0))((0.985714 0.014286)(1.0 0.0)))))(((((0.222222 0.777778)(1.0 0.0))((0.764706 0.235294)(1.0 0.0)))(((0.937500 0.062500)(1.0 0.0))((0.985714 0.014286)(1.0 0.0))))((((0.222222 0.777778)(1.0 0.0))((0.764706 0.235294)(1.0 0.0)))(((0.937500 0.062500)(1.0 0.0))((0.985714 0.014286)(1.0 0.0))))))((((((1.0 0.0)(1.0 0.0))((1.0 0.0)(1.0 0.0)))(((1.0 0.0)(1.0 0.0))((1.0 0.0)(1.0 0.0))))((((1.0 0.0)(1.0 0.0))((1.0 0.0)(1.0 0.0)))(((1.0 0.0)(1.0 0.0))((1.0 0.0)(1.0 0.0)))))(((((1.0 0.0)(1.0 0.0))((1.0 0.0)(1.0 0.0)))(((1.0 0.0)(1.0 0.0))((1.0 0.0)(1.0 0.0))))((((1.0 0.0)(1.0 0.0))((1.0 0.0)(1.0 0.0)))(((1.0 0.0)(1.0 0.0))((1.0 0.0)(1.0 0.0)))))))(((((((1.0 0.0)(1.0 0.0))((1.0 0.0)(1.0 0.0)))(((1.0 0.0)(1.0 0.0))((1.0 0.0)(1.0 0.0))))((((1.0 0.0)(1.0 0.0))((1.0 0.0)(1.0 0.0)))(((1.0 0.0)(1.0 0.0))((1.0 0.0)(1.0 0.0)))))(((((1.0 0.0)(1.0 0.0))((1.0 0.0)(1.0 0.0)))(((1.0 0.0)(1.0 0.0))((1.0 0.0)(1.0 0.0))))((((1.0 0.0)(1.0 0.0))((1.0 0.0)(1.0 0.0)))(((1.0 0.0)(1.0 0.0))((1.0 0.0)(1.0 0.0))))))((((((1.0 0.0)(1.0 0.0))((1.0 0.0)(1.0 0.0)))(((1.0 0.0)(1.0 0.0))((1.0 0.0)(1.0 0.0))))((((1.0 0.0)(1.0 0.0))((1.0 0.0)(1.0 0.0)))(((1.0 0.0)(1.0 0.0))((1.0 0.0)(1.0 0.0)))))(((((1.0 0.0)(1.0 0.0))((1.0 0.0)(1.0 0.0)))(((1.0 0.0)(1.0 0.0))((1.0 0.0)(1.0 0.0))))((((1.0 0.0)(1.0 0.0))((1.0 0.0)(1.0 0.0)))(((1.0 0.0)(1.0 0.0))((1.0 0.0)(1.0 0.0))))))))((((((((1.0 0.0)(1.0 0.0))((1.0 0.0)(1.0 0.0)))(((1.0 0.0)(1.0 0.0))((1.0 0.0)(1.0 0.0))))((((1.0 0.0)(1.0 0.0))((1.0 0.0)(1.0 0.0)))(((1.0 0.0)(1.0 0.0))((1.0 0.0)(1.0 0.0)))))(((((1.0 0.0)(1.0 0.0))((1.0 0.0)(1.0 0.0)))(((1.0 0.0)(1.0 0.0))((1.0 0.0)(1.0 0.0))))((((1.0 0.0)(1.0 0.0))((1.0 0.0)(1.0 0.0)))(((1.0 0.0)(1.0 0.0))((1.0 0.0)(1.0 0.0))))))((((((1.0 0.0)(1.0 0.0))((1.0 0.0)(1.0 0.0)))(((1.0 0.0)(1.0 0.0))((1.0 0.0)(1.0 0.0))))((((1.0 0.0)(1.0 0.0))((1.0 0.0)(1.0 0.0)))(((1.0 0.0)(1.0 0.0))((1.0 0.0)(1.0 0.0)))))(((((1.0 0.0)(1.0 0.0))((1.0 0.0)(1.0 0.0)))(((1.0 0.0)(1.0 0.0))((1.0 0.0)(1.0 0.0))))((((1.0 0.0)(1.0 0.0))((1.0 0.0)(1.0 0.0)))(((1.0 0.0)(1.0 0.0))((1.0 0.0)(1.0 0.0)))))))(((((((1.0 0.0)(1.0 0.0))((1.0 0.0)(1.0 0.0)))(((1.0 0.0)(1.0 0.0))((1.0 0.0)(1.0 0.0))))((((1.0 0.0)(1.0 0.0))((1.0 0.0)(1.0 0.0)))(((1.0 0.0)(1.0 0.0))((1.0 0.0)(1.0 0.0)))))(((((1.0 0.0)(1.0 0.0))((1.0 0.0)(1.0 0.0)))(((1.0 0.0)(1.0 0.0))((1.0 0.0)(1.0 0.0))))((((1.0 0.0)(1.0 0.0))((1.0 0.0)(1.0 0.0)))(((1.0 0.0)(1.0 0.0))((1.0 0.0)(1.0 0.0))))))((((((1.0 0.0)(1.0 0.0))((1.0 0.0)(1.0 0.0)))(((1.0 0.0)(1.0 0.0))((1.0 0.0)(1.0 0.0))))((((1.0 0.0)(1.0 0.0))((1.0 0.0)(1.0 0.0)))(((1.0 0.0)(1.0 0.0))((1.0 0.0)(1.0 0.0)))))(((((1.0 0.0)(1.0 0.0))((1.0 0.0)(1.0 0.0)))(((1.0 0.0)(1.0 0.0))((1.0 0.0)(1.0 0.0))))((((1.0 0.0)(1.0 0.0))((1.0 0.0)(1.0 0.0)))(((1.0 0.0)(1.0 0.0))((1.0 0.0)(1.0 0.0)))))))))(((((((((1.0 0.0)(1.0 0.0))((1.0 0.0)(1.0 0.0)))(((1.0 0.0)(1.0 0.0))((1.0 0.0)(1.0 0.0))))((((1.0 0.0)(1.0 0.0))((1.0 0.0)(1.0 0.0)))(((1.0 0.0)(1.0 0.0))((1.0 0.0)(1.0 0.0)))))(((((1.0 0.0)(1.0 0.0))((1.0 0.0)(1.0 0.0)))(((1.0 0.0)(1.0 0.0))((1.0 0.0)(1.0 0.0))))((((1.0 0.0)(1.0 0.0))((1.0 0.0)(1.0 0.0)))(((1.0 0.0)(1.0 0.0))((1.0 0.0)(1.0 0.0))))))((((((1.0 0.0)(1.0 0.0))((1.0 0.0)(1.0 0.0)))(((1.0 0.0)(1.0 0.0))((1.0 0.0)(1.0 0.0))))((((1.0 0.0)(1.0 0.0))((1.0 0.0)(1.0 0.0)))(((1.0 0.0)(1.0 0.0))((1.0 0.0)(1.0 0.0)))))(((((1.0 0.0)(1.0 0.0))((1.0 0.0)(1.0 0.0)))(((1.0 0.0)(1.0 0.0))((1.0 0.0)(1.0 0.0))))((((1.0 0.0)(1.0 0.0))((1.0 0.0)(1.0 0.0)))(((1.0 0.0)(1.0 0.0))((1.0 0.0)(1.0 0.0)))))))(((((((1.0 0.0)(1.0 0.0))((1.0 0.0)(1.0 0.0)))(((1.0 0.0)(1.0 0.0))((1.0 0.0)(1.0 0.0))))((((1.0 0.0)(1.0 0.0))((1.0 0.0)(1.0 0.0)))(((1.0 0.0)(1.0 0.0))((1.0 0.0)(1.0 0.0)))))(((((1.0 0.0)(1.0 0.0))((1.0 0.0)(1.0 0.0)))(((1.0 0.0)(1.0 0.0))((1.0 0.0)(1.0 0.0))))((((1.0 0.0)(1.0 0.0))((1.0 0.0)(1.0 0.0)))(((1.0 0.0)(1.0 0.0))((1.0 0.0)(1.0 0.0))))))((((((1.0 0.0)(1.0 0.0))((1.0 0.0)(1.0 0.0)))(((1.0 0.0)(1.0 0.0))((1.0 0.0)(1.0 0.0))))((((1.0 0.0)(1.0 0.0))((1.0 0.0)(1.0 0.0)))(((1.0 0.0)(1.0 0.0))((1.0 0.0)(1.0 0.0)))))(((((1.0 0.0)(1.0 0.0))((1.0 0.0)(1.0 0.0)))(((1.0 0.0)(1.0 0.0))((1.0 0.0)(1.0 0.0))))((((1.0 0.0)(1.0 0.0))((1.0 0.0)(1.0 0.0)))(((1.0 0.0)(1.0 0.0))((1.0 0.0)(1.0 0.0))))))))((((((((1.0 0.0)(1.0 0.0))((1.0 0.0)(1.0 0.0)))(((1.0 0.0)(1.0 0.0))((1.0 0.0)(1.0 0.0))))((((1.0 0.0)(1.0 0.0))((1.0 0.0)(1.0 0.0)))(((1.0 0.0)(1.0 0.0))((1.0 0.0)(1.0 0.0)))))(((((1.0 0.0)(1.0 0.0))((1.0 0.0)(1.0 0.0)))(((1.0 0.0)(1.0 0.0))((1.0 0.0)(1.0 0.0))))((((1.0 0.0)(1.0 0.0))((1.0 0.0)(1.0 0.0)))(((1.0 0.0)(1.0 0.0))((1.0 0.0)(1.0 0.0))))))((((((1.0 0.0)(1.0 0.0))((1.0 0.0)(1.0 0.0)))(((1.0 0.0)(1.0 0.0))((1.0 0.0)(1.0 0.0))))((((1.0 0.0)(1.0 0.0))((1.0 0.0)(1.0 0.0)))(((1.0 0.0)(1.0 0.0))((1.0 0.0)(1.0 0.0)))))(((((1.0 0.0)(1.0 0.0))((1.0 0.0)(1.0 0.0)))(((1.0 0.0)(1.0 0.0))((1.0 0.0)(1.0 0.0))))((((1.0 0.0)(1.0 0.0))((1.0 0.0)(1.0 0.0)))(((1.0 0.0)(1.0 0.0))((1.0 0.0)(1.0 0.0)))))))(((((((1.0 0.0)(1.0 0.0))((1.0 0.0)(1.0 0.0)))(((1.0 0.0)(1.0 0.0))((1.0 0.0)(1.0 0.0))))((((1.0 0.0)(1.0 0.0))((1.0 0.0)(1.0 0.0)))(((1.0 0.0)(1.0 0.0))((1.0 0.0)(1.0 0.0)))))(((((1.0 0.0)(1.0 0.0))((1.0 0.0)(1.0 0.0)))(((1.0 0.0)(1.0 0.0))((1.0 0.0)(1.0 0.0))))((((1.0 0.0)(1.0 0.0))((1.0 0.0)(1.0 0.0)))(((1.0 0.0)(1.0 0.0))((1.0 0.0)(1.0 0.0))))))((((((1.0 0.0)(1.0 0.0))((1.0 0.0)(1.0 0.0)))(((1.0 0.0)(1.0 0.0))((1.0 0.0)(1.0 0.0))))((((1.0 0.0)(1.0 0.0))((1.0 0.0)(1.0 0.0)))(((1.0 0.0)(1.0 0.0))((1.0 0.0)(1.0 0.0)))))(((((1.0 0.0)(1.0 0.0))((1.0 0.0)(1.0 0.0)))(((1.0 0.0)(1.0 0.0))((1.0 0.0)(1.0 0.0))))((((1.0 0.0)(1.0 0.0))((1.0 0.0)(1.0 0.0)))(((1.0 0.0)(1.0 0.0))((1.0 0.0)(1.0 0.0)))))))))) ;
}
potential ( MakeModel_FamilySedan | RiskAversion_Psychopath RiskAversion_Adventurous RiskAversion_Normal RiskAversion_Cautious SocioEcon_Prole SocioEcon_Middle SocioEcon_UpperMiddle SocioEcon_Wealthy MakeModel_Economy  )
{
	data = ((((((((((0.000000 1.000000)(1.0 0.0))((0.000000 1.000000)(1.0 0.0)))(((0.600000 0.400000)(1.0 0.0))((0.869565 0.130435)(1.0 0.0))))((((0.000000 1.000000)(1.0 0.0))((0.000000 1.000000)(1.0 0.0)))(((0.600000 0.400000)(1.0 0.0))((0.869565 0.130435)(1.0 0.0)))))(((((0.000000 1.000000)(1.0 0.0))((0.000000 1.000000)(1.0 0.0)))(((0.600000 0.400000)(1.0 0.0))((0.869565 0.130435)(1.0 0.0))))((((0.000000 1.000000)(1.0 0.0))((0.000000 1.000000)(1.0 0.0)))(((0.600000 0.400000)(1.0 0.0))((0.869565 0.130435)(1.0 0.0))))))((((((1.0 0.0)(1.0 0.0))((1.0 0.0)(1.0 0.0)))(((1.0 0.0)(1.0 0.0))((1.0 0.0)(1.0 0.0))))((((1.0 0.0)(1.0 0.0))((1.0 0.0)(1.0 0.0)))(((1.0 0.0)(1.0 0.0))((1.0 0.0)(1.0 0.0)))))(((((1.0 0.0)(1.0 0.0))((1.0 0.0)(1.0 0.0)))(((1.0 0.0)(1.0 0.0))((1.0 0.0)(1.0 0.0))))((((1.0 0.0)(1.0 0.0))((1.0 0.0)(1.0 0.0)))(((1.0 0.0)(1.0 0.0))((1.0 0.0)(1.0 0.0)))))))(((((((1.0 0.0)(1.0 0.0))((1.0 0.0)(1.0 0.0)))(((1.0 0.0)(1.0 0.0))((1.0 0.0)(1.0 0.0))))((((1.0 0.0)(1.0 0.0))((1.0 0.0)(1.0 0.0)))(((1.0 0.0)(1.0 0.0))((1.0 0.0)(1.0 0.0)))))(((((1.0 0.0)(1.0 0.0))((1.0 0.0)(1.0 0.0)))(((1.0 0.0)(1.0 0.0))((1.0 0.0)(1.0 0.0))))((((1.0 0.0)(1.0 0.0))((1.0 0.0)(1.0 0.0)))(((1.0 0.0)(1.0 0.0))((1.0 0.0)(1.0 0.0))))))((((((1.0 0.0)(1.0 0.0))((1.0 0.0)(1.0 0.0)))(((1.0 0.0)(1.0 0.0))((1.0 0.0)(1.0 0.0))))((((1.0 0.0)(1.0 0.0))((1.0 0.0)(1.0 0.0)))(((1.0 0.0)(1.0 0.0))((1.0 0.0)(1.0 0.0)))))(((((1.0 0.0)(1.0 0.0))((1.0 0.0)(1.0 0.0)))(((1.0 0.0)(1.0 0.0))((1.0 0.0)(1.0 0.0))))((((1.0 0.0)(1.0 0.0))((1.0 0.0)(1.0 0.0)))(((1.0 0.0)(1.0 0.0))((1.0 0.0)(1.0 0.0))))))))((((((((1.0 0.0)(1.0 0.0))((1.0 0.0)(1.0 0.0)))(((1.0 0.0)(1.0 0.0))((1.0 0.0)(1.0 0.0))))((((1.0 0.0)(1.0 0.0))((1.0 0.0)(1.0 0.0)))(((1.0 0.0)(1.0 0.0))((1.0 0.0)(1.0 0.0)))))(((((1.0 0.0)(1.0 0.0))((1.0 0.0)(1.0 0.0)))(((1.0 0.0)(1.0 0.0))((1.0 0.0)(1.0 0.0))))((((1.0 0.0)(1.0 0.0))((1.0 0.0)(1.0 0.0)))(((1.0 0.0)(1.0 0.0))((1.0 0.0)(1.0 0.0))))))((((((1.0 0.0)(1.0 0.0))((1.0 0.0)(1.0 0.0)))(((1.0 0.0)(1.0 0.0))((1.0 0.0)(1.0 0.0))))((((1.0 0.0)(1.0 0.0))((1.0 0.0)(1.0 0.0)))(((1.0 0.0)(1.0 0.0))((1.0 0.0)(1.0 0.0)))))(((((1.0 0.0)(1.0 0.0))((1.0 0.0)(1.0 0.0)))(((1.0 0.0)(1.0 0.0))((1.0 0.0)(1.0 0.0))))((((1.0 0.0)(1.0 0.0))((1.0 0.0)(1.0 0.0)))(((1.0 0.0)(1.0 0.0))((1.0 0.0)(1.0 0.0)))))))(((((((1.0 0.0)(1.0 0.0))((1.0 0.0)(1.0 0.0)))(((1.0 0.0)(1.0 0.0))((1.0 0.0)(1.0 0.0))))((((1.0 0.0)(1.0 0.0))((1.0 0.0)(1.0 0.0)))(((1.0 0.0)(1.0 0.0))((1.0 0.0)(1.0 0.0)))))(((((1.0 0.0)(1.0 0.0))((1.0 0.0)(1.0 0.0)))(((1.0 0.0)(1.0 0.0))((1.0 0.0)(1.0 0.0))))((((1.0 0.0)(1.0 0.0))((1.0 0.0)(1.0 0.0)))(((1.0 0.0)(1.0 0.0))((1.0 0.0)(1.0 0.0))))))((((((1.0 0.0)(1.0 0.0))((1.0 0.0)(1.0 0.0)))(((1.0 0.0)(1.0 0.0))((1.0 0.0)(1.0 0.0))))((((1.0 0.0)(1.0 0.0))((1.0 0.0)(1.0 0.0)))(((1.0 0.0)(1.0 0.0))((1.0 0.0)(1.0 0.0)))))(((((1.0 0.0)(1.0 0.0))((1.0 0.0)(1.0 0.0)))(((1.0 0.0)(1.0 0.0))((1.0 0.0)(1.0 0.0))))((((1.0 0.0)(1.0 0.0))((1.0 0.0)(1.0 0.0)))(((1.0 0.0)(1.0 0.0))((1.0 0.0)(1.0 0.0)))))))))(((((((((1.0 0.0)(1.0 0.0))((1.0 0.0)(1.0 0.0)))(((1.0 0.0)(1.0 0.0))((1.0 0.0)(1.0 0.0))))((((1.0 0.0)(1.0 0.0))((1.0 0.0)(1.0 0.0)))(((1.0 0.0)(1.0 0.0))((1.0 0.0)(1.0 0.0)))))(((((1.0 0.0)(1.0 0.0))((1.0 0.0)(1.0 0.0)))(((1.0 0.0)(1.0 0.0))((1.0 0.0)(1.0 0.0))))((((1.0 0.0)(1.0 0.0))((1.0 0.0)(1.0 0.0)))(((1.0 0.0)(1.0 0.0))((1.0 0.0)(1.0 0.0))))))((((((1.0 0.0)(1.0 0.0))((1.0 0.0)(1.0 0.0)))(((1.0 0.0)(1.0 0.0))((1.0 0.0)(1.0 0.0))))((((1.0 0.0)(1.0 0.0))((1.0 0.0)(1.0 0.0)))(((1.0 0.0)(1.0 0.0))((1.0 0.0)(1.0 0.0)))))(((((1.0 0.0)(1.0 0.0))((1.0 0.0)(1.0 0.0)))(((1.0 0.0)(1.0 0.0))((1.0 0.0)(1.0 0.0))))((((1.0 0.0)(1.0 0.0))((1.0 0.0)(1.0 0.0)))(((1.0 0.0)(1.0 0.0))((1.0 0.0)(1.0 0.0)))))))(((((((1.0 0.0)(1.0 0.0))((1.0 0.0)(1.0 0.0)))(((1.0 0.0)(1.0 0.0))((1.0 0.0)(1.0 0.0))))((((1.0 0.0)(1.0 0.0))((1.0 0.0)(1.0 0.0)))(((1.0 0.0)(1.0 0.0))((1.0 0.0)(1.0 0.0)))))(((((1.0 0.0)(1.0 0.0))((1.0 0.0)(1.0 0.0)))(((1.0 0.0)(1.0 0.0))((1.0 0.0)(1.0 0.0))))((((1.0 0.0)(1.0 0.0))((1.0 0.0)(1.0 0.0)))(((1.0 0.0)(1.0 0.0))((1.0 0.0)(1.0 0.0))))))((((((1.0 0.0)(1.0 0.0))((1.0 0.0)(1.0 0.0)))(((1.0 0.0)(1.0 0.0))((1.0 0.0)(1.0 0.0))))((((1.0 0.0)(1.0 0.0))((1.0 0.0)(1.0 0.0)))(((1.0 0.0)(1.0 0.0))((1.0 0.0)(1.0 0.0)))))(((((1.0 0.0)(1.0 0.0))((1.0 0.0)(1.0 0.0)))(((1.0 0.0)(1.0 0.0))((1.0 0.0)(1.0 0.0))))((((1.0 0.0)(1.0 0.0))((1.0 0.0)(1.0 0.0)))(((1.0 0.0)(1.0 0.0))((1.0 0.0)(1.0 0.0))))))))((((((((1.0 0.0)(1.0 0.0))((1.0 0.0)(1.0 0.0)))(((1.0 0.0)(1.0 0.0))((1.0 0.0)(1.0 0.0))))((((1.0 0.0)(1.0 0.0))((1.0 0.0)(1.0 0.0)))(((1.0 0.0)(1.0 0.0))((1.0 0.0)(1.0 0.0)))))(((((1.0 0.0)(1.0 0.0))((1.0 0.0)(1.0 0.0)))(((1.0 0.0)(1.0 0.0))((1.0 0.0)(1.0 0.0))))((((1.0 0.0)(1.0 0.0))((1.0 0.0)(1.0 0.0)))(((1.0 0.0)(1.0 0.0))((1.0 0.0)(1.0 0.0))))))((((((1.0 0.0)(1.0 0.0))((1.0 0.0)(1.0 0.0)))(((1.0 0.0)(1.0 0.0))((1.0 0.0)(1.0 0.0))))((((1.0 0.0)(1.0 0.0))((1.0 0.0)(1.0 0.0)))(((1.0 0.0)(1.0 0.0))((1.0 0.0)(1.0 0.0)))))(((((1.0 0.0)(1.0 0.0))((1.0 0.0)(1.0 0.0)))(((1.0 0.0)(1.0 0.0))((1.0 0.0)(1.0 0.0))))((((1.0 0.0)(1.0 0.0))((1.0 0.0)(1.0 0.0)))(((1.0 0.0)(1.0 0.0))((1.0 0.0)(1.0 0.0)))))))(((((((1.0 0.0)(1.0 0.0))((1.0 0.0)(1.0 0.0)))(((1.0 0.0)(1.0 0.0))((1.0 0.0)(1.0 0.0))))((((1.0 0.0)(1.0 0.0))((1.0 0.0)(1.0 0.0)))(((1.0 0.0)(1.0 0.0))((1.0 0.0)(1.0 0.0)))))(((((1.0 0.0)(1.0 0.0))((1.0 0.0)(1.0 0.0)))(((1.0 0.0)(1.0 0.0))((1.0 0.0)(1.0 0.0))))((((1.0 0.0)(1.0 0.0))((1.0 0.0)(1.0 0.0)))(((1.0 0.0)(1.0 0.0))((1.0 0.0)(1.0 0.0))))))((((((1.0 0.0)(1.0 0.0))((1.0 0.0)(1.0 0.0)))(((1.0 0.0)(1.0 0.0))((1.0 0.0)(1.0 0.0))))((((1.0 0.0)(1.0 0.0))((1.0 0.0)(1.0 0.0)))(((1.0 0.0)(1.0 0.0))((1.0 0.0)(1.0 0.0)))))(((((1.0 0.0)(1.0 0.0))((1.0 0.0)(1.0 0.0)))(((1.0 0.0)(1.0 0.0))((1.0 0.0)(1.0 0.0))))((((1.0 0.0)(1.0 0.0))((1.0 0.0)(1.0 0.0)))(((1.0 0.0)(1.0 0.0))((1.0 0.0)(1.0 0.0)))))))))) ;
}
potential ( MakeModel_Luxury | RiskAversion_Psychopath RiskAversion_Adventurous RiskAversion_Normal RiskAversion_Cautious SocioEcon_Prole SocioEcon_Middle SocioEcon_UpperMiddle SocioEcon_Wealthy MakeModel_FamilySedan  )
{
	data = ((((((((((0.000000 1.000000)(1.0 0.0))((0.000000 1.000000)(1.0 0.0)))(((0.000000 1.000000)(1.0 0.0))((0.333333 0.666667)(1.0 0.0))))((((0.000000 1.000000)(1.0 0.0))((0.000000 1.000000)(1.0 0.0)))(((0.000000 1.000000)(1.0 0.0))((0.333333 0.666667)(1.0 0.0)))))(((((0.000000 1.000000)(1.0 0.0))((0.000000 1.000000)(1.0 0.0)))(((0.000000 1.000000)(1.0 0.0))((0.333333 0.666667)(1.0 0.0))))((((0.000000 1.000000)(1.0 0.0))((0.000000 1.000000)(1.0 0.0)))(((0.000000 1.000000)(1.0 0.0))((0.333333 0.666667)(1.0 0.0))))))((((((1.0 0.0)(1.0 0.0))((1.0 0.0)(1.0 0.0)))(((1.0 0.0)(1.0 0.0))((1.0 0.0)(1.0 0.0))))((((1.0 0.0)(1.0 0.0))((1.0 0.0)(1.0 0.0)))(((1.0 0.0)(1.0 0.0))((1.0 0.0)(1.0 0.0)))))(((((1.0 0.0)(1.0 0.0))((1.0 0.0)(1.0 0.0)))(((1.0 0.0)(1.0 0.0))((1.0 0.0)(1.0 0.0))))((((1.0 0.0)(1.0 0.0))((1.0 0.0)(1.0 0.0)))(((1.0 0.0)(1.0 0.0))((1.0 0.0)(1.0 0.0)))))))(((((((1.0 0.0)(1.0 0.0))((1.0 0.0)(1.0 0.0)))(((1.0 0.0)(1.0 0.0))((1.0 0.0)(1.0 0.0))))((((1.0 0.0)(1.0 0.0))((1.0 0.0)(1.0 0.0)))(((1.0 0.0)(1.0 0.0))((1.0 0.0)(1.0 0.0)))))(((((1.0 0.0)(1.0 0.0))((1.0 0.0)(1.0 0.0)))(((1.0 0.0)(1.0 0.0))((1.0 0.0)(1.0 0.0))))((((1.0 0.0)(1.0 0.0))((1.0 0.0)(1.0 0.0)))(((1.0 0.0)(1.0 0.0))((1.0 0.0)(1.0 0.0))))))((((((1.0 0.0)(1.0 0.0))((1.0 0.0)(1.0 0.0)))(((1.0 0.0)(1.0 0.0))((1.0 0.0)(1.0 0.0))))((((1.0 0.0)(1.0 0.0))((1.0 0.0)(1.0 0.0)))(((1.0 0.0)(1.0 0.0))((1.0 0.0)(1.0 0.0)))))(((((1.0 0.0)(1.0 0.0))((1.0 0.0)(1.0 0.0)))(((1.0 0.0)(1.0 0.0))((1.0 0.0)(1.0 0.0))))((((1.0 0.0)(1.0 0.0))((1.0 0.0)(1.0 0.0)))(((1.0 0.0)(1.0 0.0))((1.0 0.0)(1.0 0.0))))))))((((((((1.0 0.0)(1.0 0.0))((1.0 0.0)(1.0 0.0)))(((1.0 0.0)(1.0 0.0))((1.0 0.0)(1.0 0.0))))((((1.0 0.0)(1.0 0.0))((1.0 0.0)(1.0 0.0)))(((1.0 0.0)(1.0 0.0))((1.0 0.0)(1.0 0.0)))))(((((1.0 0.0)(1.0 0.0))((1.0 0.0)(1.0 0.0)))(((1.0 0.0)(1.0 0.0))((1.0 0.0)(1.0 0.0))))((((1.0 0.0)(1.0 0.0))((1.0 0.0)(1.0 0.0)))(((1.0 0.0)(1.0 0.0))((1.0 0.0)(1.0 0.0))))))((((((1.0 0.0)(1.0 0.0))((1.0 0.0)(1.0 0.0)))(((1.0 0.0)(1.0 0.0))((1.0 0.0)(1.0 0.0))))((((1.0 0.0)(1.0 0.0))((1.0 0.0)(1.0 0.0)))(((1.0 0.0)(1.0 0.0))((1.0 0.0)(1.0 0.0)))))(((((1.0 0.0)(1.0 0.0))((1.0 0.0)(1.0 0.0)))(((1.0 0.0)(1.0 0.0))((1.0 0.0)(1.0 0.0))))((((1.0 0.0)(1.0 0.0))((1.0 0.0)(1.0 0.0)))(((1.0 0.0)(1.0 0.0))((1.0 0.0)(1.0 0.0)))))))(((((((1.0 0.0)(1.0 0.0))((1.0 0.0)(1.0 0.0)))(((1.0 0.0)(1.0 0.0))((1.0 0.0)(1.0 0.0))))((((1.0 0.0)(1.0 0.0))((1.0 0.0)(1.0 0.0)))(((1.0 0.0)(1.0 0.0))((1.0 0.0)(1.0 0.0)))))(((((1.0 0.0)(1.0 0.0))((1.0 0.0)(1.0 0.0)))(((1.0 0.0)(1.0 0.0))((1.0 0.0)(1.0 0.0))))((((1.0 0.0)(1.0 0.0))((1.0 0.0)(1.0 0.0)))(((1.0 0.0)(1.0 0.0))((1.0 0.0)(1.0 0.0))))))((((((1.0 0.0)(1.0 0.0))((1.0 0.0)(1.0 0.0)))(((1.0 0.0)(1.0 0.0))((1.0 0.0)(1.0 0.0))))((((1.0 0.0)(1.0 0.0))((1.0 0.0)(1.0 0.0)))(((1.0 0.0)(1.0 0.0))((1.0 0.0)(1.0 0.0)))))(((((1.0 0.0)(1.0 0.0))((1.0 0.0)(1.0 0.0)))(((1.0 0.0)(1.0 0.0))((1.0 0.0)(1.0 0.0))))((((1.0 0.0)(1.0 0.0))((1.0 0.0)(1.0 0.0)))(((1.0 0.0)(1.0 0.0))((1.0 0.0)(1.0 0.0)))))))))(((((((((1.0 0.0)(1.0 0.0))((1.0 0.0)(1.0 0.0)))(((1.0 0.0)(1.0 0.0))((1.0 0.0)(1.0 0.0))))((((1.0 0.0)(1.0 0.0))((1.0 0.0)(1.0 0.0)))(((1.0 0.0)(1.0 0.0))((1.0 0.0)(1.0 0.0)))))(((((1.0 0.0)(1.0 0.0))((1.0 0.0)(1.0 0.0)))(((1.0 0.0)(1.0 0.0))((1.0 0.0)(1.0 0.0))))((((1.0 0.0)(1.0 0.0))((1.0 0.0)(1.0 0.0)))(((1.0 0.0)(1.0 0.0))((1.0 0.0)(1.0 0.0))))))((((((1.0 0.0)(1.0 0.0))((1.0 0.0)(1.0 0.0)))(((1.0 0.0)(1.0 0.0))((1.0 0.0)(1.0 0.0))))((((1.0 0.0)(1.0 0.0))((1.0 0.0)(1.0 0.0)))(((1.0 0.0)(1.0 0.0))((1.0 0.0)(1.0 0.0)))))(((((1.0 0.0)(1.0 0.0))((1.0 0.0)(1.0 0.0)))(((1.0 0.0)(1.0 0.0))((1.0 0.0)(1.0 0.0))))((((1.0 0.0)(1.0 0.0))((1.0 0.0)(1.0 0.0)))(((1.0 0.0)(1.0 0.0))((1.0 0.0)(1.0 0.0)))))))(((((((1.0 0.0)(1.0 0.0))((1.0 0.0)(1.0 0.0)))(((1.0 0.0)(1.0 0.0))((1.0 0.0)(1.0 0.0))))((((1.0 0.0)(1.0 0.0))((1.0 0.0)(1.0 0.0)))(((1.0 0.0)(1.0 0.0))((1.0 0.0)(1.0 0.0)))))(((((1.0 0.0)(1.0 0.0))((1.0 0.0)(1.0 0.0)))(((1.0 0.0)(1.0 0.0))((1.0 0.0)(1.0 0.0))))((((1.0 0.0)(1.0 0.0))((1.0 0.0)(1.0 0.0)))(((1.0 0.0)(1.0 0.0))((1.0 0.0)(1.0 0.0))))))((((((1.0 0.0)(1.0 0.0))((1.0 0.0)(1.0 0.0)))(((1.0 0.0)(1.0 0.0))((1.0 0.0)(1.0 0.0))))((((1.0 0.0)(1.0 0.0))((1.0 0.0)(1.0 0.0)))(((1.0 0.0)(1.0 0.0))((1.0 0.0)(1.0 0.0)))))(((((1.0 0.0)(1.0 0.0))((1.0 0.0)(1.0 0.0)))(((1.0 0.0)(1.0 0.0))((1.0 0.0)(1.0 0.0))))((((1.0 0.0)(1.0 0.0))((1.0 0.0)(1.0 0.0)))(((1.0 0.0)(1.0 0.0))((1.0 0.0)(1.0 0.0))))))))((((((((1.0 0.0)(1.0 0.0))((1.0 0.0)(1.0 0.0)))(((1.0 0.0)(1.0 0.0))((1.0 0.0)(1.0 0.0))))((((1.0 0.0)(1.0 0.0))((1.0 0.0)(1.0 0.0)))(((1.0 0.0)(1.0 0.0))((1.0 0.0)(1.0 0.0)))))(((((1.0 0.0)(1.0 0.0))((1.0 0.0)(1.0 0.0)))(((1.0 0.0)(1.0 0.0))((1.0 0.0)(1.0 0.0))))((((1.0 0.0)(1.0 0.0))((1.0 0.0)(1.0 0.0)))(((1.0 0.0)(1.0 0.0))((1.0 0.0)(1.0 0.0))))))((((((1.0 0.0)(1.0 0.0))((1.0 0.0)(1.0 0.0)))(((1.0 0.0)(1.0 0.0))((1.0 0.0)(1.0 0.0))))((((1.0 0.0)(1.0 0.0))((1.0 0.0)(1.0 0.0)))(((1.0 0.0)(1.0 0.0))((1.0 0.0)(1.0 0.0)))))(((((1.0 0.0)(1.0 0.0))((1.0 0.0)(1.0 0.0)))(((1.0 0.0)(1.0 0.0))((1.0 0.0)(1.0 0.0))))((((1.0 0.0)(1.0 0.0))((1.0 0.0)(1.0 0.0)))(((1.0 0.0)(1.0 0.0))((1.0 0.0)(1.0 0.0)))))))(((((((1.0 0.0)(1.0 0.0))((1.0 0.0)(1.0 0.0)))(((1.0 0.0)(1.0 0.0))((1.0 0.0)(1.0 0.0))))((((1.0 0.0)(1.0 0.0))((1.0 0.0)(1.0 0.0)))(((1.0 0.0)(1.0 0.0))((1.0 0.0)(1.0 0.0)))))(((((1.0 0.0)(1.0 0.0))((1.0 0.0)(1.0 0.0)))(((1.0 0.0)(1.0 0.0))((1.0 0.0)(1.0 0.0))))((((1.0 0.0)(1.0 0.0))((1.0 0.0)(1.0 0.0)))(((1.0 0.0)(1.0 0.0))((1.0 0.0)(1.0 0.0))))))((((((1.0 0.0)(1.0 0.0))((1.0 0.0)(1.0 0.0)))(((1.0 0.0)(1.0 0.0))((1.0 0.0)(1.0 0.0))))((((1.0 0.0)(1.0 0.0))((1.0 0.0)(1.0 0.0)))(((1.0 0.0)(1.0 0.0))((1.0 0.0)(1.0 0.0)))))(((((1.0 0.0)(1.0 0.0))((1.0 0.0)(1.0 0.0)))(((1.0 0.0)(1.0 0.0))((1.0 0.0)(1.0 0.0))))((((1.0 0.0)(1.0 0.0))((1.0 0.0)(1.0 0.0)))(((1.0 0.0)(1.0 0.0))((1.0 0.0)(1.0 0.0)))))))))) ;
}
potential ( MakeModel_SuperLuxury | RiskAversion_Psychopath RiskAversion_Adventurous RiskAversion_Normal RiskAversion_Cautious SocioEcon_Prole SocioEcon_Middle SocioEcon_UpperMiddle SocioEcon_Wealthy MakeModel_Luxury  )
{
	data = ((((((((((0.000000 1.000000)(1.0 0.0))((0.000000 1.000000)(1.0 0.0)))(((0.000000 1.000000)(1.0 0.0))((0.000000 1.000000)(1.0 0.0))))((((0.000000 1.000000)(1.0 0.0))((0.000000 1.000000)(1.0 0.0)))(((0.000000 1.000000)(1.0 0.0))((0.000000 1.000000)(1.0 0.0)))))(((((0.000000 1.000000)(1.0 0.0))((0.000000 1.000000)(1.0 0.0)))(((0.000000 1.000000)(1.0 0.0))((0.000000 1.000000)(1.0 0.0))))((((0.000000 1.000000)(1.0 0.0))((0.000000 1.000000)(1.0 0.0)))(((0.000000 1.000000)(1.0 0.0))((0.000000 1.000000)(1.0 0.0))))))((((((1.0 0.0)(1.0 0.0))((1.0 0.0)(1.0 0.0)))(((1.0 0.0)(1.0 0.0))((1.0 0.0)(1.0 0.0))))((((1.0 0.0)(1.0 0.0))((1.0 0.0)(1.0 0.0)))(((1.0 0.0)(1.0 0.0))((1.0 0.0)(1.0 0.0)))))(((((1.0 0.0)(1.0 0.0))((1.0 0.0)(1.0 0.0)))(((1.0 0.0)(1.0 0.0))((1.0 0.0)(1.0 0.0))))((((1.0 0.0)(1.0 0.0))((1.0 0.0)(1.0 0.0)))(((1.0 0.0)(1.0 0.0))((1.0 0.0)(1.0 0.0)))))))(((((((1.0 0.0)(1.0 0.0))((1.0 0.0)(1.0 0.0)))(((1.0 0.0)(1.0 0.0))((1.0 0.0)(1.0 0.0))))((((1.0 0.0)(1.0 0.0))((1.0 0.0)(1.0 0.0)))(((1.0 0.0)(1.0 0.0))((1.0 0.0)(1.0 0.0)))))(((((1.0 0.0)(1.0 0.0))((1.0 0.0)(1.0 0.0)))(((1.0 0.0)(1.0 0.0))((1.0 0.0)(1.0 0.0))))((((1.0 0.0)(1.0 0.0))((1.0 0.0)(1.0 0.0)))(((1.0 0.0)(1.0 0.0))((1.0 0.0)(1.0 0.0))))))((((((1.0 0.0)(1.0 0.0))((1.0 0.0)(1.0 0.0)))(((1.0 0.0)(1.0 0.0))((1.0 0.0)(1.0 0.0))))((((1.0 0.0)(1.0 0.0))((1.0 0.0)(1.0 0.0)))(((1.0 0.0)(1.0 0.0))((1.0 0.0)(1.0 0.0)))))(((((1.0 0.0)(1.0 0.0))((1.0 0.0)(1.0 0.0)))(((1.0 0.0)(1.0 0.0))((1.0 0.0)(1.0 0.0))))((((1.0 0.0)(1.0 0.0))((1.0 0.0)(1.0 0.0)))(((1.0 0.0)(1.0 0.0))((1.0 0.0)(1.0 0.0))))))))((((((((1.0 0.0)(1.0 0.0))((1.0 0.0)(1.0 0.0)))(((1.0 0.0)(1.0 0.0))((1.0 0.0)(1.0 0.0))))((((1.0 0.0)(1.0 0.0))((1.0 0.0)(1.0 0.0)))(((1.0 0.0)(1.0 0.0))((1.0 0.0)(1.0 0.0)))))(((((1.0 0.0)(1.0 0.0))((1.0 0.0)(1.0 0.0)))(((1.0 0.0)(1.0 0.0))((1.0 0.0)(1.0 0.0))))((((1.0 0.0)(1.0 0.0))((1.0 0.0)(1.0 0.0)))(((1.0 0.0)(1.0 0.0))((1.0 0.0)(1.0 0.0))))))((((((1.0 0.0)(1.0 0.0))((1.0 0.0)(1.0 0.0)))(((1.0 0.0)(1.0 0.0))((1.0 0.0)(1.0 0.0))))((((1.0 0.0)(1.0 0.0))((1.0 0.0)(1.0 0.0)))(((1.0 0.0)(1.0 0.0))((1.0 0.0)(1.0 0.0)))))(((((1.0 0.0)(1.0 0.0))((1.0 0.0)(1.0 0.0)))(((1.0 0.0)(1.0 0.0))((1.0 0.0)(1.0 0.0))))((((1.0 0.0)(1.0 0.0))((1.0 0.0)(1.0 0.0)))(((1.0 0.0)(1.0 0.0))((1.0 0.0)(1.0 0.0)))))))(((((((1.0 0.0)(1.0 0.0))((1.0 0.0)(1.0 0.0)))(((1.0 0.0)(1.0 0.0))((1.0 0.0)(1.0 0.0))))((((1.0 0.0)(1.0 0.0))((1.0 0.0)(1.0 0.0)))(((1.0 0.0)(1.0 0.0))((1.0 0.0)(1.0 0.0)))))(((((1.0 0.0)(1.0 0.0))((1.0 0.0)(1.0 0.0)))(((1.0 0.0)(1.0 0.0))((1.0 0.0)(1.0 0.0))))((((1.0 0.0)(1.0 0.0))((1.0 0.0)(1.0 0.0)))(((1.0 0.0)(1.0 0.0))((1.0 0.0)(1.0 0.0))))))((((((1.0 0.0)(1.0 0.0))((1.0 0.0)(1.0 0.0)))(((1.0 0.0)(1.0 0.0))((1.0 0.0)(1.0 0.0))))((((1.0 0.0)(1.0 0.0))((1.0 0.0)(1.0 0.0)))(((1.0 0.0)(1.0 0.0))((1.0 0.0)(1.0 0.0)))))(((((1.0 0.0)(1.0 0.0))((1.0 0.0)(1.0 0.0)))(((1.0 0.0)(1.0 0.0))((1.0 0.0)(1.0 0.0))))((((1.0 0.0)(1.0 0.0))((1.0 0.0)(1.0 0.0)))(((1.0 0.0)(1.0 0.0))((1.0 0.0)(1.0 0.0)))))))))(((((((((1.0 0.0)(1.0 0.0))((1.0 0.0)(1.0 0.0)))(((1.0 0.0)(1.0 0.0))((1.0 0.0)(1.0 0.0))))((((1.0 0.0)(1.0 0.0))((1.0 0.0)(1.0 0.0)))(((1.0 0.0)(1.0 0.0))((1.0 0.0)(1.0 0.0)))))(((((1.0 0.0)(1.0 0.0))((1.0 0.0)(1.0 0.0)))(((1.0 0.0)(1.0 0.0))((1.0 0.0)(1.0 0.0))))((((1.0 0.0)(1.0 0.0))((1.0 0.0)(1.0 0.0)))(((1.0 0.0)(1.0 0.0))((1.0 0.0)(1.0 0.0))))))((((((1.0 0.0)(1.0 0.0))((1.0 0.0)(1.0 0.0)))(((1.0 0.0)(1.0 0.0))((1.0 0.0)(1.0 0.0))))((((1.0 0.0)(1.0 0.0))((1.0 0.0)(1.0 0.0)))(((1.0 0.0)(1.0 0.0))((1.0 0.0)(1.0 0.0)))))(((((1.0 0.0)(1.0 0.0))((1.0 0.0)(1.0 0.0)))(((1.0 0.0)(1.0 0.0))((1.0 0.0)(1.0 0.0))))((((1.0 0.0)(1.0 0.0))((1.0 0.0)(1.0 0.0)))(((1.0 0.0)(1.0 0.0))((1.0 0.0)(1.0 0.0)))))))(((((((1.0 0.0)(1.0 0.0))((1.0 0.0)(1.0 0.0)))(((1.0 0.0)(1.0 0.0))((1.0 0.0)(1.0 0.0))))((((1.0 0.0)(1.0 0.0))((1.0 0.0)(1.0 0.0)))(((1.0 0.0)(1.0 0.0))((1.0 0.0)(1.0 0.0)))))(((((1.0 0.0)(1.0 0.0))((1.0 0.0)(1.0 0.0)))(((1.0 0.0)(1.0 0.0))((1.0 0.0)(1.0 0.0))))((((1.0 0.0)(1.0 0.0))((1.0 0.0)(1.0 0.0)))(((1.0 0.0)(1.0 0.0))((1.0 0.0)(1.0 0.0))))))((((((1.0 0.0)(1.0 0.0))((1.0 0.0)(1.0 0.0)))(((1.0 0.0)(1.0 0.0))((1.0 0.0)(1.0 0.0))))((((1.0 0.0)(1.0 0.0))((1.0 0.0)(1.0 0.0)))(((1.0 0.0)(1.0 0.0))((1.0 0.0)(1.0 0.0)))))(((((1.0 0.0)(1.0 0.0))((1.0 0.0)(1.0 0.0)))(((1.0 0.0)(1.0 0.0))((1.0 0.0)(1.0 0.0))))((((1.0 0.0)(1.0 0.0))((1.0 0.0)(1.0 0.0)))(((1.0 0.0)(1.0 0.0))((1.0 0.0)(1.0 0.0))))))))((((((((1.0 0.0)(1.0 0.0))((1.0 0.0)(1.0 0.0)))(((1.0 0.0)(1.0 0.0))((1.0 0.0)(1.0 0.0))))((((1.0 0.0)(1.0 0.0))((1.0 0.0)(1.0 0.0)))(((1.0 0.0)(1.0 0.0))((1.0 0.0)(1.0 0.0)))))(((((1.0 0.0)(1.0 0.0))((1.0 0.0)(1.0 0.0)))(((1.0 0.0)(1.0 0.0))((1.0 0.0)(1.0 0.0))))((((1.0 0.0)(1.0 0.0))((1.0 0.0)(1.0 0.0)))(((1.0 0.0)(1.0 0.0))((1.0 0.0)(1.0 0.0))))))((((((1.0 0.0)(1.0 0.0))((1.0 0.0)(1.0 0.0)))(((1.0 0.0)(1.0 0.0))((1.0 0.0)(1.0 0.0))))((((1.0 0.0)(1.0 0.0))((1.0 0.0)(1.0 0.0)))(((1.0 0.0)(1.0 0.0))((1.0 0.0)(1.0 0.0)))))(((((1.0 0.0)(1.0 0.0))((1.0 0.0)(1.0 0.0)))(((1.0 0.0)(1.0 0.0))((1.0 0.0)(1.0 0.0))))((((1.0 0.0)(1.0 0.0))((1.0 0.0)(1.0 0.0)))(((1.0 0.0)(1.0 0.0))((1.0 0.0)(1.0 0.0)))))))(((((((1.0 0.0)(1.0 0.0))((1.0 0.0)(1.0 0.0)))(((1.0 0.0)(1.0 0.0))((1.0 0.0)(1.0 0.0))))((((1.0 0.0)(1.0 0.0))((1.0 0.0)(1.0 0.0)))(((1.0 0.0)(1.0 0.0))((1.0 0.0)(1.0 0.0)))))(((((1.0 0.0)(1.0 0.0))((1.0 0.0)(1.0 0.0)))(((1.0 0.0)(1.0 0.0))((1.0 0.0)(1.0 0.0))))((((1.0 0.0)(1.0 0.0))((1.0 0.0)(1.0 0.0)))(((1.0 0.0)(1.0 0.0))((1.0 0.0)(1.0 0.0))))))((((((1.0 0.0)(1.0 0.0))((1.0 0.0)(1.0 0.0)))(((1.0 0.0)(1.0 0.0))((1.0 0.0)(1.0 0.0))))((((1.0 0.0)(1.0 0.0))((1.0 0.0)(1.0 0.0)))(((1.0 0.0)(1.0 0.0))((1.0 0.0)(1.0 0.0)))))(((((1.0 0.0)(1.0 0.0))((1.0 0.0)(1.0 0.0)))(((1.0 0.0)(1.0 0.0))((1.0 0.0)(1.0 0.0))))((((1.0 0.0)(1.0 0.0))((1.0 0.0)(1.0 0.0)))(((1.0 0.0)(1.0 0.0))((1.0 0.0)(1.0 0.0)))))))))) ;
}
potential ( Antilock_True | VehicleYear_Current VehicleYear_Older MakeModel_SportsCar MakeModel_Economy MakeModel_FamilySedan MakeModel_Luxury MakeModel_SuperLuxury  )
{
	data = ((((((((0.100000 0.900000)(0.999000 0.001000))((0.600000 0.400000)(0.010000 0.990000)))(((0.010000 0.990000)(0.900000 0.100000))((1.000000 0.000000)(1.000000 0.000000))))((((0.700000 0.300000)(0.850000 0.150000))((1.0 0.0)(1.0 0.0)))(((1.0 0.0)(1.0 0.0))((1.0 0.0)(1.0 0.0)))))(((((1.0 0.0)(1.0 0.0))((1.0 0.0)(1.0 0.0)))(((1.0 0.0)(1.0 0.0))((1.0 0.0)(1.0 0.0))))((((1.0 0.0)(1.0 0.0))((1.0 0.0)(1.0 0.0)))(((1.0 0.0)(1.0 0.0))((1.0 0.0)(1.0 0.0))))))((((((1.0 0.0)(1.0 0.0))((1.0 0.0)(1.0 0.0)))(((1.0 0.0)(1.0 0.0))((1.0 0.0)(1.0 0.0))))((((1.0 0.0)(1.0 0.0))((1.0 0.0)(1.0 0.0)))(((1.0 0.0)(1.0 0.0))((1.0 0.0)(1.0 0.0)))))(((((1.0 0.0)(1.0 0.0))((1.0 0.0)(1.0 0.0)))(((1.0 0.0)(1.0 0.0))((1.0 0.0)(1.0 0.0))))((((1.0 0.0)(1.0 0.0))((1.0 0.0)(1.0 0.0)))(((1.0 0.0)(1.0 0.0))((1.0 0.0)(1.0 0.0)))))))(((((((1.0 0.0)(1.0 0.0))((1.0 0.0)(1.0 0.0)))(((1.0 0.0)(1.0 0.0))((1.0 0.0)(1.0 0.0))))((((1.0 0.0)(1.0 0.0))((1.0 0.0)(1.0 0.0)))(((1.0 0.0)(1.0 0.0))((1.0 0.0)(1.0 0.0)))))(((((1.0 0.0)(1.0 0.0))((1.0 0.0)(1.0 0.0)))(((1.0 0.0)(1.0 0.0))((1.0 0.0)(1.0 0.0))))((((1.0 0.0)(1.0 0.0))((1.0 0.0)(1.0 0.0)))(((1.0 0.0)(1.0 0.0))((1.0 0.0)(1.0 0.0))))))((((((1.0 0.0)(1.0 0.0))((1.0 0.0)(1.0 0.0)))(((1.0 0.0)(1.0 0.0))((1.0 0.0)(1.0 0.0))))((((1.0 0.0)(1.0 0.0))((1.0 0.0)(1.0 0.0)))(((1.0 0.0)(1.0 0.0))((1.0 0.0)(1.0 0.0)))))(((((1.0 0.0)(1.0 0.0))((1.0 0.0)(1.0 0.0)))(((1.0 0.0)(1.0 0.0))((1.0 0.0)(1.0 0.0))))((((1.0 0.0)(1.0 0.0))((1.0 0.0)(1.0 0.0)))(((1.0 0.0)(1.0 0.0))((1.0 0.0)(1.0 0.0)))))))) ;
}
potential ( Antilock_False | VehicleYear_Current VehicleYear_Older MakeModel_SportsCar MakeModel_Economy MakeModel_FamilySedan MakeModel_Luxury MakeModel_SuperLuxury Antilock_True  )
{
	data = (((((((((0.000000 1.000000)(1.0 0.0))((0.000000 1.000000)(1.0 0.0)))(((0.000000 1.000000)(1.0 0.0))((0.000000 1.000000)(1.0 0.0))))((((0.000000 1.000000)(1.0 0.0))((0.000000 1.000000)(1.0 0.0)))(((0.000000 1.000000)(1.0 0.0))((0.000000 1.000000)(1.0 0.0)))))(((((0.000000 1.000000)(1.0 0.0))((0.000000 1.000000)(1.0 0.0)))(((1.0 0.0)(1.0 0.0))((1.0 0.0)(1.0 0.0))))((((1.0 0.0)(1.0 0.0))((1.0 0.0)(1.0 0.0)))(((1.0 0.0)(1.0 0.0))((1.0 0.0)(1.0 0.0))))))((((((1.0 0.0)(1.0 0.0))((1.0 0.0)(1.0 0.0)))(((1.0 0.0)(1.0 0.0))((1.0 0.0)(1.0 0.0))))((((1.0 0.0)(1.0 0.0))((1.0 0.0)(1.0 0.0)))(((1.0 0.0)(1.0 0.0))((1.0 0.0)(1.0 0.0)))))(((((1.0 0.0)(1.0 0.0))((1.0 0.0)(1.0 0.0)))(((1.0 0.0)(1.0 0.0))((1.0 0.0)(1.0 0.0))))((((1.0 0.0)(1.0 0.0))((1.0 0.0)(1.0 0.0)))(((1.0 0.0)(1.0 0.0))((1.0 0.0)(1.0 0.0)))))))(((((((1.0 0.0)(1.0 0.0))((1.0 0.0)(1.0 0.0)))(((1.0 0.0)(1.0 0.0))((1.0 0.0)(1.0 0.0))))((((1.0 0.0)(1.0 0.0))((1.0 0.0)(1.0 0.0)))(((1.0 0.0)(1.0 0.0))((1.0 0.0)(1.0 0.0)))))(((((1.0 0.0)(1.0 0.0))((1.0 0.0)(1.0 0.0)))(((1.0 0.0)(1.0 0.0))((1.0 0.0)(1.0 0.0))))((((1.0 0.0)(1.0 0.0))((1.0 0.0)(1.0 0.0)))(((1.0 0.0)(1.0 0.0))((1.0 0.0)(1.0 0.0))))))((((((1.0 0.0)(1.0 0.0))((1.0 0.0)(1.0 0.0)))(((1.0 0.0)(1.0 0.0))((1.0 0.0)(1.0 0.0))))((((1.0 0.0)(1.0 0.0))((1.0 0.0)(1.0 0.0)))(((1.0 0.0)(1.0 0.0))((1.0 0.0)(1.0 0.0)))))(((((1.0 0.0)(1.0 0.0))((1.0 0.0)(1.0 0.0)))(((1.0 0.0)(1.0 0.0))((1.0 0.0)(1.0 0.0))))((((1.0 0.0)(1.0 0.0))((1.0 0.0)(1.0 0.0)))(((1.0 0.0)(1.0 0.0))((1.0 0.0)(1.0 0.0))))))))((((((((1.0 0.0)(1.0 0.0))((1.0 0.0)(1.0 0.0)))(((1.0 0.0)(1.0 0.0))((1.0 0.0)(1.0 0.0))))((((1.0 0.0)(1.0 0.0))((1.0 0.0)(1.0 0.0)))(((1.0 0.0)(1.0 0.0))((1.0 0.0)(1.0 0.0)))))(((((1.0 0.0)(1.0 0.0))((1.0 0.0)(1.0 0.0)))(((1.0 0.0)(1.0 0.0))((1.0 0.0)(1.0 0.0))))((((1.0 0.0)(1.0 0.0))((1.0 0.0)(1.0 0.0)))(((1.0 0.0)(1.0 0.0))((1.0 0.0)(1.0 0.0))))))((((((1.0 0.0)(1.0 0.0))((1.0 0.0)(1.0 0.0)))(((1.0 0.0)(1.0 0.0))((1.0 0.0)(1.0 0.0))))((((1.0 0.0)(1.0 0.0))((1.0 0.0)(1.0 0.0)))(((1.0 0.0)(1.0 0.0))((1.0 0.0)(1.0 0.0)))))(((((1.0 0.0)(1.0 0.0))((1.0 0.0)(1.0 0.0)))(((1.0 0.0)(1.0 0.0))((1.0 0.0)(1.0 0.0))))((((1.0 0.0)(1.0 0.0))((1.0 0.0)(1.0 0.0)))(((1.0 0.0)(1.0 0.0))((1.0 0.0)(1.0 0.0)))))))(((((((1.0 0.0)(1.0 0.0))((1.0 0.0)(1.0 0.0)))(((1.0 0.0)(1.0 0.0))((1.0 0.0)(1.0 0.0))))((((1.0 0.0)(1.0 0.0))((1.0 0.0)(1.0 0.0)))(((1.0 0.0)(1.0 0.0))((1.0 0.0)(1.0 0.0)))))(((((1.0 0.0)(1.0 0.0))((1.0 0.0)(1.0 0.0)))(((1.0 0.0)(1.0 0.0))((1.0 0.0)(1.0 0.0))))((((1.0 0.0)(1.0 0.0))((1.0 0.0)(1.0 0.0)))(((1.0 0.0)(1.0 0.0))((1.0 0.0)(1.0 0.0))))))((((((1.0 0.0)(1.0 0.0))((1.0 0.0)(1.0 0.0)))(((1.0 0.0)(1.0 0.0))((1.0 0.0)(1.0 0.0))))((((1.0 0.0)(1.0 0.0))((1.0 0.0)(1.0 0.0)))(((1.0 0.0)(1.0 0.0))((1.0 0.0)(1.0 0.0)))))(((((1.0 0.0)(1.0 0.0))((1.0 0.0)(1.0 0.0)))(((1.0 0.0)(1.0 0.0))((1.0 0.0)(1.0 0.0))))((((1.0 0.0)(1.0 0.0))((1.0 0.0)(1.0 0.0)))(((1.0 0.0)(1.0 0.0))((1.0 0.0)(1.0 0.0))))))))) ;
}
potential ( Mileage_FiveThou  )
{
	data = (0.900000 0.100000) ;
}
potential ( Mileage_TwentyThou | Mileage_FiveThou  )
{
	data = ((0.555556 0.444444)(1.0 0.0)) ;
}
potential ( Mileage_FiftyThou | Mileage_TwentyThou  )
{
	data = ((0.200000 0.800000)(1.0 0.0)) ;
}
potential ( Mileage_Domino | Mileage_FiftyThou  )
{
	data = ((0.000000 1.000000)(1.0 0.0)) ;
}
potential ( SeniorTrain_True | RiskAversion_Psychopath RiskAversion_Adventurous RiskAversion_Normal RiskAversion_Cautious Age_Adolescent Age_Adult Age_Senior  )
{
	data = ((((((((1.000000 0.000000)(1.000000 0.000000))((0.999999 0.000001)(1.000000 0.000000)))(((1.000000 0.000000)(0.999999 0.000001))((1.000000 0.000000)(1.000000 0.000000))))((((0.700000 0.300000)(1.000000 0.000000))((1.000000 0.000000)(0.100000 0.900000)))(((1.0 0.0)(1.0 0.0))((1.0 0.0)(1.0 0.0)))))(((((1.0 0.0)(1.0 0.0))((1.0 0.0)(1.0 0.0)))(((1.0 0.0)(1.0 0.0))((1.0 0.0)(1.0 0.0))))((((1.0 0.0)(1.0 0.0))((1.0 0.0)(1.0 0.0)))(((1.0 0.0)(1.0 0.0))((1.0 0.0)(1.0 0.0))))))((((((1.0 0.0)(1.0 0.0))((1.0 0.0)(1.0 0.0)))(((1.0 0.0)(1.0 0.0))((1.0 0.0)(1.0 0.0))))((((1.0 0.0)(1.0 0.0))((1.0 0.0)(1.0 0.0)))(((1.0 0.0)(1.0 0.0))((1.0 0.0)(1.0 0.0)))))(((((1.0 0.0)(1.0 0.0))((1.0 0.0)(1.0 0.0)))(((1.0 0.0)(1.0 0.0))((1.0 0.0)(1.0 0.0))))((((1.0 0.0)(1.0 0.0))((1.0 0.0)(1.0 0.0)))(((1.0 0.0)(1.0 0.0))((1.0 0.0)(1.0 0.0)))))))(((((((1.0 0.0)(1.0 0.0))((1.0 0.0)(1.0 0.0)))(((1.0 0.0)(1.0 0.0))((1.0 0.0)(1.0 0.0))))((((1.0 0.0)(1.0 0.0))((1.0 0.0)(1.0 0.0)))(((1.0 0.0)(1.0 0.0))((1.0 0.0)(1.0 0.0)))))(((((1.0 0.0)(1.0 0.0))((1.0 0.0)(1.0 0.0)))(((1.0 0.0)(1.0 0.0))((1.0 0.0)(1.0 0.0))))((((1.0 0.0)(1.0 0.0))((1.0 0.0)(1.0 0.0)))(((1.0 0.0)(1.0 0.0))((1.0 0.0)(1.0 0.0))))))((((((1.0 0.0)(1.0 0.0))((1.0 0.0)(1.0 0.0)))(((1.0 0.0)(1.0 0.0))((1.0 0.0)(1.0 0.0))))((((1.0 0.0)(1.0 0.0))((1.0 0.0)(1.0 0.0)))(((1.0 0.0)(1.0 0.0))((1.0 0.0)(1.0 0.0)))))(((((1.0 0.0)(1.0 0.0))((1.0 0.0)(1.0 0.0)))(((1.0 0.0)(1.0 0.0))((1.0 0.0)(1.0 0.0))))((((1.0 0.0)(1.0 0.0))((1.0 0.0)(1.0 0.0)))(((1.0 0.0)(1.0 0.0))((1.0 0.0)(1.0 0.0)))))))) ;
}
potential ( SeniorTrain_False | RiskAversion_Psychopath RiskAversion_Adventurous RiskAversion_Normal RiskAversion_Cautious Age_Adolescent Age_Adult Age_Senior SeniorTrain_True  )
{
	data = (((((((((0.000000 1.000000)(1.0 0.0))((0.000000 1.000000)(1.0 0.0)))(((0.000000 1.000000)(1.0 0.0))((0.000000 1.000000)(1.0 0.0))))((((0.000000 1.000000)(1.0 0.0))((0.000000 1.000000)(1.0 0.0)))(((0.000000 1.000000)(1.0 0.0))((0.000000 1.000000)(1.0 0.0)))))(((((0.000000 1.000000)(1.0 0.0))((0.000000 1.000000)(1.0 0.0)))(((0.000000 1.000000)(1.0 0.0))((0.000000 1.000000)(1.0 0.0))))((((1.0 0.0)(1.0 0.0))((1.0 0.0)(1.0 0.0)))(((1.0 0.0)(1.0 0.0))((1.0 0.0)(1.0 0.0))))))((((((1.0 0.0)(1.0 0.0))((1.0 0.0)(1.0 0.0)))(((1.0 0.0)(1.0 0.0))((1.0 0.0)(1.0 0.0))))((((1.0 0.0)(1.0 0.0))((1.0 0.0)(1.0 0.0)))(((1.0 0.0)(1.0 0.0))((1.0 0.0)(1.0 0.0)))))(((((1.0 0.0)(1.0 0.0))((1.0 0.0)(1.0 0.0)))(((1.0 0.0)(1.0 0.0))((1.0 0.0)(1.0 0.0))))((((1.0 0.0)(1.0 0.0))((1.0 0.0)(1.0 0.0)))(((1.0 0.0)(1.0 0.0))((1.0 0.0)(1.0 0.0)))))))(((((((1.0 0.0)(1.0 0.0))((1.0 0.0)(1.0 0.0)))(((1.0 0.0)(1.0 0.0))((1.0 0.0)(1.0 0.0))))((((1.0 0.0)(1.0 0.0))((1.0 0.0)(1.0 0.0)))(((1.0 0.0)(1.0 0.0))((1.0 0.0)(1.0 0.0)))))(((((1.0 0.0)(1.0 0.0))((1.0 0.0)(1.0 0.0)))(((1.0 0.0)(1.0 0.0))((1.0 0.0)(1.0 0.0))))((((1.0 0.0)(1.0 0.0))((1.0 0.0)(1.0 0.0)))(((1.0 0.0)(1.0 0.0))((1.0 0.0)(1.0 0.0))))))((((((1.0 0.0)(1.0 0.0))((1.0 0.0)(1.0 0.0)))(((1.0 0.0)(1.0 0.0))((1.0 0.0)(1.0 0.0))))((((1.0 0.0)(1.0 0.0))((1.0 0.0)(1.0 0.0)))(((1.0 0.0)(1.0 0.0))((1.0 0.0)(1.0 0.0)))))(((((1.0 0.0)(1.0 0.0))((1.0 0.0)(1.0 0.0)))(((1.0 0.0)(1.0 0.0))((1.0 0.0)(1.0 0.0))))((((1.0 0.0)(1.0 0.0))((1.0 0.0)(1.0 0.0)))(((1.0 0.0)(1.0 0.0))((1.0 0.0)(1.0 0.0))))))))((((((((1.0 0.0)(1.0 0.0))((1.0 0.0)(1.0 0.0)))(((1.0 0.0)(1.0 0.0))((1.0 0.0)(1.0 0.0))))((((1.0 0.0)(1.0 0.0))((1.0 0.0)(1.0 0.0)))(((1.0 0.0)(1.0 0.0))((1.0 0.0)(1.0 0.0)))))(((((1.0 0.0)(1.0 0.0))((1.0 0.0)(1.0 0.0)))(((1.0 0.0)(1.0 0.0))((1.0 0.0)(1.0 0.0))))((((1.0 0.0)(1.0 0.0))((1.0 0.0)(1.0 0.0)))(((1.0 0.0)(1.0 0.0))((1.0 0.0)(1.0 0.0))))))((((((1.0 0.0)(1.0 0.0))((1.0 0.0)(1.0 0.0)))(((1.0 0.0)(1.0 0.0))((1.0 0.0)(1.0 0.0))))((((1.0 0.0)(1.0 0.0))((1.0 0.0)(1.0 0.0)))(((1.0 0.0)(1.0 0.0))((1.0 0.0)(1.0 0.0)))))(((((1.0 0.0)(1.0 0.0))((1.0 0.0)(1.0 0.0)))(((1.0 0.0)(1.0 0.0))((1.0 0.0)(1.0 0.0))))((((1.0 0.0)(1.0 0.0))((1.0 0.0)(1.0 0.0)))(((1.0 0.0)(1.0 0.0))((1.0 0.0)(1.0 0.0)))))))(((((((1.0 0.0)(1.0 0.0))((1.0 0.0)(1.0 0.0)))(((1.0 0.0)(1.0 0.0))((1.0 0.0)(1.0 0.0))))((((1.0 0.0)(1.0 0.0))((1.0 0.0)(1.0 0.0)))(((1.0 0.0)(1.0 0.0))((1.0 0.0)(1.0 0.0)))))(((((1.0 0.0)(1.0 0.0))((1.0 0.0)(1.0 0.0)))(((1.0 0.0)(1.0 0.0))((1.0 0.0)(1.0 0.0))))((((1.0 0.0)(1.0 0.0))((1.0 0.0)(1.0 0.0)))(((1.0 0.0)(1.0 0.0))((1.0 0.0)(1.0 0.0))))))((((((1.0 0.0)(1.0 0.0))((1.0 0.0)(1.0 0.0)))(((1.0 0.0)(1.0 0.0))((1.0 0.0)(1.0 0.0))))((((1.0 0.0)(1.0 0.0))((1.0 0.0)(1.0 0.0)))(((1.0 0.0)(1.0 0.0))((1.0 0.0)(1.0 0.0)))))(((((1.0 0.0)(1.0 0.0))((1.0 0.0)(1.0 0.0)))(((1.0 0.0)(1.0 0.0))((1.0 0.0)(1.0 0.0))))((((1.0 0.0)(1.0 0.0))((1.0 0.0)(1.0 0.0)))(((1.0 0.0)(1.0 0.0))((1.0 0.0)(1.0 0.0))))))))) ;
}
potential ( DrivingSkill_SubStandard | SeniorTrain_True SeniorTrain_False Age_Adolescent Age_Adult Age_Senior  )
{
	data = ((((((0.500000 0.500000)(0.700000 0.300000))((0.900000 0.100000)(0.500000 0.500000)))(((0.700000 0.300000)(0.600000 0.400000))((1.0 0.0)(1.0 0.0))))((((1.0 0.0)(1.0 0.0))((1.0 0.0)(1.0 0.0)))(((1.0 0.0)(1.0 0.0))((1.0 0.0)(1.0 0.0)))))(((((1.0 0.0)(1.0 0.0))((1.0 0.0)(1.0 0.0)))(((1.0 0.0)(1.0 0.0))((1.0 0.0)(1.0 0.0))))((((1.0 0.0)(1.0 0.0))((1.0 0.0)(1.0 0.0)))(((1.0 0.0)(1.0 0.0))((1.0 0.0)(1.0 0.0)))))) ;
}
potential ( DrivingSkill_Normal | SeniorTrain_True SeniorTrain_False Age_Adolescent Age_Adult Age_Senior DrivingSkill_SubStandard  )
{
	data = (((((((0.100000 0.900000)(1.0 0.0))((0.142857 0.857143)(1.0 0.0)))(((0.333333 0.666667)(1.0 0.0))((0.100000 0.900000)(1.0 0.0))))((((0.142857 0.857143)(1.0 0.0))((0.166667 0.833333)(1.0 0.0)))(((1.0 0.0)(1.0 0.0))((1.0 0.0)(1.0 0.0)))))(((((1.0 0.0)(1.0 0.0))((1.0 0.0)(1.0 0.0)))(((1.0 0.0)(1.0 0.0))((1.0 0.0)(1.0 0.0))))((((1.0 0.0)(1.0 0.0))((1.0 0.0)(1.0 0.0)))(((1.0 0.0)(1.0 0.0))((1.0 0.0)(1.0 0.0))))))((((((1.0 0.0)(1.0 0.0))((1.0 0.0)(1.0 0.0)))(((1.0 0.0)(1.0 0.0))((1.0 0.0)(1.0 0.0))))((((1.0 0.0)(1.0 0.0))((1.0 0.0)(1.0 0.0)))(((1.0 0.0)(1.0 0.0))((1.0 0.0)(1.0 0.0)))))(((((1.0 0.0)(1.0 0.0))((1.0 0.0)(1.0 0.0)))(((1.0 0.0)(1.0 0.0))((1.0 0.0)(1.0 0.0))))((((1.0 0.0)(1.0 0.0))((1.0 0.0)(1.0 0.0)))(((1.0 0.0)(1.0 0.0))((1.0 0.0)(1.0 0.0))))))) ;
}
potential ( DrivingSkill_Expert | SeniorTrain_True SeniorTrain_False Age_Adolescent Age_Adult Age_Senior DrivingSkill_Normal  )
{
	data = (((((((0.000000 1.000000)(1.0 0.0))((0.000000 1.000000)(1.0 0.0)))(((0.000000 1.000000)(1.0 0.0))((0.000000 1.000000)(1.0 0.0))))((((0.000000 1.000000)(1.0 0.0))((0.000000 1.000000)(1.0 0.0)))(((1.0 0.0)(1.0 0.0))((1.0 0.0)(1.0 0.0)))))(((((1.0 0.0)(1.0 0.0))((1.0 0.0)(1.0 0.0)))(((1.0 0.0)(1.0 0.0))((1.0 0.0)(1.0 0.0))))((((1.0 0.0)(1.0 0.0))((1.0 0.0)(1.0 0.0)))(((1.0 0.0)(1.0 0.0))((1.0 0.0)(1.0 0.0))))))((((((1.0 0.0)(1.0 0.0))((1.0 0.0)(1.0 0.0)))(((1.0 0.0)(1.0 0.0))((1.0 0.0)(1.0 0.0))))((((1.0 0.0)(1.0 0.0))((1.0 0.0)(1.0 0.0)))(((1.0 0.0)(1.0 0.0))((1.0 0.0)(1.0 0.0)))))(((((1.0 0.0)(1.0 0.0))((1.0 0.0)(1.0 0.0)))(((1.0 0.0)(1.0 0.0))((1.0 0.0)(1.0 0.0))))((((1.0 0.0)(1.0 0.0))((1.0 0.0)(1.0 0.0)))(((1.0 0.0)(1.0 0.0))((1.0 0.0)(1.0 0.0))))))) ;
}
potential ( DrivQuality_Poor | RiskAversion_Psychopath RiskAversion_Adventurous RiskAversion_Normal RiskAversion_Cautious DrivingSkill_SubStandard DrivingSkill_Normal DrivingSkill_Expert  )
{
	data = ((((((((0.000000 1.000000)(0.500000 0.500000))((0.700000 0.300000)(0.000000 1.000000)))(((0.700000 0.300000)(0.990000 0.010000))((0.000000 1.000000)(1.000000 0.000000))))((((1.000000 0.000000)(0.000000 1.000000))((1.000000 0.000000)(1.000000 0.000000)))(((1.0 0.0)(1.0 0.0))((1.0 0.0)(1.0 0.0)))))(((((1.0 0.0)(1.0 0.0))((1.0 0.0)(1.0 0.0)))(((1.0 0.0)(1.0 0.0))((1.0 0.0)(1.0 0.0))))((((1.0 0.0)(1.0 0.0))((1.0 0.0)(1.0 0.0)))(((1.0 0.0)(1.0 0.0))((1.0 0.0)(1.0 0.0))))))((((((1.0 0.0)(1.0 0.0))((1.0 0.0)(1.0 0.0)))(((1.0 0.0)(1.0 0.0))((1.0 0.0)(1.0 0.0))))((((1.0 0.0)(1.0 0.0))((1.0 0.0)(1.0 0.0)))(((1.0 0.0)(1.0 0.0))((1.0 0.0)(1.0 0.0)))))(((((1.0 0.0)(1.0 0.0))((1.0 0.0)(1.0 0.0)))(((1.0 0.0)(1.0 0.0))((1.0 0.0)(1.0 0.0))))((((1.0 0.0)(1.0 0.0))((1.0 0.0)(1.0 0.0)))(((1.0 0.0)(1.0 0.0))((1.0 0.0)(1.0 0.0)))))))(((((((1.0 0.0)(1.0 0.0))((1.0 0.0)(1.0 0.0)))(((1.0 0.0)(1.0 0.0))((1.0 0.0)(1.0 0.0))))((((1.0 0.0)(1.0 0.0))((1.0 0.0)(1.0 0.0)))(((1.0 0.0)(1.0 0.0))((1.0 0.0)(1.0 0.0)))))(((((1.0 0.0)(1.0 0.0))((1.0 0.0)(1.0 0.0)))(((1.0 0.0)(1.0 0.0))((1.0 0.0)(1.0 0.0))))((((1.0 0.0)(1.0 0.0))((1.0 0.0)(1.0 0.0)))(((1.0 0.0)(1.0 0.0))((1.0 0.0)(1.0 0.0))))))((((((1.0 0.0)(1.0 0.0))((1.0 0.0)(1.0 0.0)))(((1.0 0.0)(1.0 0.0))((1.0 0.0)(1.0 0.0))))((((1.0 0.0)(1.0 0.0))((1.0 0.0)(1.0 0.0)))(((1.0 0.0)(1.0 0.0))((1.0 0.0)(1.0 0.0)))))(((((1.0 0.0)(1.0 0.0))((1.0 0.0)(1.0 0.0)))(((1.0 0.0)(1.0 0.0))((1.0 0.0)(1.0 0.0))))((((1.0 0.0)(1.0 0.0))((1.0 0.0)(1.0 0.0)))(((1.0 0.0)(1.0 0.0))((1.0 0.0)(1.0 0.0)))))))) ;
}
potential ( DrivQuality_Normal | RiskAversion_Psychopath RiskAversion_Adventurous RiskAversion_Normal RiskAversion_Cautious DrivingSkill_SubStandard DrivingSkill_Normal DrivingSkill_Expert DrivQuality_Poor  )
{
	data = (((((((((0.000000 1.000000)(1.0 0.0))((0.600000 0.400000)(1.0 0.0)))(((0.714286 0.285714)(1.0 0.0))((0.000000 1.000000)(1.0 0.0))))((((0.428571 0.571429)(1.0 0.0))((0.989899 0.010101)(1.0 0.0)))(((0.000000 1.000000)(1.0 0.0))((0.000000 1.000000)(1.0 0.0)))))(((((1.000000 0.000000)(1.0 0.0))((0.000000 1.000000)(1.0 0.0)))(((0.200000 0.800000)(1.0 0.0))((1.000000 0.000000)(1.0 0.0))))((((1.0 0.0)(1.0 0.0))((1.0 0.0)(1.0 0.0)))(((1.0 0.0)(1.0 0.0))((1.0 0.0)(1.0 0.0))))))((((((1.0 0.0)(1.0 0.0))((1.0 0.0)(1.0 0.0)))(((1.0 0.0)(1.0 0.0))((1.0 0.0)(1.0 0.0))))((((1.0 0.0)(1.0 0.0))((1.0 0.0)(1.0 0.0)))(((1.0 0.0)(1.0 0.0))((1.0 0.0)(1.0 0.0)))))(((((1.0 0.0)(1.0 0.0))((1.0 0.0)(1.0 0.0)))(((1.0 0.0)(1.0 0.0))((1.0 0.0)(1.0 0.0))))((((1.0 0.0)(1.0 0.0))((1.0 0.0)(1.0 0.0)))(((1.0 0.0)(1.0 0.0))((1.0 0.0)(1.0 0.0)))))))(((((((1.0 0.0)(1.0 0.0))((1.0 0.0)(1.0 0.0)))(((1.0 0.0)(1.0 0.0))((1.0 0.0)(1.0 0.0))))((((1.0 0.0)(1.0 0.0))((1.0 0.0)(1.0 0.0)))(((1.0 0.0)(1.0 0.0))((1.0 0.0)(1.0 0.0)))))(((((1.0 0.0)(1.0 0.0))((1.0 0.0)(1.0 0.0)))(((1.0 0.0)(1.0 0.0))((1.0 0.0)(1.0 0.0))))((((1.0 0.0)(1.0 0.0))((1.0 0.0)(1.0 0.0)))(((1.0 0.0)(1.0 0.0))((1.0 0.0)(1.0 0.0))))))((((((1.0 0.0)(1.0 0.0))((1.0 0.0)(1.0 0.0)))(((1.0 0.0)(1.0 0.0))((1.0 0.0)(1.0 0.0))))((((1.0 0.0)(1.0 0.0))((1.0 0.0)(1.0 0.0)))(((1.0 0.0)(1.0 0.0))((1.0 0.0)(1.0 0.0)))))(((((1.0 0.0)(1.0 0.0))((1.0 0.0)(1.0 0.0)))(((1.0 0.0)(1.0 0.0))((1.0 0.0)(1.0 0.0))))((((1.0 0.0)(1.0 0.0))((1.0 0.0)(1.0 0.0)))(((1.0 0.0)(1.0 0.0))((1.0 0.0)(1.0 0.0))))))))((((((((1.0 0.0)(1.0 0.0))((1.0 0.0)(1.0 0.0)))(((1.0 0.0)(1.0 0.0))((1.0 0.0)(1.0 0.0))))((((1.0 0.0)(1.0 0.0))((1.0 0.0)(1.0 0.0)))(((1.0 0.0)(1.0 0.0))((1.0 0.0)(1.0 0.0)))))(((((1.0 0.0)(1.0 0.0))((1.0 0.0)(1.0 0.0)))(((1.0 0.0)(1.0 0.0))((1.0 0.0)(1.0 0.0))))((((1.0 0.0)(1.0 0.0))((1.0 0.0)(1.0 0.0)))(((1.0 0.0)(1.0 0.0))((1.0 0.0)(1.0 0.0))))))((((((1.0 0.0)(1.0 0.0))((1.0 0.0)(1.0 0.0)))(((1.0 0.0)(1.0 0.0))((1.0 0.0)(1.0 0.0))))((((1.0 0.0)(1.0 0.0))((1.0 0.0)(1.0 0.0)))(((1.0 0.0)(1.0 0.0))((1.0 0.0)(1.0 0.0)))))(((((1.0 0.0)(1.0 0.0))((1.0 0.0)(1.0 0.0)))(((1.0 0.0)(1.0 0.0))((1.0 0.0)(1.0 0.0))))((((1.0 0.0)(1.0 0.0))((1.0 0.0)(1.0 0.0)))(((1.0 0.0)(1.0 0.0))((1.0 0.0)(1.0 0.0)))))))(((((((1.0 0.0)(1.0 0.0))((1.0 0.0)(1.0 0.0)))(((1.0 0.0)(1.0 0.0))((1.0 0.0)(1.0 0.0))))((((1.0 0.0)(1.0 0.0))((1.0 0.0)(1.0 0.0)))(((1.0 0.0)(1.0 0.0))((1.0 0.0)(1.0 0.0)))))(((((1.0 0.0)(1.0 0.0))((1.0 0.0)(1.0 0.0)))(((1.0 0.0)(1.0 0.0))((1.0 0.0)(1.0 0.0))))((((1.0 0.0)(1.0 0.0))((1.0 0.0)(1.0 0.0)))(((1.0 0.0)(1.0 0.0))((1.0 0.0)(1.0 0.0))))))((((((1.0 0.0)(1.0 0.0))((1.0 0.0)(1.0 0.0)))(((1.0 0.0)(1.0 0.0))((1.0 0.0)(1.0 0.0))))((((1.0 0.0)(1.0 0.0))((1.0 0.0)(1.0 0.0)))(((1.0 0.0)(1.0 0.0))((1.0 0.0)(1.0 0.0)))))(((((1.0 0.0)(1.0 0.0))((1.0 0.0)(1.0 0.0)))(((1.0 0.0)(1.0 0.0))((1.0 0.0)(1.0 0.0))))((((1.0 0.0)(1.0 0.0))((1.0 0.0)(1.0 0.0)))(((1.0 0.0)(1.0 0.0))((1.0 0.0)(1.0 0.0))))))))) ;
}
potential ( DrivQuality_Excellent | RiskAversion_Psychopath RiskAversion_Adventurous RiskAversion_Normal RiskAversion_Cautious DrivingSkill_SubStandard DrivingSkill_Normal DrivingSkill_Expert DrivQuality_Normal  )
{
	data = (((((((((0.000000 1.000000)(1.0 0.0))((0.000000 1.000000)(1.0 0.0)))(((0.000000 1.000000)(1.0 0.0))((0.000000 1.000000)(1.0 0.0))))((((0.000000 1.000000)(1.0 0.0))((0.000000 1.000000)(1.0 0.0)))(((0.000000 1.000000)(1.0 0.0))((0.000000 1.000000)(1.0 0.0)))))(((((0.000000 1.000000)(1.0 0.0))((0.000000 1.000000)(1.0 0.0)))(((0.000000 1.000000)(1.0 0.0))((0.000000 1.000000)(1.0 0.0))))((((1.0 0.0)(1.0 0.0))((1.0 0.0)(1.0 0.0)))(((1.0 0.0)(1.0 0.0))((1.0 0.0)(1.0 0.0))))))((((((1.0 0.0)(1.0 0.0))((1.0 0.0)(1.0 0.0)))(((1.0 0.0)(1.0 0.0))((1.0 0.0)(1.0 0.0))))((((1.0 0.0)(1.0 0.0))((1.0 0.0)(1.0 0.0)))(((1.0 0.0)(1.0 0.0))((1.0 0.0)(1.0 0.0)))))(((((1.0 0.0)(1.0 0.0))((1.0 0.0)(1.0 0.0)))(((1.0 0.0)(1.0 0.0))((1.0 0.0)(1.0 0.0))))((((1.0 0.0)(1.0 0.0))((1.0 0.0)(1.0 0.0)))(((1.0 0.0)(1.0 0.0))((1.0 0.0)(1.0 0.0)))))))(((((((1.0 0.0)(1.0 0.0))((1.0 0.0)(1.0 0.0)))(((1.0 0.0)(1.0 0.0))((1.0 0.0)(1.0 0.0))))((((1.0 0.0)(1.0 0.0))((1.0 0.0)(1.0 0.0)))(((1.0 0.0)(1.0 0.0))((1.0 0.0)(1.0 0.0)))))(((((1.0 0.0)(1.0 0.0))((1.0 0.0)(1.0 0.0)))(((1.0 0.0)(1.0 0.0))((1.0 0.0)(1.0 0.0))))((((1.0 0.0)(1.0 0.0))((1.0 0.0)(1.0 0.0)))(((1.0 0.0)(1.0 0.0))((1.0 0.0)(1.0 0.0))))))((((((1.0 0.0)(1.0 0.0))((1.0 0.0)(1.0 0.0)))(((1.0 0.0)(1.0 0.0))((1.0 0.0)(1.0 0.0))))((((1.0 0.0)(1.0 0.0))((1.0 0.0)(1.0 0.0)))(((1.0 0.0)(1.0 0.0))((1.0 0.0)(1.0 0.0)))))(((((1.0 0.0)(1.0 0.0))((1.0 0.0)(1.0 0.0)))(((1.0 0.0)(1.0 0.0))((1.0 0.0)(1.0 0.0))))((((1.0 0.0)(1.0 0.0))((1.0 0.0)(1.0 0.0)))(((1.0 0.0)(1.0 0.0))((1.0 0.0)(1.0 0.0))))))))((((((((1.0 0.0)(1.0 0.0))((1.0 0.0)(1.0 0.0)))(((1.0 0.0)(1.0 0.0))((1.0 0.0)(1.0 0.0))))((((1.0 0.0)(1.0 0.0))((1.0 0.0)(1.0 0.0)))(((1.0 0.0)(1.0 0.0))((1.0 0.0)(1.0 0.0)))))(((((1.0 0.0)(1.0 0.0))((1.0 0.0)(1.0 0.0)))(((1.0 0.0)(1.0 0.0))((1.0 0.0)(1.0 0.0))))((((1.0 0.0)(1.0 0.0))((1.0 0.0)(1.0 0.0)))(((1.0 0.0)(1.0 0.0))((1.0 0.0)(1.0 0.0))))))((((((1.0 0.0)(1.0 0.0))((1.0 0.0)(1.0 0.0)))(((1.0 0.0)(1.0 0.0))((1.0 0.0)(1.0 0.0))))((((1.0 0.0)(1.0 0.0))((1.0 0.0)(1.0 0.0)))(((1.0 0.0)(1.0 0.0))((1.0 0.0)(1.0 0.0)))))(((((1.0 0.0)(1.0 0.0))((1.0 0.0)(1.0 0.0)))(((1.0 0.0)(1.0 0.0))((1.0 0.0)(1.0 0.0))))((((1.0 0.0)(1.0 0.0))((1.0 0.0)(1.0 0.0)))(((1.0 0.0)(1.0 0.0))((1.0 0.0)(1.0 0.0)))))))(((((((1.0 0.0)(1.0 0.0))((1.0 0.0)(1.0 0.0)))(((1.0 0.0)(1.0 0.0))((1.0 0.0)(1.0 0.0))))((((1.0 0.0)(1.0 0.0))((1.0 0.0)(1.0 0.0)))(((1.0 0.0)(1.0 0.0))((1.0 0.0)(1.0 0.0)))))(((((1.0 0.0)(1.0 0.0))((1.0 0.0)(1.0 0.0)))(((1.0 0.0)(1.0 0.0))((1.0 0.0)(1.0 0.0))))((((1.0 0.0)(1.0 0.0))((1.0 0.0)(1.0 0.0)))(((1.0 0.0)(1.0 0.0))((1.0 0.0)(1.0 0.0))))))((((((1.0 0.0)(1.0 0.0))((1.0 0.0)(1.0 0.0)))(((1.0 0.0)(1.0 0.0))((1.0 0.0)(1.0 0.0))))((((1.0 0.0)(1.0 0.0))((1.0 0.0)(1.0 0.0)))(((1.0 0.0)(1.0 0.0))((1.0 0.0)(1.0 0.0)))))(((((1.0 0.0)(1.0 0.0))((1.0 0.0)(1.0 0.0)))(((1.0 0.0)(1.0 0.0))((1.0 0.0)(1.0 0.0))))((((1.0 0.0)(1.0 0.0))((1.0 0.0)(1.0 0.0)))(((1.0 0.0)(1.0 0.0))((1.0 0.0)(1.0 0.0))))))))) ;
}
potential ( Accident_None | DrivQuality_Poor DrivQuality_Normal DrivQuality_Excellent Mileage_FiveThou Mileage_TwentyThou Mileage_FiftyThou Mileage_Domino Antilock_True Antilock_False  )
{
	data = ((((((((((0.300000 0.700000)(0.400000 0.600000))((0.600000 0.400000)(0.700000 0.300000)))(((0.700000 0.300000)(0.800000 0.200000))((0.800000 0.200000)(0.900000 0.100000))))((((0.010000 0.990000)(0.020000 0.980000))((0.020000 0.980000)(0.040000 0.960000)))(((0.030000 0.970000)(0.050000 0.950000))((0.050000 0.950000)(0.060000 0.940000)))))(((((0.001000 0.999000)(0.005000 0.995000))((0.005000 0.995000)(0.010000 0.990000)))(((0.010000 0.990000)(0.020000 0.980000))((0.015000 0.985000)(0.020000 0.980000))))((((1.0 0.0)(1.0 0.0))((1.0 0.0)(1.0 0.0)))(((1.0 0.0)(1.0 0.0))((1.0 0.0)(1.0 0.0))))))((((((1.0 0.0)(1.0 0.0))((1.0 0.0)(1.0 0.0)))(((1.0 0.0)(1.0 0.0))((1.0 0.0)(1.0 0.0))))((((1.0 0.0)(1.0 0.0))((1.0 0.0)(1.0 0.0)))(((1.0 0.0)(1.0 0.0))((1.0 0.0)(1.0 0.0)))))(((((1.0 0.0)(1.0 0.0))((1.0 0.0)(1.0 0.0)))(((1.0 0.0)(1.0 0.0))((1.0 0.0)(1.0 0.0))))((((1.0 0.0)(1.0 0.0))((1.0 0.0)(1.0 0.0)))(((1.0 0.0)(1.0 0.0))((1.0 0.0)(1.0 0.0)))))))(((((((1.0 0.0)(1.0 0.0))((1.0 0.0)(1.0 0.0)))(((1.0 0.0)(1.0 0.0))((1.0 0.0)(1.0 0.0))))((((1.0 0.0)(1.0 0.0))((1.0 0.0)(1.0 0.0)))(((1.0 0.0)(1.0 0.0))((1.0 0.0)(1.0 0.0)))))(((((1.0 0.0)(1.0 0.0))((1.0 0.0)(1.0 0.0)))(((1.0 0.0)(1.0 0.0))((1.0 0.0)(1.0 0.0))))((((1.0 0.0)(1.0 0.0))((1.0 0.0)(1.0 0.0)))(((1.0 0.0)(1.0 0.0))((1.0 0.0)(1.0 0.0))))))((((((1.0 0.0)(1.0 0.0))((1.0 0.0)(1.0 0.0)))(((1.0 0.0)(1.0 0.0))((1.0 0.0)(1.0 0.0))))((((1.0 0.0)(1.0 0.0))((1.0 0.0)(1.0 0.0)))(((1.0 0.0)(1.0 0.0))((1.0 0.0)(1.0 0.0)))))(((((1.0 0.0)(1.0 0.0))((1.0 0.0)(1.0 0.0)))(((1.0 0.0)(1.0 0.0))((1.0 0.0)(1.0 0.0))))((((1.0 0.0)(1.0 0.0))((1.0 0.0)(1.0 0.0)))(((1.0 0.0)(1.0 0.0))((1.0 0.0)(1.0 0.0))))))))((((((((1.0 0.0)(1.0 0.0))((1.0 0.0)(1.0 0.0)))(((1.0 0.0)(1.0 0.0))((1.0 0.0)(1.0 0.0))))((((1.0 0.0)(1.0 0.0))((1.0 0.0)(1.0 0.0)))(((1.0 0.0)(1.0 0.0))((1.0 0.0)(1.0 0.0)))))(((((1.0 0.0)(1.0 0.0))((1.0 0.0)(1.0 0.0)))(((1.0 0.0)(1.0 0.0))((1.0 0.0)(1.0 0.0))))((((1.0 0.0)(1.0 0.0))((1.0 0.0)(1.0 0.0)))(((1.0 0.0)(1.0 0.0))((1.0 0.0)(1.0 0.0))))))((((((1.0 0.0)(1.0 0.0))((1.0 0.0)(1.0 0.0)))(((1.0 0.0)(1.0 0.0))((1.0 0.0)(1.0 0.0))))((((1.0 0.0)(1.0 0.0))((1.0 0.0)(1.0 0.0)))(((1.0 0.0)(1.0 0.0))((1.0 0.0)(1.0 0.0)))))(((((1.0 0.0)(1.0 0.0))((1.0 0.0)(1.0 0.0)))(((1.0 0.0)(1.0 0.0))((1.0 0.0)(1.0 0.0))))((((1.0 0.0)(1.0 0.0))((1.0 0.0)(1.0 0.0)))(((1.0 0.0)(1.0 0.0))((1.0 0.0)(1.0 0.0)))))))(((((((1.0 0.0)(1.0 0.0))((1.0 0.0)(1.0 0.0)))(((1.0 0.0)(1.0 0.0))((1.0 0.0)(1.0 0.0))))((((1.0 0.0)(1.0 0.0))((1.0 0.0)(1.0 0.0)))(((1.0 0.0)(1.0 0.0))((1.0 0.0)(1.0 0.0)))))(((((1.0 0.0)(1.0 0.0))((1.0 0.0)(1.0 0.0)))(((1.0 0.0)(1.0 0.0))((1.0 0.0)(1.0 0.0))))((((1.0 0.0)(1.0 0.0))((1.0 0.0)(1.0 0.0)))(((1.0 0.0)(1.0 0.0))((1.0 0.0)(1.0 0.0))))))((((((1.0 0.0)(1.0 0.0))((1.0 0.0)(1.0 0.0)))(((1.0 0.0)(1.0 0.0))((1.0 0.0)(1.0 0.0))))((((1.0 0.0)(1.0 0.0))((1.0 0.0)(1.0 0.0)))(((1.0 0.0)(1.0 0.0))((1.0 0.0)(1.0 0.0)))))(((((1.0 0.0)(1.0 0.0))((1.0 0.0)(1.0 0.0)))(((1.0 0.0)(1.0 0.0))((1.0 0.0)(1.0 0.0))))((((1.0 0.0)(1.0 0.0))((1.0 0.0)(1.0 0.0)))(((1.0 0.0)(1.0 0.0))((1.0 0.0)(1.0 0.0)))))))))(((((((((1.0 0.0)(1.0 0.0))((1.0 0.0)(1.0 0.0)))(((1.0 0.0)(1.0 0.0))((1.0 0.0)(1.0 0.0))))((((1.0 0.0)(1.0 0.0))((1.0 0.0)(1.0 0.0)))(((1.0 0.0)(1.0 0.0))((1.0 0.0)(1.0 0.0)))))(((((1.0 0.0)(1.0 0.0))((1.0 0.0)(1.0 0.0)))(((1.0 0.0)(1.0 0.0))((1.0 0.0)(1.0 0.0))))((((1.0 0.0)(1.0 0.0))((1.0 0.0)(1.0 0.0)))(((1.0 0.0)(1.0 0.0))((1.0 0.0)(1.0 0.0))))))((((((1.0 0.0)(1.0 0.0))((1.0 0.0)(1.0 0.0)))(((1.0 0.0)(1.0 0.0))((1.0 0.0)(1.0 0.0))))((((1.0 0.0)(1.0 0.0))((1.0 0.0)(1.0 0.0)))(((1.0 0.0)(1.0 0.0))((1.0 0.0)(1.0 0.0)))))(((((1.0 0.0)(1.0 0.0))((1.0 0.0)(1.0 0.0)))(((1.0 0.0)(1.0 0.0))((1.0 0.0)(1.0 0.0))))((((1.0 0.0)(1.0 0.0))((1.0 0.0)(1.0 0.0)))(((1.0 0.0)(1.0 0.0))((1.0 0.0)(1.0 0.0)))))))(((((((1.0 0.0)(1.0 0.0))((1.0 0.0)(1.0 0.0)))(((1.0 0.0)(1.0 0.0))((1.0 0.0)(1.0 0.0))))((((1.0 0.0)(1.0 0.0))((1.0 0.0)(1.0 0.0)))(((1.0 0.0)(1.0 0.0))((1.0 0.0)(1.0 0.0)))))(((((1.0 0.0)(1.0 0.0))((1.0 0.0)(1.0 0.0)))(((1.0 0.0)(1.0 0.0))((1.0 0.0)(1.0 0.0))))((((1.0 0.0)(1.0 0.0))((1.0 0.0)(1.0 0.0)))(((1.0 0.0)(1.0 0.0))((1.0 0.0)(1.0 0.0))))))((((((1.0 0.0)(1.0 0.0))((1.0 0.0)(1.0 0.0)))(((1.0 0.0)(1.0 0.0))((1.0 0.0)(1.0 0.0))))((((1.0 0.0)(1.0 0.0))((1.0 0.0)(1.0 0.0)))(((1.0 0.0)(1.0 0.0))((1.0 0.0)(1.0 0.0)))))(((((1.0 0.0)(1.0 0.0))((1.0 0.0)(1.0 0.0)))(((1.0 0.0)(1.0 0.0))((1.0 0.0)(1.0 0.0))))((((1.0 0.0)(1.0 0.0))((1.0 0.0)(1.0 0.0)))(((1.0 0.0)(1.0 0.0))((1.0 0.0)(1.0 0.0))))))))((((((((1.0 0.0)(1.0 0.0))((1.0 0.0)(1.0 0.0)))(((1.0 0.0)(1.0 0.0))((1.0 0.0)(1.0 0.0))))((((1.0 0.0)(1.0 0.0))((1.0 0.0)(1.0 0.0)))(((1.0 0.0)(1.0 0.0))((1.0 0.0)(1.0 0.0)))))(((((1.0 0.0)(1.0 0.0))((1.0 0.0)(1.0 0.0)))(((1.0 0.0)(1.0 0.0))((1.0 0.0)(1.0 0.0))))((((1.0 0.0)(1.0 0.0))((1.0 0.0)(1.0 0.0)))(((1.0 0.0)(1.0 0.0))((1.0 0.0)(1.0 0.0))))))((((((1.0 0.0)(1.0 0.0))((1.0 0.0)(1.0 0.0)))(((1.0 0.0)(1.0 0.0))((1.0 0.0)(1.0 0.0))))((((1.0 0.0)(1.0 0.0))((1.0 0.0)(1.0 0.0)))(((1.0 0.0)(1.0 0.0))((1.0 0.0)(1.0 0.0)))))(((((1.0 0.0)(1.0 0.0))((1.0 0.0)(1.0 0.0)))(((1.0 0.0)(1.0 0.0))((1.0 0.0)(1.0 0.0))))((((1.0 0.0)(1.0 0.0))((1.0 0.0)(1.0 0.0)))(((1.0 0.0)(1.0 0.0))((1.0 0.0)(1.0 0.0)))))))(((((((1.0 0.0)(1.0 0.0))((1.0 0.0)(1.0 0.0)))(((1.0 0.0)(1.0 0.0))((1.0 0.0)(1.0 0.0))))((((1.0 0.0)(1.0 0.0))((1.0 0.0)(1.0 0.0)))(((1.0 0.0)(1.0 0.0))((1.0 0.0)(1.0 0.0)))))(((((1.0 0.0)(1.0 0.0))((1.0 0.0)(1.0 0.0)))(((1.0 0.0)(1.0 0.0))((1.0 0.0)(1.0 0.0))))((((1.0 0.0)(1.0 0.0))((1.0 0.0)(1.0 0.0)))(((1.0 0.0)(1.0 0.0))((1.0 0.0)(1.0 0.0))))))((((((1.0 0.0)(1.0 0.0))((1.0 0.0)(1.0 0.0)))(((1.0 0.0)(1.0 0.0))((1.0 0.0)(1.0 0.0))))((((1.0 0.0)(1.0 0.0))((1.0 0.0)(1.0 0.0)))(((1.0 0.0)(1.0 0.0))((1.0 0.0)(1.0 0.0)))))(((((1.0 0.0)(1.0 0.0))((1.0 0.0)(1.0 0.0)))(((1.0 0.0)(1.0 0.0))((1.0 0.0)(1.0 0.0))))((((1.0 0.0)(1.0 0.0))((1.0 0.0)(1.0 0.0)))(((1.0 0.0)(1.0 0.0))((1.0 0.0)(1.0 0.0)))))))))) ;
}
potential ( Accident_Mild | DrivQuality_Poor DrivQuality_Normal DrivQuality_Excellent Mileage_FiveThou Mileage_TwentyThou Mileage_FiftyThou Mileage_Domino Antilock_True Antilock_False Accident_None  )
{
	data = (((((((((((0.333333 0.666667)(1.0 0.0))((0.500000 0.500000)(1.0 0.0)))(((0.500000 0.500000)(1.0 0.0))((0.714286 0.285714)(1.0 0.0))))((((0.571429 0.428571)(1.0 0.0))((0.750000 0.250000)(1.0 0.0)))(((0.750000 0.250000)(1.0 0.0))((0.888889 0.111111)(1.0 0.0)))))(((((0.300000 0.700000)(1.0 0.0))((0.500000 0.500000)(1.0 0.0)))(((0.500000 0.500000)(1.0 0.0))((0.500000 0.500000)(1.0 0.0))))((((0.333333 0.666667)(1.0 0.0))((0.400000 0.600000)(1.0 0.0)))(((0.400000 0.600000)(1.0 0.0))((0.500000 0.500000)(1.0 0.0))))))((((((0.300000 0.700000)(1.0 0.0))((0.400000 0.600000)(1.0 0.0)))(((0.400000 0.600000)(1.0 0.0))((0.300000 0.700000)(1.0 0.0))))((((0.300000 0.700000)(1.0 0.0))((0.500000 0.500000)(1.0 0.0)))(((0.333333 0.666667)(1.0 0.0))((0.500000 0.500000)(1.0 0.0)))))(((((1.0 0.0)(1.0 0.0))((1.0 0.0)(1.0 0.0)))(((1.0 0.0)(1.0 0.0))((1.0 0.0)(1.0 0.0))))((((1.0 0.0)(1.0 0.0))((1.0 0.0)(1.0 0.0)))(((1.0 0.0)(1.0 0.0))((1.0 0.0)(1.0 0.0)))))))(((((((1.0 0.0)(1.0 0.0))((1.0 0.0)(1.0 0.0)))(((1.0 0.0)(1.0 0.0))((1.0 0.0)(1.0 0.0))))((((1.0 0.0)(1.0 0.0))((1.0 0.0)(1.0 0.0)))(((1.0 0.0)(1.0 0.0))((1.0 0.0)(1.0 0.0)))))(((((1.0 0.0)(1.0 0.0))((1.0 0.0)(1.0 0.0)))(((1.0 0.0)(1.0 0.0))((1.0 0.0)(1.0 0.0))))((((1.0 0.0)(1.0 0.0))((1.0 0.0)(1.0 0.0)))(((1.0 0.0)(1.0 0.0))((1.0 0.0)(1.0 0.0))))))((((((1.0 0.0)(1.0 0.0))((1.0 0.0)(1.0 0.0)))(((1.0 0.0)(1.0 0.0))((1.0 0.0)(1.0 0.0))))((((1.0 0.0)(1.0 0.0))((1.0 0.0)(1.0 0.0)))(((1.0 0.0)(1.0 0.0))((1.0 0.0)(1.0 0.0)))))(((((1.0 0.0)(1.0 0.0))((1.0 0.0)(1.0 0.0)))(((1.0 0.0)(1.0 0.0))((1.0 0.0)(1.0 0.0))))((((1.0 0.0)(1.0 0.0))((1.0 0.0)(1.0 0.0)))(((1.0 0.0)(1.0 0.0))((1.0 0.0)(1.0 0.0))))))))((((((((1.0 0.0)(1.0 0.0))((1.0 0.0)(1.0 0.0)))(((1.0 0.0)(1.0 0.0))((1.0 0.0)(1.0 0.0))))((((1.0 0.0)(1.0 0.0))((1.0 0.0)(1.0 0.0)))(((1.0 0.0)(1.0 0.0))((1.0 0.0)(1.0 0.0)))))(((((1.0 0.0)(1.0 0.0))((1.0 0.0)(1.0 0.0)))(((1.0 0.0)(1.0 0.0))((1.0 0.0)(1.0 0.0))))((((1.0 0.0)(1.0 0.0))((1.0 0.0)(1.0 0.0)))(((1.0 0.0)(1.0 0.0))((1.0 0.0)(1.0 0.0))))))((((((1.0 0.0)(1.0 0.0))((1.0 0.0)(1.0 0.0)))(((1.0 0.0)(1.0 0.0))((1.0 0.0)(1.0 0.0))))((((1.0 0.0)(1.0 0.0))((1.0 0.0)(1.0 0.0)))(((1.0 0.0)(1.0 0.0))((1.0 0.0)(1.0 0.0)))))(((((1.0 0.0)(1.0 0.0))((1.0 0.0)(1.0 0.0)))(((1.0 0.0)(1.0 0.0))((1.0 0.0)(1.0 0.0))))((((1.0 0.0)(1.0 0.0))((1.0 0.0)(1.0 0.0)))(((1.0 0.0)(1.0 0.0))((1.0 0.0)(1.0 0.0)))))))(((((((1.0 0.0)(1.0 0.0))((1.0 0.0)(1.0 0.0)))(((1.0 0.0)(1.0 0.0))((1.0 0.0)(1.0 0.0))))((((1.0 0.0)(1.0 0.0))((1.0 0.0)(1.0 0.0)))(((1.0 0.0)(1.0 0.0))((1.0 0.0)(1.0 0.0)))))(((((1.0 0.0)(1.0 0.0))((1.0 0.0)(1.0 0.0)))(((1.0 0.0)(1.0 0.0))((1.0 0.0)(1.0 0.0))))((((1.0 0.0)(1.0 0.0))((1.0 0.0)(1.0 0.0)))(((1.0 0.0)(1.0 0.0))((1.0 0.0)(1.0 0.0))))))((((((1.0 0.0)(1.0 0.0))((1.0 0.0)(1.0 0.0)))(((1.0 0.0)(1.0 0.0))((1.0 0.0)(1.0 0.0))))((((1.0 0.0)(1.0 0.0))((1.0 0.0)(1.0 0.0)))(((1.0 0.0)(1.0 0.0))((1.0 0.0)(1.0 0.0)))))(((((1.0 0.0)(1.0 0.0))((1.0 0.0)(1.0 0.0)))(((1.0 0.0)(1.0 0.0))((1.0 0.0)(1.0 0.0))))((((1.0 0.0)(1.0 0.0))((1.0 0.0)(1.0 0.0)))(((1.0 0.0)(1.0 0.0))((1.0 0.0)(1.0 0.0)))))))))(((((((((1.0 0.0)(1.0 0.0))((1.0 0.0)(1.0 0.0)))(((1.0 0.0)(1.0 0.0))((1.0 0.0)(1.0 0.0))))((((1.0 0.0)(1.0 0.0))((1.0 0.0)(1.0 0.0)))(((1.0 0.0)(1.0 0.0))((1.0 0.0)(1.0 0.0)))))(((((1.0 0.0)(1.0 0.0))((1.0 0.0)(1.0 0.0)))(((1.0 0.0)(1.0 0.0))((1.0 0.0)(1.0 0.0))))((((1.0 0.0)(1.0 0.0))((1.0 0.0)(1.0 0.0)))(((1.0 0.0)(1.0 0.0))((1.0 0.0)(1.0 0.0))))))((((((1.0 0.0)(1.0 0.0))((1.0 0.0)(1.0 0.0)))(((1.0 0.0)(1.0 0.0))((1.0 0.0)(1.0 0.0))))((((1.0 0.0)(1.0 0.0))((1.0 0.0)(1.0 0.0)))(((1.0 0.0)(1.0 0.0))((1.0 0.0)(1.0 0.0)))))(((((1.0 0.0)(1.0 0.0))((1.0 0.0)(1.0 0.0)))(((1.0 0.0)(1.0 0.0))((1.0 0.0)(1.0 0.0))))((((1.0 0.0)(1.0 0.0))((1.0 0.0)(1.0 0.0)))(((1.0 0.0)(1.0 0.0))((1.0 0.0)(1.0 0.0)))))))(((((((1.0 0.0)(1.0 0.0))((1.0 0.0)(1.0 0.0)))(((1.0 0.0)(1.0 0.0))((1.0 0.0)(1.0 0.0))))((((1.0 0.0)(1.0 0.0))((1.0 0.0)(1.0 0.0)))(((1.0 0.0)(1.0 0.0))((1.0 0.0)(1.0 0.0)))))(((((1.0 0.0)(1.0 0.0))((1.0 0.0)(1.0 0.0)))(((1.0 0.0)(1.0 0.0))((1.0 0.0)(1.0 0.0))))((((1.0 0.0)(1.0 0.0))((1.0 0.0)(1.0 0.0)))(((1.0 0.0)(1.0 0.0))((1.0 0.0)(1.0 0.0))))))((((((1.0 0.0)(1.0 0.0))((1.0 0.0)(1.0 0.0)))(((1.0 0.0)(1.0 0.0))((1.0 0.0)(1.0 0.0))))((((1.0 0.0)(1.0 0.0))((1.0 0.0)(1.0 0.0)))(((1.0 0.0)(1.0 0.0))((1.0 0.0)(1.0 0.0)))))(((((1.0 0.0)(1.0 0.0))((1.0 0.0)(1.0 0.0)))(((1.0 0.0)(1.0 0.0))((1.0 0.0)(1.0 0.0))))((((1.0 0.0)(1.0 0.0))((1.0 0.0)(1.0 0.0)))(((1.0 0.0)(1.0 0.0))((1.0 0.0)(1.0 0.0))))))))((((((((1.0 0.0)(1.0 0.0))((1.0 0.0)(1.0 0.0)))(((1.0 0.0)(1.0 0.0))((1.0 0.0)(1.0 0.0))))((((1.0 0.0)(1.0 0.0))((1.0 0.0)(1.0 0.0)))(((1.0 0.0)(1.0 0.0))((1.0 0.0)(1.0 0.0)))))(((((1.0 0.0)(1.0 0.0))((1.0 0.0)(1.0 0.0)))(((1.0 0.0)(1.0 0.0))((1.0 0.0)(1.0 0.0))))((((1.0 0.0)(1.0 0.0))((1.0 0.0)(1.0 0.0)))(((1.0 0.0)(1.0 0.0))((1.0 0.0)(1.0 0.0))))))((((((1.0 0.0)(1.0 0.0))((1.0 0.0)(1.0 0.0)))(((1.0 0.0)(1.0 0.0))((1.0 0.0)(1.0 0.0))))((((1.0 0.0)(1.0 0.0))((1.0 0.0)(1.0 0.0)))(((1.0 0.0)(1.0 0.0))((1.0 0.0)(1.0 0.0)))))(((((1.0 0.0)(1.0 0.0))((1.0 0.0)(1.0 0.0)))(((1.0 0.0)(1.0 0.0))((1.0 0.0)(1.0 0.0))))((((1.0 0.0)(1.0 0.0))((1.0 0.0)(1.0 0.0)))(((1.0 0.0)(1.0 0.0))((1.0 0.0)(1.0 0.0)))))))(((((((1.0 0.0)(1.0 0.0))((1.0 0.0)(1.0 0.0)))(((1.0 0.0)(1.0 0.0))((1.0 0.0)(1.0 0.0))))((((1.0 0.0)(1.0 0.0))((1.0 0.0)(1.0 0.0)))(((1.0 0.0)(1.0 0.0))((1.0 0.0)(1.0 0.0)))))(((((1.0 0.0)(1.0 0.0))((1.0 0.0)(1.0 0.0)))(((1.0 0.0)(1.0 0.0))((1.0 0.0)(1.0 0.0))))((((1.0 0.0)(1.0 0.0))((1.0 0.0)(1.0 0.0)))(((1.0 0.0)(1.0 0.0))((1.0 0.0)(1.0 0.0))))))((((((1.0 0.0)(1.0 0.0))((1.0 0.0)(1.0 0.0)))(((1.0 0.0)(1.0 0.0))((1.0 0.0)(1.0 0.0))))((((1.0 0.0)(1.0 0.0))((1.0 0.0)(1.0 0.0)))(((1.0 0.0)(1.0 0.0))((1.0 0.0)(1.0 0.0)))))(((((1.0 0.0)(1.0 0.0))((1.0 0.0)(1.0 0.0)))(((1.0 0.0)(1.0 0.0))((1.0 0.0)(1.0 0.0))))((((1.0 0.0)(1.0 0.0))((1.0 0.0)(1.0 0.0)))(((1.0 0.0)(1.0 0.0))((1.0 0.0)(1.0 0.0))))))))))((((((((((1.0 0.0)(1.0 0.0))((1.0 0.0)(1.0 0.0)))(((1.0 0.0)(1.0 0.0))((1.0 0.0)(1.0 0.0))))((((1.0 0.0)(1.0 0.0))((1.0 0.0)(1.0 0.0)))(((1.0 0.0)(1.0 0.0))((1.0 0.0)(1.0 0.0)))))(((((1.0 0.0)(1.0 0.0))((1.0 0.0)(1.0 0.0)))(((1.0 0.0)(1.0 0.0))((1.0 0.0)(1.0 0.0))))((((1.0 0.0)(1.0 0.0))((1.0 0.0)(1.0 0.0)))(((1.0 0.0)(1.0 0.0))((1.0 0.0)(1.0 0.0))))))((((((1.0 0.0)(1.0 0.0))((1.0 0.0)(1.0 0.0)))(((1.0 0.0)(1.0 0.0))((1.0 0.0)(1.0 0.0))))((((1.0 0.0)(1.0 0.0))((1.0 0.0)(1.0 0.0)))(((1.0 0.0)(1.0 0.0))((1.0 0.0)(1.0 0.0)))))(((((1.0 0.0)(1.0 0.0))((1.0 0.0)(1.0 0.0)))(((1.0 0.0)(1.0 0.0))((1.0 0.0)(1.0 0.0))))((((1.0 0.0)(1.0 0.0))((1.0 0.0)(1.0 0.0)))(((1.0 0.0)(1.0 0.0))((1.0 0.0)(1.0 0.0)))))))(((((((1.0 0.0)(1.0 0.0))((1.0 0.0)(1.0 0.0)))(((1.0 0.0)(1.0 0.0))((1.0 0.0)(1.0 0.0))))((((1.0 0.0)(1.0 0.0))((1.0 0.0)(1.0 0.0)))(((1.0 0.0)(1.0 0.0))((1.0 0.0)(1.0 0.0)))))(((((1.0 0.0)(1.0 0.0))((1.0 0.0)(1.0 0.0)))(((1.0 0.0)(1.0 0.0))((1.0 0.0)(1.0 0.0))))((((1.0 0.0)(1.0 0.0))((1.0 0.0)(1.0 0.0)))(((1.0 0.0)(1.0 0.0))((1.0 0.0)(1.0 0.0))))))((((((1.0 0.0)(1.0 0.0))((1.0 0.0)(1.0 0.0)))(((1.0 0.0)(1.0 0.0))((1.0 0.0)(1.0 0.0))))((((1.0 0.0)(1.0 0.0))((1.0 0.0)(1.0 0.0)))(((1.0 0.0)(1.0 0.0))((1.0 0.0)(1.0 0.0)))))(((((1.0 0.0)(1.0 0.0))((1.0 0.0)(1.0 0.0)))(((1.0 0.0)(1.0 0.0))((1.0 0.0)(1.0 0.0))))((((1.0 0.0)(1.0 0.0))((1.0 0.0)(1.0 0.0)))(((1.0 0.0)(1.0 0.0))((1.0 0.0)(1.0 0.0))))))))((((((((1.0 0.0)(1.0 0.0))((1.0 0.0)(1.0 0.0)))(((1.0 0.0)(1.0 0.0))((1.0 0.0)(1.0 0.0))))((((1.0 0.0)(1.0 0.0))((1.0 0.0)(1.0 0.0)))(((1.0 0.0)(1.0 0.0))((1.0 0.0)(1.0 0.0)))))(((((1.0 0.0)(1.0 0.0))((1.0 0.0)(1.0 0.0)))(((1.0 0.0)(1.0 0.0))((1.0 0.0)(1.0 0.0))))((((1.0 0.0)(1.0 0.0))((1.0 0.0)(1.0 0.0)))(((1.0 0.0)(1.0 0.0))((1.0 0.0)(1.0 0.0))))))((((((1.0 0.0)(1.0 0.0))((1.0 0.0)(1.0 0.0)))(((1.0 0.0)(1.0 0.0))((1.0 0.0)(1.0 0.0))))((((1.0 0.0)(1.0 0.0))((1.0 0.0)(1.0 0.0)))(((1.0 0.0)(1.0 0.0))((1.0 0.0)(1.0 0.0)))))(((((1.0 0.0)(1.0 0.0))((1.0 0.0)(1.0 0.0)))(((1.0 0.0)(1.0 0.0))((1.0 0.0)(1.0 0.0))))((((1.0 0.0)(1.0 0.0))((1.0 0.0)(1.0 0.0)))(((1.0 0.0)(1.0 0.0))((1.0 0.0)(1.0 0.0)))))))(((((((1.0 0.0)(1.0 0.0))((1.0 0.0)(1.0 0.0)))(((1.0 0.0)(1.0 0.0))((1.0 0.0)(1.0 0.0))))((((1.0 0.0)(1.0 0.0))((1.0 0.0)(1.0 0.0)))(((1.0 0.0)(1.0 0.0))((1.0 0.0)(1.0 0.0)))))(((((1.0 0.0)(1.0 0.0))((1.0 0.0)(1.0 0.0)))(((1.0 0.0)(1.0 0.0))((1.0 0.0)(1.0 0.0))))((((1.0 0.0)(1.0 0.0))((1.0 0.0)(1.0 0.0)))(((1.0 0.0)(1.0 0.0))((1.0 0.0)(1.0 0.0))))))((((((1.0 0.0)(1.0 0.0))((1.0 0.0)(1.0 0.0)))(((1.0 0.0)(1.0 0.0))((1.0 0.0)(1.0 0.0))))((((1.0 0.0)(1.0 0.0))((1.0 0.0)(1.0 0.0)))(((1.0 0.0)(1.0 0.0))((1.0 0.0)(1.0 0.0)))))(((((1.0 0.0)(1.0 0.0))((1.0 0.0)(1.0 0.0)))(((1.0 0.0)(1.0 0.0))((1.0 0.0)(1.0 0.0))))((((1.0 0.0)(1.0 0.0))((1.0 0.0)(1.0 0.0)))(((1.0 0.0)(1.0 0.0))((1.0 0.0)(1.0 0.0)))))))))(((((((((1.0 0.0)(1.0 0.0))((1.0 0.0)(1.0 0.0)))(((1.0 0.0)(1.0 0.0))((1.0 0.0)(1.0 0.0))))((((1.0 0.0)(1.0 0.0))((1.0 0.0)(1.0 0.0)))(((1.0 0.0)(1.0 0.0))((1.0 0.0)(1.0 0.0)))))(((((1.0 0.0)(1.0 0.0))((1.0 0.0)(1.0 0.0)))(((1.0 0.0)(1.0 0.0))((1.0 0.0)(1.0 0.0))))((((1.0 0.0)(1.0 0.0))((1.0 0.0)(1.0 0.0)))(((1.0 0.0)(1.0 0.0))((1.0 0.0)(1.0 0.0))))))((((((1.0 0.0)(1.0 0.0))((1.0 0.0)(1.0 0.0)))(((1.0 0.0)(1.0 0.0))((1.0 0.0)(1.0 0.0))))((((1.0 0.0)(1.0 0.0))((1.0 0.0)(1.0 0.0)))(((1.0 0.0)(1.0 0.0))((1.0 0.0)(1.0 0.0)))))(((((1.0 0.0)(1.0 0.0))((1.0 0.0)(1.0 0.0)))(((1.0 0.0)(1.0 0.0))((1.0 0.0)(1.0 0.0))))((((1.0 0.0)(1.0 0.0))((1.0 0.0)(1.0 0.0)))(((1.0 0.0)(1.0 0.0))((1.0 0.0)(1.0 0.0)))))))(((((((1.0 0.0)(1.0 0.0))((1.0 0.0)(1.0 0.0)))(((1.0 0.0)(1.0 0.0))((1.0 0.0)(1.0 0.0))))((((1.0 0.0)(1.0 0.0))((1.0 0.0)(1.0 0.0)))(((1.0 0.0)(1.0 0.0))((1.0 0.0)(1.0 0.0)))))(((((1.0 0.0)(1.0 0.0))((1.0 0.0)(1.0 0.0)))(((1.0 0.0)(1.0 0.0))((1.0 0.0)(1.0 0.0))))((((1.0 0.0)(1.0 0.0))((1.0 0.0)(1.0 0.0)))(((1.0 0.0)(1.0 0.0))((1.0 0.0)(1.0 0.0))))))((((((1.0 0.0)(1.0 0.0))((1.0 0.0)(1.0 0.0)))(((1.0 0.0)(1.0 0.0))((1.0 0.0)(1.0 0.0))))((((1.0 0.0)(1.0 0.0))((1.0 0.0)(1.0 0.0)))(((1.0 0.0)(1.0 0.0))((1.0 0.0)(1.0 0.0)))))(((((1.0 0.0)(1.0 0.0))((1.0 0.0)(1.0 0.0)))(((1.0 0.0)(1.0 0.0))((1.0 0.0)(1.0 0.0))))((((1.0 0.0)(1.0 0.0))((1.0 0.0)(1.0 0.0)))(((1.0 0.0)(1.0 0.0))((1.0 0.0)(1.0 0.0))))))))((((((((1.0 0.0)(1.0 0.0))((1.0 0.0)(1.0 0.0)))(((1.0 0.0)(1.0 0.0))((1.0 0.0)(1.0 0.0))))((((1.0 0.0)(1.0 0.0))((1.0 0.0)(1.0 0.0)))(((1.0 0.0)(1.0 0.0))((1.0 0.0)(1.0 0.0)))))(((((1.0 0.0)(1.0 0.0))((1.0 0.0)(1.0 0.0)))(((1.0 0.0)(1.0 0.0))((1.0 0.0)(1.0 0.0))))((((1.0 0.0)(1.0 0.0))((1.0 0.0)(1.0 0.0)))(((1.0 0.0)(1.0 0.0))((1.0 0.0)(1.0 0.0))))))((((((1.0 0.0)(1.0 0.0))((1.0 0.0)(1.0 0.0)))(((1.0 0.0)(1.0 0.0))((1.0 0.0)(1.0 0.0))))((((1.0 0.0)(1.0 0.0))((1.0 0.0)(1.0 0.0)))(((1.0 0.0)(1.0 0.0))((1.0 0.0)(1.0 0.0)))))(((((1.0 0.0)(1.0 0.0))((1.0 0.0)(1.0 0.0)))(((1.0 0.0)(1.0 0.0))((1.0 0.0)(1.0 0.0))))((((1.0 0.0)(1.0 0.0))((1.0 0.0)(1.0 0.0)))(((1.0 0.0)(1.0 0.0))((1.0 0.0)(1.0 0.0)))))))(((((((1.0 0.0)(1.0 0.0))((1.0 0.0)(1.0 0.0)))(((1.0 0.0)(1.0 0.0))((1.0 0.0)(1.0 0.0))))((((1.0 0.0)(1.0 0.0))((1.0 0.0)(1.0 0.0)))(((1.0 0.0)(1.0 0.0))((1.0 0.0)(1.0 0.0)))))(((((1.0 0.0)(1.0 0.0))((1.0 0.0)(1.0 0.0)))(((1.0 0.0)(1.0 0.0))((1.0 0.0)(1.0 0.0))))((((1.0 0.0)(1.0 0.0))((1.0 0.0)(1.0 0.0)))(((1.0 0.0)(1.0 0.0))((1.0 0.0)(1.0 0.0))))))((((((1.0 0.0)(1.0 0.0))((1.0 0.0)(1.0 0.0)))(((1.0 0.0)(1.0 0.0))((1.0 0.0)(1.0 0.0))))((((1.0 0.0)(1.0 0.0))((1.0 0.0)(1.0 0.0)))(((1.0 0.0)(1.0 0.0))((1.0 0.0)(1.0 0.0)))))(((((1.0 0.0)(1.0 0.0))((1.0 0.0)(1.0 0.0)))(((1.0 0.0)(1.0 0.0))((1.0 0.0)(1.0 0.0))))((((1.0 0.0)(1.0 0.0))((1.0 0.0)(1.0 0.0)))(((1.0 0.0)(1.0 0.0))((1.0 0.0)(1.0 0.0))))))))))) ;
}
potential ( Accident_Moderate | DrivQuality_Poor DrivQuality_Normal DrivQuality_Excellent Mileage_FiveThou Mileage_TwentyThou Mileage_FiftyThou Mileage_Domino Antilock_True Antilock_False Accident_Mild  )
{
