net
{
}
node Akt_LOW
{
	states = ( "false" "true" );
}
node Akt_AVG
{
	states = ( "false" "true" );
}
node Akt_HIGH
{
	states = ( "false" "true" );
}
node Erk_LOW
{
	states = ( "false" "true" );
}
node Erk_AVG
{
	states = ( "false" "true" );
}
node Erk_HIGH
{
	states = ( "false" "true" );
}
node Jnk_LOW
{
	states = ( "false" "true" );
}
node Jnk_AVG
{
	states = ( "false" "true" );
}
node Jnk_HIGH
{
	states = ( "false" "true" );
}
node Mek_LOW
{
	states = ( "false" "true" );
}
node Mek_AVG
{
	states = ( "false" "true" );
}
node Mek_HIGH
{
	states = ( "false" "true" );
}
node P38_LOW
{
	states = ( "false" "true" );
}
node P38_AVG
{
	states = ( "false" "true" );
}
node P38_HIGH
{
	states = ( "false" "true" );
}
node PIP2_LOW
{
	states = ( "false" "true" );
}
node PIP2_AVG
{
	states = ( "false" "true" );
}
node PIP2_HIGH
{
	states = ( "false" "true" );
}
node PIP3_LOW
{
	states = ( "false" "true" );
}
node PIP3_AVG
{
	states = ( "false" "true" );
}
node PIP3_HIGH
{
	states = ( "false" "true" );
}
node PKA_LOW
{
	states = ( "false" "true" );
}
node PKA_AVG
{
	states = ( "false" "true" );
}
node PKA_HIGH
{
	states = ( "false" "true" );
}
node PKC_LOW
{
	states = ( "false" "true" );
}
node PKC_AVG
{
	states = ( "false" "true" );
}
node PKC_HIGH
{
	states = ( "false" "true" );
}
node Plcg_LOW
{
	states = ( "false" "true" );
}
node Plcg_AVG
{
	states = ( "false" "true" );
}
node Plcg_HIGH
{
	states = ( "false" "true" );
}
node Raf_LOW
{
	states = ( "false" "true" );
}
node Raf_AVG
{
	states = ( "false" "true" );
}
node Raf_HIGH
{
	states = ( "false" "true" );
}
potential ( PKC_LOW  )
{
	data = (0.576868 0.423132) ;
}
potential ( PKC_AVG | PKC_LOW  )
{
	data = ((0.165080 0.834920)(1.0 0.0)) ;
}
potential ( PKC_HIGH | PKC_AVG  )
{
	data = ((0.000000 1.000000)(1.0 0.0)) ;
}
potential ( PKA_LOW | PKC_LOW PKC_AVG PKC_HIGH  )
{
	data = ((((0.613575 0.386425)(0.939604 0.060396))((0.984230 0.015770)(1.0 0.0)))(((1.0 0.0)(1.0 0.0))((1.0 0.0)(1.0 0.0)))) ;
}
potential ( PKA_AVG | PKC_LOW PKC_AVG PKC_HIGH PKA_LOW  )
{
	data = (((((0.381617 0.618383)(1.0 0.0))((0.018047 0.981953)(1.0 0.0)))(((0.025900 0.974100)(1.0 0.0))((1.0 0.0)(1.0 0.0))))((((1.0 0.0)(1.0 0.0))((1.0 0.0)(1.0 0.0)))(((1.0 0.0)(1.0 0.0))((1.0 0.0)(1.0 0.0))))) ;
}
potential ( PKA_HIGH | PKC_LOW PKC_AVG PKC_HIGH PKA_AVG  )
{
	data = (((((0.000000 1.000000)(1.0 0.0))((0.000001 1.000001)(1.0 0.0)))(((0.000000 1.000000)(1.0 0.0))((1.0 0.0)(1.0 0.0))))((((1.0 0.0)(1.0 0.0))((1.0 0.0)(1.0 0.0)))(((1.0 0.0)(1.0 0.0))((1.0 0.0)(1.0 0.0))))) ;
}
potential ( Raf_LOW | PKC_LOW PKC_AVG PKC_HIGH PKA_LOW PKA_AVG PKA_HIGH  )
{
	data = (((((((0.937678 0.062322)(0.552494 0.447506))((0.157115 0.842885)(0.630599 0.369401)))(((0.449177 0.550823)(0.251050 0.748950))((0.132420 0.867580)(0.115743 0.884257))))((((0.158192 0.841808)(1.0 0.0))((1.0 0.0)(1.0 0.0)))(((1.0 0.0)(1.0 0.0))((1.0 0.0)(1.0 0.0)))))(((((1.0 0.0)(1.0 0.0))((1.0 0.0)(1.0 0.0)))(((1.0 0.0)(1.0 0.0))((1.0 0.0)(1.0 0.0))))((((1.0 0.0)(1.0 0.0))((1.0 0.0)(1.0 0.0)))(((1.0 0.0)(1.0 0.0))((1.0 0.0)(1.0 0.0))))))((((((1.0 0.0)(1.0 0.0))((1.0 0.0)(1.0 0.0)))(((1.0 0.0)(1.0 0.0))((1.0 0.0)(1.0 0.0))))((((1.0 0.0)(1.0 0.0))((1.0 0.0)(1.0 0.0)))(((1.0 0.0)(1.0 0.0))((1.0 0.0)(1.0 0.0)))))(((((1.0 0.0)(1.0 0.0))((1.0 0.0)(1.0 0.0)))(((1.0 0.0)(1.0 0.0))((1.0 0.0)(1.0 0.0))))((((1.0 0.0)(1.0 0.0))((1.0 0.0)(1.0 0.0)))(((1.0 0.0)(1.0 0.0))((1.0 0.0)(1.0 0.0))))))) ;
}
potential ( Raf_AVG | PKC_LOW PKC_AVG PKC_HIGH PKA_LOW PKA_AVG PKA_HIGH Raf_LOW  )
{
	data = ((((((((0.842964 0.157036)(1.0 0.0))((0.434248 0.565752)(1.0 0.0)))(((0.190749 0.809251)(1.0 0.0))((0.474766 0.525234)(1.0 0.0))))((((0.125258 0.874742)(1.0 0.0))((0.364548 0.635452)(1.0 0.0)))(((0.034483 0.965517)(1.0 0.0))((0.000649 0.999351)(1.0 0.0)))))(((((0.017857 0.982143)(1.0 0.0))((1.0 0.0)(1.0 0.0)))(((1.0 0.0)(1.0 0.0))((1.0 0.0)(1.0 0.0))))((((1.0 0.0)(1.0 0.0))((1.0 0.0)(1.0 0.0)))(((1.0 0.0)(1.0 0.0))((1.0 0.0)(1.0 0.0))))))((((((1.0 0.0)(1.0 0.0))((1.0 0.0)(1.0 0.0)))(((1.0 0.0)(1.0 0.0))((1.0 0.0)(1.0 0.0))))((((1.0 0.0)(1.0 0.0))((1.0 0.0)(1.0 0.0)))(((1.0 0.0)(1.0 0.0))((1.0 0.0)(1.0 0.0)))))(((((1.0 0.0)(1.0 0.0))((1.0 0.0)(1.0 0.0)))(((1.0 0.0)(1.0 0.0))((1.0 0.0)(1.0 0.0))))((((1.0 0.0)(1.0 0.0))((1.0 0.0)(1.0 0.0)))(((1.0 0.0)(1.0 0.0))((1.0 0.0)(1.0 0.0)))))))(((((((1.0 0.0)(1.0 0.0))((1.0 0.0)(1.0 0.0)))(((1.0 0.0)(1.0 0.0))((1.0 0.0)(1.0 0.0))))((((1.0 0.0)(1.0 0.0))((1.0 0.0)(1.0 0.0)))(((1.0 0.0)(1.0 0.0))((1.0 0.0)(1.0 0.0)))))(((((1.0 0.0)(1.0 0.0))((1.0 0.0)(1.0 0.0)))(((1.0 0.0)(1.0 0.0))((1.0 0.0)(1.0 0.0))))((((1.0 0.0)(1.0 0.0))((1.0 0.0)(1.0 0.0)))(((1.0 0.0)(1.0 0.0))((1.0 0.0)(1.0 0.0))))))((((((1.0 0.0)(1.0 0.0))((1.0 0.0)(1.0 0.0)))(((1.0 0.0)(1.0 0.0))((1.0 0.0)(1.0 0.0))))((((1.0 0.0)(1.0 0.0))((1.0 0.0)(1.0 0.0)))(((1.0 0.0)(1.0 0.0))((1.0 0.0)(1.0 0.0)))))(((((1.0 0.0)(1.0 0.0))((1.0 0.0)(1.0 0.0)))(((1.0 0.0)(1.0 0.0))((1.0 0.0)(1.0 0.0))))((((1.0 0.0)(1.0 0.0))((1.0 0.0)(1.0 0.0)))(((1.0 0.0)(1.0 0.0))((1.0 0.0)(1.0 0.0)))))))) ;
}
potential ( Raf_HIGH | PKC_LOW PKC_AVG PKC_HIGH PKA_LOW PKA_AVG PKA_HIGH Raf_AVG  )
{
	data = ((((((((0.000000 1.000000)(1.0 0.0))((0.000000 1.000000)(1.0 0.0)))(((0.000000 1.000000)(1.0 0.0))((0.000000 1.000000)(1.0 0.0))))((((0.000000 1.000000)(1.0 0.0))((0.000000 1.000000)(1.0 0.0)))(((0.000000 1.000000)(1.0 0.0))((0.000119 1.000119)(1.0 0.0)))))(((((0.000000 1.000000)(1.0 0.0))((1.0 0.0)(1.0 0.0)))(((1.0 0.0)(1.0 0.0))((1.0 0.0)(1.0 0.0))))((((1.0 0.0)(1.0 0.0))((1.0 0.0)(1.0 0.0)))(((1.0 0.0)(1.0 0.0))((1.0 0.0)(1.0 0.0))))))((((((1.0 0.0)(1.0 0.0))((1.0 0.0)(1.0 0.0)))(((1.0 0.0)(1.0 0.0))((1.0 0.0)(1.0 0.0))))((((1.0 0.0)(1.0 0.0))((1.0 0.0)(1.0 0.0)))(((1.0 0.0)(1.0 0.0))((1.0 0.0)(1.0 0.0)))))(((((1.0 0.0)(1.0 0.0))((1.0 0.0)(1.0 0.0)))(((1.0 0.0)(1.0 0.0))((1.0 0.0)(1.0 0.0))))((((1.0 0.0)(1.0 0.0))((1.0 0.0)(1.0 0.0)))(((1.0 0.0)(1.0 0.0))((1.0 0.0)(1.0 0.0)))))))(((((((1.0 0.0)(1.0 0.0))((1.0 0.0)(1.0 0.0)))(((1.0 0.0)(1.0 0.0))((1.0 0.0)(1.0 0.0))))((((1.0 0.0)(1.0 0.0))((1.0 0.0)(1.0 0.0)))(((1.0 0.0)(1.0 0.0))((1.0 0.0)(1.0 0.0)))))(((((1.0 0.0)(1.0 0.0))((1.0 0.0)(1.0 0.0)))(((1.0 0.0)(1.0 0.0))((1.0 0.0)(1.0 0.0))))((((1.0 0.0)(1.0 0.0))((1.0 0.0)(1.0 0.0)))(((1.0 0.0)(1.0 0.0))((1.0 0.0)(1.0 0.0))))))((((((1.0 0.0)(1.0 0.0))((1.0 0.0)(1.0 0.0)))(((1.0 0.0)(1.0 0.0))((1.0 0.0)(1.0 0.0))))((((1.0 0.0)(1.0 0.0))((1.0 0.0)(1.0 0.0)))(((1.0 0.0)(1.0 0.0))((1.0 0.0)(1.0 0.0)))))(((((1.0 0.0)(1.0 0.0))((1.0 0.0)(1.0 0.0)))(((1.0 0.0)(1.0 0.0))((1.0 0.0)(1.0 0.0))))((((1.0 0.0)(1.0 0.0))((1.0 0.0)(1.0 0.0)))(((1.0 0.0)(1.0 0.0))((1.0 0.0)(1.0 0.0)))))))) ;
}
potential ( Mek_LOW | Raf_LOW Raf_AVG Raf_HIGH PKC_LOW PKC_AVG PKC_HIGH PKA_LOW PKA_AVG PKA_HIGH  )
{
	data = ((((((((((0.254823 0.745177)(0.242309 0.757691))((0.002272 0.997728)(0.293342 0.706658)))(((0.285185 0.714815)(0.031016 0.968984))((0.145614 0.854386)(0.174354 0.825646))))((((0.274049 0.725951)(0.615399 0.384601))((0.656828 0.343172)(0.000363 0.999637)))(((0.730724 0.269276)(0.725342 0.274658))((0.145614 0.854386)(0.988095 0.011905)))))(((((0.894589 0.105411)(0.993939 0.006061))((0.737819 0.262181)(0.134710 0.865290)))(((0.063895 0.936105)(0.149344 0.850656))((0.718504 0.281496)(0.501529 0.498471))))((((0.666667 0.333333)(0.666667 0.333333))((0.666667 0.333333)(1.0 0.0)))(((1.0 0.0)(1.0 0.0))((1.0 0.0)(1.0 0.0))))))((((((1.0 0.0)(1.0 0.0))((1.0 0.0)(1.0 0.0)))(((1.0 0.0)(1.0 0.0))((1.0 0.0)(1.0 0.0))))((((1.0 0.0)(1.0 0.0))((1.0 0.0)(1.0 0.0)))(((1.0 0.0)(1.0 0.0))((1.0 0.0)(1.0 0.0)))))(((((1.0 0.0)(1.0 0.0))((1.0 0.0)(1.0 0.0)))(((1.0 0.0)(1.0 0.0))((1.0 0.0)(1.0 0.0))))((((1.0 0.0)(1.0 0.0))((1.0 0.0)(1.0 0.0)))(((1.0 0.0)(1.0 0.0))((1.0 0.0)(1.0 0.0)))))))(((((((1.0 0.0)(1.0 0.0))((1.0 0.0)(1.0 0.0)))(((1.0 0.0)(1.0 0.0))((1.0 0.0)(1.0 0.0))))((((1.0 0.0)(1.0 0.0))((1.0 0.0)(1.0 0.0)))(((1.0 0.0)(1.0 0.0))((1.0 0.0)(1.0 0.0)))))(((((1.0 0.0)(1.0 0.0))((1.0 0.0)(1.0 0.0)))(((1.0 0.0)(1.0 0.0))((1.0 0.0)(1.0 0.0))))((((1.0 0.0)(1.0 0.0))((1.0 0.0)(1.0 0.0)))(((1.0 0.0)(1.0 0.0))((1.0 0.0)(1.0 0.0))))))((((((1.0 0.0)(1.0 0.0))((1.0 0.0)(1.0 0.0)))(((1.0 0.0)(1.0 0.0))((1.0 0.0)(1.0 0.0))))((((1.0 0.0)(1.0 0.0))((1.0 0.0)(1.0 0.0)))(((1.0 0.0)(1.0 0.0))((1.0 0.0)(1.0 0.0)))))(((((1.0 0.0)(1.0 0.0))((1.0 0.0)(1.0 0.0)))(((1.0 0.0)(1.0 0.0))((1.0 0.0)(1.0 0.0))))((((1.0 0.0)(1.0 0.0))((1.0 0.0)(1.0 0.0)))(((1.0 0.0)(1.0 0.0))((1.0 0.0)(1.0 0.0))))))))((((((((1.0 0.0)(1.0 0.0))((1.0 0.0)(1.0 0.0)))(((1.0 0.0)(1.0 0.0))((1.0 0.0)(1.0 0.0))))((((1.0 0.0)(1.0 0.0))((1.0 0.0)(1.0 0.0)))(((1.0 0.0)(1.0 0.0))((1.0 0.0)(1.0 0.0)))))(((((1.0 0.0)(1.0 0.0))((1.0 0.0)(1.0 0.0)))(((1.0 0.0)(1.0 0.0))((1.0 0.0)(1.0 0.0))))((((1.0 0.0)(1.0 0.0))((1.0 0.0)(1.0 0.0)))(((1.0 0.0)(1.0 0.0))((1.0 0.0)(1.0 0.0))))))((((((1.0 0.0)(1.0 0.0))((1.0 0.0)(1.0 0.0)))(((1.0 0.0)(1.0 0.0))((1.0 0.0)(1.0 0.0))))((((1.0 0.0)(1.0 0.0))((1.0 0.0)(1.0 0.0)))(((1.0 0.0)(1.0 0.0))((1.0 0.0)(1.0 0.0)))))(((((1.0 0.0)(1.0 0.0))((1.0 0.0)(1.0 0.0)))(((1.0 0.0)(1.0 0.0))((1.0 0.0)(1.0 0.0))))((((1.0 0.0)(1.0 0.0))((1.0 0.0)(1.0 0.0)))(((1.0 0.0)(1.0 0.0))((1.0 0.0)(1.0 0.0)))))))(((((((1.0 0.0)(1.0 0.0))((1.0 0.0)(1.0 0.0)))(((1.0 0.0)(1.0 0.0))((1.0 0.0)(1.0 0.0))))((((1.0 0.0)(1.0 0.0))((1.0 0.0)(1.0 0.0)))(((1.0 0.0)(1.0 0.0))((1.0 0.0)(1.0 0.0)))))(((((1.0 0.0)(1.0 0.0))((1.0 0.0)(1.0 0.0)))(((1.0 0.0)(1.0 0.0))((1.0 0.0)(1.0 0.0))))((((1.0 0.0)(1.0 0.0))((1.0 0.0)(1.0 0.0)))(((1.0 0.0)(1.0 0.0))((1.0 0.0)(1.0 0.0))))))((((((1.0 0.0)(1.0 0.0))((1.0 0.0)(1.0 0.0)))(((1.0 0.0)(1.0 0.0))((1.0 0.0)(1.0 0.0))))((((1.0 0.0)(1.0 0.0))((1.0 0.0)(1.0 0.0)))(((1.0 0.0)(1.0 0.0))((1.0 0.0)(1.0 0.0)))))(((((1.0 0.0)(1.0 0.0))((1.0 0.0)(1.0 0.0)))(((1.0 0.0)(1.0 0.0))((1.0 0.0)(1.0 0.0))))((((1.0 0.0)(1.0 0.0))((1.0 0.0)(1.0 0.0)))(((1.0 0.0)(1.0 0.0))((1.0 0.0)(1.0 0.0)))))))))(((((((((1.0 0.0)(1.0 0.0))((1.0 0.0)(1.0 0.0)))(((1.0 0.0)(1.0 0.0))((1.0 0.0)(1.0 0.0))))((((1.0 0.0)(1.0 0.0))((1.0 0.0)(1.0 0.0)))(((1.0 0.0)(1.0 0.0))((1.0 0.0)(1.0 0.0)))))(((((1.0 0.0)(1.0 0.0))((1.0 0.0)(1.0 0.0)))(((1.0 0.0)(1.0 0.0))((1.0 0.0)(1.0 0.0))))((((1.0 0.0)(1.0 0.0))((1.0 0.0)(1.0 0.0)))(((1.0 0.0)(1.0 0.0))((1.0 0.0)(1.0 0.0))))))((((((1.0 0.0)(1.0 0.0))((1.0 0.0)(1.0 0.0)))(((1.0 0.0)(1.0 0.0))((1.0 0.0)(1.0 0.0))))((((1.0 0.0)(1.0 0.0))((1.0 0.0)(1.0 0.0)))(((1.0 0.0)(1.0 0.0))((1.0 0.0)(1.0 0.0)))))(((((1.0 0.0)(1.0 0.0))((1.0 0.0)(1.0 0.0)))(((1.0 0.0)(1.0 0.0))((1.0 0.0)(1.0 0.0))))((((1.0 0.0)(1.0 0.0))((1.0 0.0)(1.0 0.0)))(((1.0 0.0)(1.0 0.0))((1.0 0.0)(1.0 0.0)))))))(((((((1.0 0.0)(1.0 0.0))((1.0 0.0)(1.0 0.0)))(((1.0 0.0)(1.0 0.0))((1.0 0.0)(1.0 0.0))))((((1.0 0.0)(1.0 0.0))((1.0 0.0)(1.0 0.0)))(((1.0 0.0)(1.0 0.0))((1.0 0.0)(1.0 0.0)))))(((((1.0 0.0)(1.0 0.0))((1.0 0.0)(1.0 0.0)))(((1.0 0.0)(1.0 0.0))((1.0 0.0)(1.0 0.0))))((((1.0 0.0)(1.0 0.0))((1.0 0.0)(1.0 0.0)))(((1.0 0.0)(1.0 0.0))((1.0 0.0)(1.0 0.0))))))((((((1.0 0.0)(1.0 0.0))((1.0 0.0)(1.0 0.0)))(((1.0 0.0)(1.0 0.0))((1.0 0.0)(1.0 0.0))))((((1.0 0.0)(1.0 0.0))((1.0 0.0)(1.0 0.0)))(((1.0 0.0)(1.0 0.0))((1.0 0.0)(1.0 0.0)))))(((((1.0 0.0)(1.0 0.0))((1.0 0.0)(1.0 0.0)))(((1.0 0.0)(1.0 0.0))((1.0 0.0)(1.0 0.0))))((((1.0 0.0)(1.0 0.0))((1.0 0.0)(1.0 0.0)))(((1.0 0.0)(1.0 0.0))((1.0 0.0)(1.0 0.0))))))))((((((((1.0 0.0)(1.0 0.0))((1.0 0.0)(1.0 0.0)))(((1.0 0.0)(1.0 0.0))((1.0 0.0)(1.0 0.0))))((((1.0 0.0)(1.0 0.0))((1.0 0.0)(1.0 0.0)))(((1.0 0.0)(1.0 0.0))((1.0 0.0)(1.0 0.0)))))(((((1.0 0.0)(1.0 0.0))((1.0 0.0)(1.0 0.0)))(((1.0 0.0)(1.0 0.0))((1.0 0.0)(1.0 0.0))))((((1.0 0.0)(1.0 0.0))((1.0 0.0)(1.0 0.0)))(((1.0 0.0)(1.0 0.0))((1.0 0.0)(1.0 0.0))))))((((((1.0 0.0)(1.0 0.0))((1.0 0.0)(1.0 0.0)))(((1.0 0.0)(1.0 0.0))((1.0 0.0)(1.0 0.0))))((((1.0 0.0)(1.0 0.0))((1.0 0.0)(1.0 0.0)))(((1.0 0.0)(1.0 0.0))((1.0 0.0)(1.0 0.0)))))(((((1.0 0.0)(1.0 0.0))((1.0 0.0)(1.0 0.0)))(((1.0 0.0)(1.0 0.0))((1.0 0.0)(1.0 0.0))))((((1.0 0.0)(1.0 0.0))((1.0 0.0)(1.0 0.0)))(((1.0 0.0)(1.0 0.0))((1.0 0.0)(1.0 0.0)))))))(((((((1.0 0.0)(1.0 0.0))((1.0 0.0)(1.0 0.0)))(((1.0 0.0)(1.0 0.0))((1.0 0.0)(1.0 0.0))))((((1.0 0.0)(1.0 0.0))((1.0 0.0)(1.0 0.0)))(((1.0 0.0)(1.0 0.0))((1.0 0.0)(1.0 0.0)))))(((((1.0 0.0)(1.0 0.0))((1.0 0.0)(1.0 0.0)))(((1.0 0.0)(1.0 0.0))((1.0 0.0)(1.0 0.0))))((((1.0 0.0)(1.0 0.0))((1.0 0.0)(1.0 0.0)))(((1.0 0.0)(1.0 0.0))((1.0 0.0)(1.0 0.0))))))((((((1.0 0.0)(1.0 0.0))((1.0 0.0)(1.0 0.0)))(((1.0 0.0)(1.0 0.0))((1.0 0.0)(1.0 0.0))))((((1.0 0.0)(1.0 0.0))((1.0 0.0)(1.0 0.0)))(((1.0 0.0)(1.0 0.0))((1.0 0.0)(1.0 0.0)))))(((((1.0 0.0)(1.0 0.0))((1.0 0.0)(1.0 0.0)))(((1.0 0.0)(1.0 0.0))((1.0 0.0)(1.0 0.0))))((((1.0 0.0)(1.0 0.0))((1.0 0.0)(1.0 0.0)))(((1.0 0.0)(1.0 0.0))((1.0 0.0)(1.0 0.0)))))))))) ;
}
potential ( Mek_AVG | Raf_LOW Raf_AVG Raf_HIGH PKC_LOW PKC_AVG PKC_HIGH PKA_LOW PKA_AVG PKA_HIGH Mek_LOW  )
{
	data = (((((((((((0.000880 0.999120)(1.0 0.0))((0.000131 0.999869)(1.0 0.0)))(((0.012067 0.987933)(1.0 0.0))((0.000725 0.999275)(1.0 0.0))))((((0.000033 0.999967)(1.0 0.0))((0.012048 0.987952)(1.0 0.0)))(((0.012048 0.987952)(1.0 0.0))((0.000162 0.999838)(1.0 0.0)))))(((((0.004082 0.995918)(1.0 0.0))((0.799907 0.200093)(1.0 0.0)))(((0.011304 0.988696)(1.0 0.0))((0.500000 0.500000)(1.0 0.0))))((((0.000325 0.999675)(1.0 0.0))((0.007328 0.992672)(1.0 0.0)))(((0.012048 0.987952)(1.0 0.0))((0.012048 0.987952)(1.0 0.0))))))((((((0.000242 0.999758)(1.0 0.0))((0.006098 0.993902)(1.0 0.0)))(((0.998034 0.001966)(1.0 0.0))((0.250220 0.749780)(1.0 0.0))))((((0.987952 0.012048)(1.0 0.0))((0.286467 0.713533)(1.0 0.0)))(((0.185647 0.814353)(1.0 0.0))((0.006098 0.993902)(1.0 0.0)))))(((((0.500000 0.500000)(1.0 0.0))((0.500000 0.500000)(1.0 0.0)))(((0.500000 0.500000)(1.0 0.0))((1.0 0.0)(1.0 0.0))))((((1.0 0.0)(1.0 0.0))((1.0 0.0)(1.0 0.0)))(((1.0 0.0)(1.0 0.0))((1.0 0.0)(1.0 0.0)))))))(((((((1.0 0.0)(1.0 0.0))((1.0 0.0)(1.0 0.0)))(((1.0 0.0)(1.0 0.0))((1.0 0.0)(1.0 0.0))))((((1.0 0.0)(1.0 0.0))((1.0 0.0)(1.0 0.0)))(((1.0 0.0)(1.0 0.0))((1.0 0.0)(1.0 0.0)))))(((((1.0 0.0)(1.0 0.0))((1.0 0.0)(1.0 0.0)))(((1.0 0.0)(1.0 0.0))((1.0 0.0)(1.0 0.0))))((((1.0 0.0)(1.0 0.0))((1.0 0.0)(1.0 0.0)))(((1.0 0.0)(1.0 0.0))((1.0 0.0)(1.0 0.0))))))((((((1.0 0.0)(1.0 0.0))((1.0 0.0)(1.0 0.0)))(((1.0 0.0)(1.0 0.0))((1.0 0.0)(1.0 0.0))))((((1.0 0.0)(1.0 0.0))((1.0 0.0)(1.0 0.0)))(((1.0 0.0)(1.0 0.0))((1.0 0.0)(1.0 0.0)))))(((((1.0 0.0)(1.0 0.0))((1.0 0.0)(1.0 0.0)))(((1.0 0.0)(1.0 0.0))((1.0 0.0)(1.0 0.0))))((((1.0 0.0)(1.0 0.0))((1.0 0.0)(1.0 0.0)))(((1.0 0.0)(1.0 0.0))((1.0 0.0)(1.0 0.0))))))))((((((((1.0 0.0)(1.0 0.0))((1.0 0.0)(1.0 0.0)))(((1.0 0.0)(1.0 0.0))((1.0 0.0)(1.0 0.0))))((((1.0 0.0)(1.0 0.0))((1.0 0.0)(1.0 0.0)))(((1.0 0.0)(1.0 0.0))((1.0 0.0)(1.0 0.0)))))(((((1.0 0.0)(1.0 0.0))((1.0 0.0)(1.0 0.0)))(((1.0 0.0)(1.0 0.0))((1.0 0.0)(1.0 0.0))))((((1.0 0.0)(1.0 0.0))((1.0 0.0)(1.0 0.0)))(((1.0 0.0)(1.0 0.0))((1.0 0.0)(1.0 0.0))))))((((((1.0 0.0)(1.0 0.0))((1.0 0.0)(1.0 0.0)))(((1.0 0.0)(1.0 0.0))((1.0 0.0)(1.0 0.0))))((((1.0 0.0)(1.0 0.0))((1.0 0.0)(1.0 0.0)))(((1.0 0.0)(1.0 0.0))((1.0 0.0)(1.0 0.0)))))(((((1.0 0.0)(1.0 0.0))((1.0 0.0)(1.0 0.0)))(((1.0 0.0)(1.0 0.0))((1.0 0.0)(1.0 0.0))))((((1.0 0.0)(1.0 0.0))((1.0 0.0)(1.0 0.0)))(((1.0 0.0)(1.0 0.0))((1.0 0.0)(1.0 0.0)))))))(((((((1.0 0.0)(1.0 0.0))((1.0 0.0)(1.0 0.0)))(((1.0 0.0)(1.0 0.0))((1.0 0.0)(1.0 0.0))))((((1.0 0.0)(1.0 0.0))((1.0 0.0)(1.0 0.0)))(((1.0 0.0)(1.0 0.0))((1.0 0.0)(1.0 0.0)))))(((((1.0 0.0)(1.0 0.0))((1.0 0.0)(1.0 0.0)))(((1.0 0.0)(1.0 0.0))((1.0 0.0)(1.0 0.0))))((((1.0 0.0)(1.0 0.0))((1.0 0.0)(1.0 0.0)))(((1.0 0.0)(1.0 0.0))((1.0 0.0)(1.0 0.0))))))((((((1.0 0.0)(1.0 0.0))((1.0 0.0)(1.0 0.0)))(((1.0 0.0)(1.0 0.0))((1.0 0.0)(1.0 0.0))))((((1.0 0.0)(1.0 0.0))((1.0 0.0)(1.0 0.0)))(((1.0 0.0)(1.0 0.0))((1.0 0.0)(1.0 0.0)))))(((((1.0 0.0)(1.0 0.0))((1.0 0.0)(1.0 0.0)))(((1.0 0.0)(1.0 0.0))((1.0 0.0)(1.0 0.0))))((((1.0 0.0)(1.0 0.0))((1.0 0.0)(1.0 0.0)))(((1.0 0.0)(1.0 0.0))((1.0 0.0)(1.0 0.0)))))))))(((((((((1.0 0.0)(1.0 0.0))((1.0 0.0)(1.0 0.0)))(((1.0 0.0)(1.0 0.0))((1.0 0.0)(1.0 0.0))))((((1.0 0.0)(1.0 0.0))((1.0 0.0)(1.0 0.0)))(((1.0 0.0)(1.0 0.0))((1.0 0.0)(1.0 0.0)))))(((((1.0 0.0)(1.0 0.0))((1.0 0.0)(1.0 0.0)))(((1.0 0.0)(1.0 0.0))((1.0 0.0)(1.0 0.0))))((((1.0 0.0)(1.0 0.0))((1.0 0.0)(1.0 0.0)))(((1.0 0.0)(1.0 0.0))((1.0 0.0)(1.0 0.0))))))((((((1.0 0.0)(1.0 0.0))((1.0 0.0)(1.0 0.0)))(((1.0 0.0)(1.0 0.0))((1.0 0.0)(1.0 0.0))))((((1.0 0.0)(1.0 0.0))((1.0 0.0)(1.0 0.0)))(((1.0 0.0)(1.0 0.0))((1.0 0.0)(1.0 0.0)))))(((((1.0 0.0)(1.0 0.0))((1.0 0.0)(1.0 0.0)))(((1.0 0.0)(1.0 0.0))((1.0 0.0)(1.0 0.0))))((((1.0 0.0)(1.0 0.0))((1.0 0.0)(1.0 0.0)))(((1.0 0.0)(1.0 0.0))((1.0 0.0)(1.0 0.0)))))))(((((((1.0 0.0)(1.0 0.0))((1.0 0.0)(1.0 0.0)))(((1.0 0.0)(1.0 0.0))((1.0 0.0)(1.0 0.0))))((((1.0 0.0)(1.0 0.0))((1.0 0.0)(1.0 0.0)))(((1.0 0.0)(1.0 0.0))((1.0 0.0)(1.0 0.0)))))(((((1.0 0.0)(1.0 0.0))((1.0 0.0)(1.0 0.0)))(((1.0 0.0)(1.0 0.0))((1.0 0.0)(1.0 0.0))))((((1.0 0.0)(1.0 0.0))((1.0 0.0)(1.0 0.0)))(((1.0 0.0)(1.0 0.0))((1.0 0.0)(1.0 0.0))))))((((((1.0 0.0)(1.0 0.0))((1.0 0.0)(1.0 0.0)))(((1.0 0.0)(1.0 0.0))((1.0 0.0)(1.0 0.0))))((((1.0 0.0)(1.0 0.0))((1.0 0.0)(1.0 0.0)))(((1.0 0.0)(1.0 0.0))((1.0 0.0)(1.0 0.0)))))(((((1.0 0.0)(1.0 0.0))((1.0 0.0)(1.0 0.0)))(((1.0 0.0)(1.0 0.0))((1.0 0.0)(1.0 0.0))))((((1.0 0.0)(1.0 0.0))((1.0 0.0)(1.0 0.0)))(((1.0 0.0)(1.0 0.0))((1.0 0.0)(1.0 0.0))))))))((((((((1.0 0.0)(1.0 0.0))((1.0 0.0)(1.0 0.0)))(((1.0 0.0)(1.0 0.0))((1.0 0.0)(1.0 0.0))))((((1.0 0.0)(1.0 0.0))((1.0 0.0)(1.0 0.0)))(((1.0 0.0)(1.0 0.0))((1.0 0.0)(1.0 0.0)))))(((((1.0 0.0)(1.0 0.0))((1.0 0.0)(1.0 0.0)))(((1.0 0.0)(1.0 0.0))((1.0 0.0)(1.0 0.0))))((((1.0 0.0)(1.0 0.0))((1.0 0.0)(1.0 0.0)))(((1.0 0.0)(1.0 0.0))((1.0 0.0)(1.0 0.0))))))((((((1.0 0.0)(1.0 0.0))((1.0 0.0)(1.0 0.0)))(((1.0 0.0)(1.0 0.0))((1.0 0.0)(1.0 0.0))))((((1.0 0.0)(1.0 0.0))((1.0 0.0)(1.0 0.0)))(((1.0 0.0)(1.0 0.0))((1.0 0.0)(1.0 0.0)))))(((((1.0 0.0)(1.0 0.0))((1.0 0.0)(1.0 0.0)))(((1.0 0.0)(1.0 0.0))((1.0 0.0)(1.0 0.0))))((((1.0 0.0)(1.0 0.0))((1.0 0.0)(1.0 0.0)))(((1.0 0.0)(1.0 0.0))((1.0 0.0)(1.0 0.0)))))))(((((((1.0 0.0)(1.0 0.0))((1.0 0.0)(1.0 0.0)))(((1.0 0.0)(1.0 0.0))((1.0 0.0)(1.0 0.0))))((((1.0 0.0)(1.0 0.0))((1.0 0.0)(1.0 0.0)))(((1.0 0.0)(1.0 0.0))((1.0 0.0)(1.0 0.0)))))(((((1.0 0.0)(1.0 0.0))((1.0 0.0)(1.0 0.0)))(((1.0 0.0)(1.0 0.0))((1.0 0.0)(1.0 0.0))))((((1.0 0.0)(1.0 0.0))((1.0 0.0)(1.0 0.0)))(((1.0 0.0)(1.0 0.0))((1.0 0.0)(1.0 0.0))))))((((((1.0 0.0)(1.0 0.0))((1.0 0.0)(1.0 0.0)))(((1.0 0.0)(1.0 0.0))((1.0 0.0)(1.0 0.0))))((((1.0 0.0)(1.0 0.0))((1.0 0.0)(1.0 0.0)))(((1.0 0.0)(1.0 0.0))((1.0 0.0)(1.0 0.0)))))(((((1.0 0.0)(1.0 0.0))((1.0 0.0)(1.0 0.0)))(((1.0 0.0)(1.0 0.0))((1.0 0.0)(1.0 0.0))))((((1.0 0.0)(1.0 0.0))((1.0 0.0)(1.0 0.0)))(((1.0 0.0)(1.0 0.0))((1.0 0.0)(1.0 0.0))))))))))((((((((((1.0 0.0)(1.0 0.0))((1.0 0.0)(1.0 0.0)))(((1.0 0.0)(1.0 0.0))((1.0 0.0)(1.0 0.0))))((((1.0 0.0)(1.0 0.0))((1.0 0.0)(1.0 0.0)))(((1.0 0.0)(1.0 0.0))((1.0 0.0)(1.0 0.0)))))(((((1.0 0.0)(1.0 0.0))((1.0 0.0)(1.0 0.0)))(((1.0 0.0)(1.0 0.0))((1.0 0.0)(1.0 0.0))))((((1.0 0.0)(1.0 0.0))((1.0 0.0)(1.0 0.0)))(((1.0 0.0)(1.0 0.0))((1.0 0.0)(1.0 0.0))))))((((((1.0 0.0)(1.0 0.0))((1.0 0.0)(1.0 0.0)))(((1.0 0.0)(1.0 0.0))((1.0 0.0)(1.0 0.0))))((((1.0 0.0)(1.0 0.0))((1.0 0.0)(1.0 0.0)))(((1.0 0.0)(1.0 0.0))((1.0 0.0)(1.0 0.0)))))(((((1.0 0.0)(1.0 0.0))((1.0 0.0)(1.0 0.0)))(((1.0 0.0)(1.0 0.0))((1.0 0.0)(1.0 0.0))))((((1.0 0.0)(1.0 0.0))((1.0 0.0)(1.0 0.0)))(((1.0 0.0)(1.0 0.0))((1.0 0.0)(1.0 0.0)))))))(((((((1.0 0.0)(1.0 0.0))((1.0 0.0)(1.0 0.0)))(((1.0 0.0)(1.0 0.0))((1.0 0.0)(1.0 0.0))))((((1.0 0.0)(1.0 0.0))((1.0 0.0)(1.0 0.0)))(((1.0 0.0)(1.0 0.0))((1.0 0.0)(1.0 0.0)))))(((((1.0 0.0)(1.0 0.0))((1.0 0.0)(1.0 0.0)))(((1.0 0.0)(1.0 0.0))((1.0 0.0)(1.0 0.0))))((((1.0 0.0)(1.0 0.0))((1.0 0.0)(1.0 0.0)))(((1.0 0.0)(1.0 0.0))((1.0 0.0)(1.0 0.0))))))((((((1.0 0.0)(1.0 0.0))((1.0 0.0)(1.0 0.0)))(((1.0 0.0)(1.0 0.0))((1.0 0.0)(1.0 0.0))))((((1.0 0.0)(1.0 0.0))((1.0 0.0)(1.0 0.0)))(((1.0 0.0)(1.0 0.0))((1.0 0.0)(1.0 0.0)))))(((((1.0 0.0)(1.0 0.0))((1.0 0.0)(1.0 0.0)))(((1.0 0.0)(1.0 0.0))((1.0 0.0)(1.0 0.0))))((((1.0 0.0)(1.0 0.0))((1.0 0.0)(1.0 0.0)))(((1.0 0.0)(1.0 0.0))((1.0 0.0)(1.0 0.0))))))))((((((((1.0 0.0)(1.0 0.0))((1.0 0.0)(1.0 0.0)))(((1.0 0.0)(1.0 0.0))((1.0 0.0)(1.0 0.0))))((((1.0 0.0)(1.0 0.0))((1.0 0.0)(1.0 0.0)))(((1.0 0.0)(1.0 0.0))((1.0 0.0)(1.0 0.0)))))(((((1.0 0.0)(1.0 0.0))((1.0 0.0)(1.0 0.0)))(((1.0 0.0)(1.0 0.0))((1.0 0.0)(1.0 0.0))))((((1.0 0.0)(1.0 0.0))((1.0 0.0)(1.0 0.0)))(((1.0 0.0)(1.0 0.0))((1.0 0.0)(1.0 0.0))))))((((((1.0 0.0)(1.0 0.0))((1.0 0.0)(1.0 0.0)))(((1.0 0.0)(1.0 0.0))((1.0 0.0)(1.0 0.0))))((((1.0 0.0)(1.0 0.0))((1.0 0.0)(1.0 0.0)))(((1.0 0.0)(1.0 0.0))((1.0 0.0)(1.0 0.0)))))(((((1.0 0.0)(1.0 0.0))((1.0 0.0)(1.0 0.0)))(((1.0 0.0)(1.0 0.0))((1.0 0.0)(1.0 0.0))))((((1.0 0.0)(1.0 0.0))((1.0 0.0)(1.0 0.0)))(((1.0 0.0)(1.0 0.0))((1.0 0.0)(1.0 0.0)))))))(((((((1.0 0.0)(1.0 0.0))((1.0 0.0)(1.0 0.0)))(((1.0 0.0)(1.0 0.0))((1.0 0.0)(1.0 0.0))))((((1.0 0.0)(1.0 0.0))((1.0 0.0)(1.0 0.0)))(((1.0 0.0)(1.0 0.0))((1.0 0.0)(1.0 0.0)))))(((((1.0 0.0)(1.0 0.0))((1.0 0.0)(1.0 0.0)))(((1.0 0.0)(1.0 0.0))((1.0 0.0)(1.0 0.0))))((((1.0 0.0)(1.0 0.0))((1.0 0.0)(1.0 0.0)))(((1.0 0.0)(1.0 0.0))((1.0 0.0)(1.0 0.0))))))((((((1.0 0.0)(1.0 0.0))((1.0 0.0)(1.0 0.0)))(((1.0 0.0)(1.0 0.0))((1.0 0.0)(1.0 0.0))))((((1.0 0.0)(1.0 0.0))((1.0 0.0)(1.0 0.0)))(((1.0 0.0)(1.0 0.0))((1.0 0.0)(1.0 0.0)))))(((((1.0 0.0)(1.0 0.0))((1.0 0.0)(1.0 0.0)))(((1.0 0.0)(1.0 0.0))((1.0 0.0)(1.0 0.0))))((((1.0 0.0)(1.0 0.0))((1.0 0.0)(1.0 0.0)))(((1.0 0.0)(1.0 0.0))((1.0 0.0)(1.0 0.0)))))))))(((((((((1.0 0.0)(1.0 0.0))((1.0 0.0)(1.0 0.0)))(((1.0 0.0)(1.0 0.0))((1.0 0.0)(1.0 0.0))))((((1.0 0.0)(1.0 0.0))((1.0 0.0)(1.0 0.0)))(((1.0 0.0)(1.0 0.0))((1.0 0.0)(1.0 0.0)))))(((((1.0 0.0)(1.0 0.0))((1.0 0.0)(1.0 0.0)))(((1.0 0.0)(1.0 0.0))((1.0 0.0)(1.0 0.0))))((((1.0 0.0)(1.0 0.0))((1.0 0.0)(1.0 0.0)))(((1.0 0.0)(1.0 0.0))((1.0 0.0)(1.0 0.0))))))((((((1.0 0.0)(1.0 0.0))((1.0 0.0)(1.0 0.0)))(((1.0 0.0)(1.0 0.0))((1.0 0.0)(1.0 0.0))))((((1.0 0.0)(1.0 0.0))((1.0 0.0)(1.0 0.0)))(((1.0 0.0)(1.0 0.0))((1.0 0.0)(1.0 0.0)))))(((((1.0 0.0)(1.0 0.0))((1.0 0.0)(1.0 0.0)))(((1.0 0.0)(1.0 0.0))((1.0 0.0)(1.0 0.0))))((((1.0 0.0)(1.0 0.0))((1.0 0.0)(1.0 0.0)))(((1.0 0.0)(1.0 0.0))((1.0 0.0)(1.0 0.0)))))))(((((((1.0 0.0)(1.0 0.0))((1.0 0.0)(1.0 0.0)))(((1.0 0.0)(1.0 0.0))((1.0 0.0)(1.0 0.0))))((((1.0 0.0)(1.0 0.0))((1.0 0.0)(1.0 0.0)))(((1.0 0.0)(1.0 0.0))((1.0 0.0)(1.0 0.0)))))(((((1.0 0.0)(1.0 0.0))((1.0 0.0)(1.0 0.0)))(((1.0 0.0)(1.0 0.0))((1.0 0.0)(1.0 0.0))))((((1.0 0.0)(1.0 0.0))((1.0 0.0)(1.0 0.0)))(((1.0 0.0)(1.0 0.0))((1.0 0.0)(1.0 0.0))))))((((((1.0 0.0)(1.0 0.0))((1.0 0.0)(1.0 0.0)))(((1.0 0.0)(1.0 0.0))((1.0 0.0)(1.0 0.0))))((((1.0 0.0)(1.0 0.0))((1.0 0.0)(1.0 0.0)))(((1.0 0.0)(1.0 0.0))((1.0 0.0)(1.0 0.0)))))(((((1.0 0.0)(1.0 0.0))((1.0 0.0)(1.0 0.0)))(((1.0 0.0)(1.0 0.0))((1.0 0.0)(1.0 0.0))))((((1.0 0.0)(1.0 0.0))((1.0 0.0)(1.0 0.0)))(((1.0 0.0)(1.0 0.0))((1.0 0.0)(1.0 0.0))))))))((((((((1.0 0.0)(1.0 0.0))((1.0 0.0)(1.0 0.0)))(((1.0 0.0)(1.0 0.0))((1.0 0.0)(1.0 0.0))))((((1.0 0.0)(1.0 0.0))((1.0 0.0)(1.0 0.0)))(((1.0 0.0)(1.0 0.0))((1.0 0.0)(1.0 0.0)))))(((((1.0 0.0)(1.0 0.0))((1.0 0.0)(1.0 0.0)))(((1.0 0.0)(1.0 0.0))((1.0 0.0)(1.0 0.0))))((((1.0 0.0)(1.0 0.0))((1.0 0.0)(1.0 0.0)))(((1.0 0.0)(1.0 0.0))((1.0 0.0)(1.0 0.0))))))((((((1.0 0.0)(1.0 0.0))((1.0 0.0)(1.0 0.0)))(((1.0 0.0)(1.0 0.0))((1.0 0.0)(1.0 0.0))))((((1.0 0.0)(1.0 0.0))((1.0 0.0)(1.0 0.0)))(((1.0 0.0)(1.0 0.0))((1.0 0.0)(1.0 0.0)))))(((((1.0 0.0)(1.0 0.0))((1.0 0.0)(1.0 0.0)))(((1.0 0.0)(1.0 0.0))((1.0 0.0)(1.0 0.0))))((((1.0 0.0)(1.0 0.0))((1.0 0.0)(1.0 0.0)))(((1.0 0.0)(1.0 0.0))((1.0 0.0)(1.0 0.0)))))))(((((((1.0 0.0)(1.0 0.0))((1.0 0.0)(1.0 0.0)))(((1.0 0.0)(1.0 0.0))((1.0 0.0)(1.0 0.0))))((((1.0 0.0)(1.0 0.0))((1.0 0.0)(1.0 0.0)))(((1.0 0.0)(1.0 0.0))((1.0 0.0)(1.0 0.0)))))(((((1.0 0.0)(1.0 0.0))((1.0 0.0)(1.0 0.0)))(((1.0 0.0)(1.0 0.0))((1.0 0.0)(1.0 0.0))))((((1.0 0.0)(1.0 0.0))((1.0 0.0)(1.0 0.0)))(((1.0 0.0)(1.0 0.0))((1.0 0.0)(1.0 0.0))))))((((((1.0 0.0)(1.0 0.0))((1.0 0.0)(1.0 0.0)))(((1.0 0.0)(1.0 0.0))((1.0 0.0)(1.0 0.0))))((((1.0 0.0)(1.0 0.0))((1.0 0.0)(1.0 0.0)))(((1.0 0.0)(1.0 0.0))((1.0 0.0)(1.0 0.0)))))(((((1.0 0.0)(1.0 0.0))((1.0 0.0)(1.0 0.0)))(((1.0 0.0)(1.0 0.0))((1.0 0.0)(1.0 0.0))))((((1.0 0.0)(1.0 0.0))((1.0 0.0)(1.0 0.0)))(((1.0 0.0)(1.0 0.0))((1.0 0.0)(1.0 0.0))))))))))) ;
}
potential ( Mek_HIGH | Raf_LOW Raf_AVG Raf_HIGH PKC_LOW PKC_AVG PKC_HIGH PKA_LOW PKA_AVG PKA_HIGH Mek_AVG  )
{
	data = (((((((((((0.000000 1.000000)(1.0 0.0))((0.000494 1.000494)(1.0 0.0)))(((0.001577 0.998423)(1.0 0.0))((0.000000 1.000000)(1.0 0.0))))((((0.006556 0.993444)(1.0 0.0))((0.000000 1.000000)(1.0 0.0)))(((0.000000 1.000000)(1.0 0.0))((0.000472 1.000472)(1.0 0.0)))))(((((0.000000 1.000000)(1.0 0.0))((0.000000 1.000000)(1.0 0.0)))(((0.000000 1.000000)(1.0 0.0))((0.000001 1.000001)(1.0 0.0))))((((0.000000 1.000000)(1.0 0.0))((0.000000 1.000000)(1.0 0.0)))(((0.000000 1.000000)(1.0 0.0))((0.000000 1.000000)(1.0 0.0))))))((((((0.000000 1.000000)(1.0 0.0))((0.000000 1.000000)(1.0 0.0)))(((0.000000 1.000000)(1.0 0.0))((0.000000 1.000000)(1.0 0.0))))((((0.000000 1.000000)(1.0 0.0))((0.000000 1.000000)(1.0 0.0)))(((0.000000 1.000000)(1.0 0.0))((0.000000 1.000000)(1.0 0.0)))))(((((0.000000 1.000000)(1.0 0.0))((0.000000 1.000000)(1.0 0.0)))(((0.000000 1.000000)(1.0 0.0))((1.0 0.0)(1.0 0.0))))((((1.0 0.0)(1.0 0.0))((1.0 0.0)(1.0 0.0)))(((1.0 0.0)(1.0 0.0))((1.0 0.0)(1.0 0.0)))))))(((((((1.0 0.0)(1.0 0.0))((1.0 0.0)(1.0 0.0)))(((1.0 0.0)(1.0 0.0))((1.0 0.0)(1.0 0.0))))((((1.0 0.0)(1.0 0.0))((1.0 0.0)(1.0 0.0)))(((1.0 0.0)(1.0 0.0))((1.0 0.0)(1.0 0.0)))))(((((1.0 0.0)(1.0 0.0))((1.0 0.0)(1.0 0.0)))(((1.0 0.0)(1.0 0.0))((1.0 0.0)(1.0 0.0))))((((1.0 0.0)(1.0 0.0))((1.0 0.0)(1.0 0.0)))(((1.0 0.0)(1.0 0.0))((1.0 0.0)(1.0 0.0))))))((((((1.0 0.0)(1.0 0.0))((1.0 0.0)(1.0 0.0)))(((1.0 0.0)(1.0 0.0))((1.0 0.0)(1.0 0.0))))((((1.0 0.0)(1.0 0.0))((1.0 0.0)(1.0 0.0)))(((1.0 0.0)(1.0 0.0))((1.0 0.0)(1.0 0.0)))))(((((1.0 0.0)(1.0 0.0))((1.0 0.0)(1.0 0.0)))(((1.0 0.0)(1.0 0.0))((1.0 0.0)(1.0 0.0))))((((1.0 0.0)(1.0 0.0))((1.0 0.0)(1.0 0.0)))(((1.0 0.0)(1.0 0.0))((1.0 0.0)(1.0 0.0))))))))((((((((1.0 0.0)(1.0 0.0))((1.0 0.0)(1.0 0.0)))(((1.0 0.0)(1.0 0.0))((1.0 0.0)(1.0 0.0))))((((1.0 0.0)(1.0 0.0))((1.0 0.0)(1.0 0.0)))(((1.0 0.0)(1.0 0.0))((1.0 0.0)(1.0 0.0)))))(((((1.0 0.0)(1.0 0.0))((1.0 0.0)(1.0 0.0)))(((1.0 0.0)(1.0 0.0))((1.0 0.0)(1.0 0.0))))((((1.0 0.0)(1.0 0.0))((1.0 0.0)(1.0 0.0)))(((1.0 0.0)(1.0 0.0))((1.0 0.0)(1.0 0.0))))))((((((1.0 0.0)(1.0 0.0))((1.0 0.0)(1.0 0.0)))(((1.0 0.0)(1.0 0.0))((1.0 0.0)(1.0 0.0))))((((1.0 0.0)(1.0 0.0))((1.0 0.0)(1.0 0.0)))(((1.0 0.0)(1.0 0.0))((1.0 0.0)(1.0 0.0)))))(((((1.0 0.0)(1.0 0.0))((1.0 0.0)(1.0 0.0)))(((1.0 0.0)(1.0 0.0))((1.0 0.0)(1.0 0.0))))((((1.0 0.0)(1.0 0.0))((1.0 0.0)(1.0 0.0)))(((1.0 0.0)(1.0 0.0))((1.0 0.0)(1.0 0.0)))))))(((((((1.0 0.0)(1.0 0.0))((1.0 0.0)(1.0 0.0)))(((1.0 0.0)(1.0 0.0))((1.0 0.0)(1.0 0.0))))((((1.0 0.0)(1.0 0.0))((1.0 0.0)(1.0 0.0)))(((1.0 0.0)(1.0 0.0))((1.0 0.0)(1.0 0.0)))))(((((1.0 0.0)(1.0 0.0))((1.0 0.0)(1.0 0.0)))(((1.0 0.0)(1.0 0.0))((1.0 0.0)(1.0 0.0))))((((1.0 0.0)(1.0 0.0))((1.0 0.0)(1.0 0.0)))(((1.0 0.0)(1.0 0.0))((1.0 0.0)(1.0 0.0))))))((((((1.0 0.0)(1.0 0.0))((1.0 0.0)(1.0 0.0)))(((1.0 0.0)(1.0 0.0))((1.0 0.0)(1.0 0.0))))((((1.0 0.0)(1.0 0.0))((1.0 0.0)(1.0 0.0)))(((1.0 0.0)(1.0 0.0))((1.0 0.0)(1.0 0.0)))))(((((1.0 0.0)(1.0 0.0))((1.0 0.0)(1.0 0.0)))(((1.0 0.0)(1.0 0.0))((1.0 0.0)(1.0 0.0))))((((1.0 0.0)(1.0 0.0))((1.0 0.0)(1.0 0.0)))(((1.0 0.0)(1.0 0.0))((1.0 0.0)(1.0 0.0)))))))))(((((((((1.0 0.0)(1.0 0.0))((1.0 0.0)(1.0 0.0)))(((1.0 0.0)(1.0 0.0))((1.0 0.0)(1.0 0.0))))((((1.0 0.0)(1.0 0.0))((1.0 0.0)(1.0 0.0)))(((1.0 0.0)(1.0 0.0))((1.0 0.0)(1.0 0.0)))))(((((1.0 0.0)(1.0 0.0))((1.0 0.0)(1.0 0.0)))(((1.0 0.0)(1.0 0.0))((1.0 0.0)(1.0 0.0))))((((1.0 0.0)(1.0 0.0))((1.0 0.0)(1.0 0.0)))(((1.0 0.0)(1.0 0.0))((1.0 0.0)(1.0 0.0))))))((((((1.0 0.0)(1.0 0.0))((1.0 0.0)(1.0 0.0)))(((1.0 0.0)(1.0 0.0))((1.0 0.0)(1.0 0.0))))((((1.0 0.0)(1.0 0.0))((1.0 0.0)(1.0 0.0)))(((1.0 0.0)(1.0 0.0))((1.0 0.0)(1.0 0.0)))))(((((1.0 0.0)(1.0 0.0))((1.0 0.0)(1.0 0.0)))(((1.0 0.0)(1.0 0.0))((1.0 0.0)(1.0 0.0))))((((1.0 0.0)(1.0 0.0))((1.0 0.0)(1.0 0.0)))(((1.0 0.0)(1.0 0.0))((1.0 0.0)(1.0 0.0)))))))(((((((1.0 0.0)(1.0 0.0))((1.0 0.0)(1.0 0.0)))(((1.0 0.0)(1.0 0.0))((1.0 0.0)(1.0 0.0))))((((1.0 0.0)(1.0 0.0))((1.0 0.0)(1.0 0.0)))(((1.0 0.0)(1.0 0.0))((1.0 0.0)(1.0 0.0)))))(((((1.0 0.0)(1.0 0.0))((1.0 0.0)(1.0 0.0)))(((1.0 0.0)(1.0 0.0))((1.0 0.0)(1.0 0.0))))((((1.0 0.0)(1.0 0.0))((1.0 0.0)(1.0 0.0)))(((1.0 0.0)(1.0 0.0))((1.0 0.0)(1.0 0.0))))))((((((1.0 0.0)(1.0 0.0))((1.0 0.0)(1.0 0.0)))(((1.0 0.0)(1.0 0.0))((1.0 0.0)(1.0 0.0))))((((1.0 0.0)(1.0 0.0))((1.0 0.0)(1.0 0.0)))(((1.0 0.0)(1.0 0.0))((1.0 0.0)(1.0 0.0)))))(((((1.0 0.0)(1.0 0.0))((1.0 0.0)(1.0 0.0)))(((1.0 0.0)(1.0 0.0))((1.0 0.0)(1.0 0.0))))((((1.0 0.0)(1.0 0.0))((1.0 0.0)(1.0 0.0)))(((1.0 0.0)(1.0 0.0))((1.0 0.0)(1.0 0.0))))))))((((((((1.0 0.0)(1.0 0.0))((1.0 0.0)(1.0 0.0)))(((1.0 0.0)(1.0 0.0))((1.0 0.0)(1.0 0.0))))((((1.0 0.0)(1.0 0.0))((1.0 0.0)(1.0 0.0)))(((1.0 0.0)(1.0 0.0))((1.0 0.0)(1.0 0.0)))))(((((1.0 0.0)(1.0 0.0))((1.0 0.0)(1.0 0.0)))(((1.0 0.0)(1.0 0.0))((1.0 0.0)(1.0 0.0))))((((1.0 0.0)(1.0 0.0))((1.0 0.0)(1.0 0.0)))(((1.0 0.0)(1.0 0.0))((1.0 0.0)(1.0 0.0))))))((((((1.0 0.0)(1.0 0.0))((1.0 0.0)(1.0 0.0)))(((1.0 0.0)(1.0 0.0))((1.0 0.0)(1.0 0.0))))((((1.0 0.0)(1.0 0.0))((1.0 0.0)(1.0 0.0)))(((1.0 0.0)(1.0 0.0))((1.0 0.0)(1.0 0.0)))))(((((1.0 0.0)(1.0 0.0))((1.0 0.0)(1.0 0.0)))(((1.0 0.0)(1.0 0.0))((1.0 0.0)(1.0 0.0))))((((1.0 0.0)(1.0 0.0))((1.0 0.0)(1.0 0.0)))(((1.0 0.0)(1.0 0.0))((1.0 0.0)(1.0 0.0)))))))(((((((1.0 0.0)(1.0 0.0))((1.0 0.0)(1.0 0.0)))(((1.0 0.0)(1.0 0.0))((1.0 0.0)(1.0 0.0))))((((1.0 0.0)(1.0 0.0))((1.0 0.0)(1.0 0.0)))(((1.0 0.0)(1.0 0.0))((1.0 0.0)(1.0 0.0)))))(((((1.0 0.0)(1.0 0.0))((1.0 0.0)(1.0 0.0)))(((1.0 0.0)(1.0 0.0))((1.0 0.0)(1.0 0.0))))((((1.0 0.0)(1.0 0.0))((1.0 0.0)(1.0 0.0)))(((1.0 0.0)(1.0 0.0))((1.0 0.0)(1.0 0.0))))))((((((1.0 0.0)(1.0 0.0))((1.0 0.0)(1.0 0.0)))(((1.0 0.0)(1.0 0.0))((1.0 0.0)(1.0 0.0))))((((1.0 0.0)(1.0 0.0))((1.0 0.0)(1.0 0.0)))(((1.0 0.0)(1.0 0.0))((1.0 0.0)(1.0 0.0)))))(((((1.0 0.0)(1.0 0.0))((1.0 0.0)(1.0 0.0)))(((1.0 0.0)(1.0 0.0))((1.0 0.0)(1.0 0.0))))((((1.0 0.0)(1.0 0.0))((1.0 0.0)(1.0 0.0)))(((1.0 0.0)(1.0 0.0))((1.0 0.0)(1.0 0.0))))))))))((((((((((1.0 0.0)(1.0 0.0))((1.0 0.0)(1.0 0.0)))(((1.0 0.0)(1.0 0.0))((1.0 0.0)(1.0 0.0))))((((1.0 0.0)(1.0 0.0))((1.0 0.0)(1.0 0.0)))(((1.0 0.0)(1.0 0.0))((1.0 0.0)(1.0 0.0)))))(((((1.0 0.0)(1.0 0.0))((1.0 0.0)(1.0 0.0)))(((1.0 0.0)(1.0 0.0))((1.0 0.0)(1.0 0.0))))((((1.0 0.0)(1.0 0.0))((1.0 0.0)(1.0 0.0)))(((1.0 0.0)(1.0 0.0))((1.0 0.0)(1.0 0.0))))))((((((1.0 0.0)(1.0 0.0))((1.0 0.0)(1.0 0.0)))(((1.0 0.0)(1.0 0.0))((1.0 0.0)(1.0 0.0))))((((1.0 0.0)(1.0 0.0))((1.0 0.0)(1.0 0.0)))(((1.0 0.0)(1.0 0.0))((1.0 0.0)(1.0 0.0)))))(((((1.0 0.0)(1.0 0.0))((1.0 0.0)(1.0 0.0)))(((1.0 0.0)(1.0 0.0))((1.0 0.0)(1.0 0.0))))((((1.0 0.0)(1.0 0.0))((1.0 0.0)(1.0 0.0)))(((1.0 0.0)(1.0 0.0))((1.0 0.0)(1.0 0.0)))))))(((((((1.0 0.0)(1.0 0.0))((1.0 0.0)(1.0 0.0)))(((1.0 0.0)(1.0 0.0))((1.0 0.0)(1.0 0.0))))((((1.0 0.0)(1.0 0.0))((1.0 0.0)(1.0 0.0)))(((1.0 0.0)(1.0 0.0))((1.0 0.0)(1.0 0.0)))))(((((1.0 0.0)(1.0 0.0))((1.0 0.0)(1.0 0.0)))(((1.0 0.0)(1.0 0.0))((1.0 0.0)(1.0 0.0))))((((1.0 0.0)(1.0 0.0))((1.0 0.0)(1.0 0.0)))(((1.0 0.0)(1.0 0.0))((1.0 0.0)(1.0 0.0))))))((((((1.0 0.0)(1.0 0.0))((1.0 0.0)(1.0 0.0)))(((1.0 0.0)(1.0 0.0))((1.0 0.0)(1.0 0.0))))((((1.0 0.0)(1.0 0.0))((1.0 0.0)(1.0 0.0)))(((1.0 0.0)(1.0 0.0))((1.0 0.0)(1.0 0.0)))))(((((1.0 0.0)(1.0 0.0))((1.0 0.0)(1.0 0.0)))(((1.0 0.0)(1.0 0.0))((1.0 0.0)(1.0 0.0))))((((1.0 0.0)(1.0 0.0))((1.0 0.0)(1.0 0.0)))(((1.0 0.0)(1.0 0.0))((1.0 0.0)(1.0 0.0))))))))((((((((1.0 0.0)(1.0 0.0))((1.0 0.0)(1.0 0.0)))(((1.0 0.0)(1.0 0.0))((1.0 0.0)(1.0 0.0))))((((1.0 0.0)(1.0 0.0))((1.0 0.0)(1.0 0.0)))(((1.0 0.0)(1.0 0.0))((1.0 0.0)(1.0 0.0)))))(((((1.0 0.0)(1.0 0.0))((1.0 0.0)(1.0 0.0)))(((1.0 0.0)(1.0 0.0))((1.0 0.0)(1.0 0.0))))((((1.0 0.0)(1.0 0.0))((1.0 0.0)(1.0 0.0)))(((1.0 0.0)(1.0 0.0))((1.0 0.0)(1.0 0.0))))))((((((1.0 0.0)(1.0 0.0))((1.0 0.0)(1.0 0.0)))(((1.0 0.0)(1.0 0.0))((1.0 0.0)(1.0 0.0))))((((1.0 0.0)(1.0 0.0))((1.0 0.0)(1.0 0.0)))(((1.0 0.0)(1.0 0.0))((1.0 0.0)(1.0 0.0)))))(((((1.0 0.0)(1.0 0.0))((1.0 0.0)(1.0 0.0)))(((1.0 0.0)(1.0 0.0))((1.0 0.0)(1.0 0.0))))((((1.0 0.0)(1.0 0.0))((1.0 0.0)(1.0 0.0)))(((1.0 0.0)(1.0 0.0))((1.0 0.0)(1.0 0.0)))))))(((((((1.0 0.0)(1.0 0.0))((1.0 0.0)(1.0 0.0)))(((1.0 0.0)(1.0 0.0))((1.0 0.0)(1.0 0.0))))((((1.0 0.0)(1.0 0.0))((1.0 0.0)(1.0 0.0)))(((1.0 0.0)(1.0 0.0))((1.0 0.0)(1.0 0.0)))))(((((1.0 0.0)(1.0 0.0))((1.0 0.0)(1.0 0.0)))(((1.0 0.0)(1.0 0.0))((1.0 0.0)(1.0 0.0))))((((1.0 0.0)(1.0 0.0))((1.0 0.0)(1.0 0.0)))(((1.0 0.0)(1.0 0.0))((1.0 0.0)(1.0 0.0))))))((((((1.0 0.0)(1.0 0.0))((1.0 0.0)(1.0 0.0)))(((1.0 0.0)(1.0 0.0))((1.0 0.0)(1.0 0.0))))((((1.0 0.0)(1.0 0.0))((1.0 0.0)(1.0 0.0)))(((1.0 0.0)(1.0 0.0))((1.0 0.0)(1.0 0.0)))))(((((1.0 0.0)(1.0 0.0))((1.0 0.0)(1.0 0.0)))(((1.0 0.0)(1.0 0.0))((1.0 0.0)(1.0 0.0))))((((1.0 0.0)(1.0 0.0))((1.0 0.0)(1.0 0.0)))(((1.0 0.0)(1.0 0.0))((1.0 0.0)(1.0 0.0)))))))))(((((((((1.0 0.0)(1.0 0.0))((1.0 0.0)(1.0 0.0)))(((1.0 0.0)(1.0 0.0))((1.0 0.0)(1.0 0.0))))((((1.0 0.0)(1.0 0.0))((1.0 0.0)(1.0 0.0)))(((1.0 0.0)(1.0 0.0))((1.0 0.0)(1.0 0.0)))))(((((1.0 0.0)(1.0 0.0))((1.0 0.0)(1.0 0.0)))(((1.0 0.0)(1.0 0.0))((1.0 0.0)(1.0 0.0))))((((1.0 0.0)(1.0 0.0))((1.0 0.0)(1.0 0.0)))(((1.0 0.0)(1.0 0.0))((1.0 0.0)(1.0 0.0))))))((((((1.0 0.0)(1.0 0.0))((1.0 0.0)(1.0 0.0)))(((1.0 0.0)(1.0 0.0))((1.0 0.0)(1.0 0.0))))((((1.0 0.0)(1.0 0.0))((1.0 0.0)(1.0 0.0)))(((1.0 0.0)(1.0 0.0))((1.0 0.0)(1.0 0.0)))))(((((1.0 0.0)(1.0 0.0))((1.0 0.0)(1.0 0.0)))(((1.0 0.0)(1.0 0.0))((1.0 0.0)(1.0 0.0))))((((1.0 0.0)(1.0 0.0))((1.0 0.0)(1.0 0.0)))(((1.0 0.0)(1.0 0.0))((1.0 0.0)(1.0 0.0)))))))(((((((1.0 0.0)(1.0 0.0))((1.0 0.0)(1.0 0.0)))(((1.0 0.0)(1.0 0.0))((1.0 0.0)(1.0 0.0))))((((1.0 0.0)(1.0 0.0))((1.0 0.0)(1.0 0.0)))(((1.0 0.0)(1.0 0.0))((1.0 0.0)(1.0 0.0)))))(((((1.0 0.0)(1.0 0.0))((1.0 0.0)(1.0 0.0)))(((1.0 0.0)(1.0 0.0))((1.0 0.0)(1.0 0.0))))((((1.0 0.0)(1.0 0.0))((1.0 0.0)(1.0 0.0)))(((1.0 0.0)(1.0 0.0))((1.0 0.0)(1.0 0.0))))))((((((1.0 0.0)(1.0 0.0))((1.0 0.0)(1.0 0.0)))(((1.0 0.0)(1.0 0.0))((1.0 0.0)(1.0 0.0))))((((1.0 0.0)(1.0 0.0))((1.0 0.0)(1.0 0.0)))(((1.0 0.0)(1.0 0.0))((1.0 0.0)(1.0 0.0)))))(((((1.0 0.0)(1.0 0.0))((1.0 0.0)(1.0 0.0)))(((1.0 0.0)(1.0 0.0))((1.0 0.0)(1.0 0.0))))((((1.0 0.0)(1.0 0.0))((1.0 0.0)(1.0 0.0)))(((1.0 0.0)(1.0 0.0))((1.0 0.0)(1.0 0.0))))))))((((((((1.0 0.0)(1.0 0.0))((1.0 0.0)(1.0 0.0)))(((1.0 0.0)(1.0 0.0))((1.0 0.0)(1.0 0.0))))((((1.0 0.0)(1.0 0.0))((1.0 0.0)(1.0 0.0)))(((1.0 0.0)(1.0 0.0))((1.0 0.0)(1.0 0.0)))))(((((1.0 0.0)(1.0 0.0))((1.0 0.0)(1.0 0.0)))(((1.0 0.0)(1.0 0.0))((1.0 0.0)(1.0 0.0))))((((1.0 0.0)(1.0 0.0))((1.0 0.0)(1.0 0.0)))(((1.0 0.0)(1.0 0.0))((1.0 0.0)(1.0 0.0))))))((((((1.0 0.0)(1.0 0.0))((1.0 0.0)(1.0 0.0)))(((1.0 0.0)(1.0 0.0))((1.0 0.0)(1.0 0.0))))((((1.0 0.0)(1.0 0.0))((1.0 0.0)(1.0 0.0)))(((1.0 0.0)(1.0 0.0))((1.0 0.0)(1.0 0.0)))))(((((1.0 0.0)(1.0 0.0))((1.0 0.0)(1.0 0.0)))(((1.0 0.0)(1.0 0.0))((1.0 0.0)(1.0 0.0))))((((1.0 0.0)(1.0 0.0))((1.0 0.0)(1.0 0.0)))(((1.0 0.0)(1.0 0.0))((1.0 0.0)(1.0 0.0)))))))(((((((1.0 0.0)(1.0 0.0))((1.0 0.0)(1.0 0.0)))(((1.0 0.0)(1.0 0.0))((1.0 0.0)(1.0 0.0))))((((1.0 0.0)(1.0 0.0))((1.0 0.0)(1.0 0.0)))(((1.0 0.0)(1.0 0.0))((1.0 0.0)(1.0 0.0)))))(((((1.0 0.0)(1.0 0.0))((1.0 0.0)(1.0 0.0)))(((1.0 0.0)(1.0 0.0))((1.0 0.0)(1.0 0.0))))((((1.0 0.0)(1.0 0.0))((1.0 0.0)(1.0 0.0)))(((1.0 0.0)(1.0 0.0))((1.0 0.0)(1.0 0.0))))))((((((1.0 0.0)(1.0 0.0))((1.0 0.0)(1.0 0.0)))(((1.0 0.0)(1.0 0.0))((1.0 0.0)(1.0 0.0))))((((1.0 0.0)(1.0 0.0))((1.0 0.0)(1.0 0.0)))(((1.0 0.0)(1.0 0.0))((1.0 0.0)(1.0 0.0)))))(((((1.0 0.0)(1.0 0.0))((1.0 0.0)(1.0 0.0)))(((1.0 0.0)(1.0 0.0))((1.0 0.0)(1.0 0.0))))((((1.0 0.0)(1.0 0.0))((1.0 0.0)(1.0 0.0)))(((1.0 0.0)(1.0 0.0))((1.0 0.0)(1.0 0.0))))))))))) ;
}
potential ( Erk_LOW | PKA_LOW PKA_AVG PKA_HIGH Mek_LOW Mek_AVG Mek_HIGH  )
{
	data = (((((((0.149487 0.850513)(0.612967 0.387033))((0.991317 0.008683)(0.882288 0.117712)))(((0.951042 0.048958)(0.998847 0.001153))((0.925940 0.074060)(0.996337 0.003663))))((((0.966667 0.033333)(1.0 0.0))((1.0 0.0)(1.0 0.0)))(((1.0 0.0)(1.0 0.0))((1.0 0.0)(1.0 0.0)))))(((((1.0 0.0)(1.0 0.0))((1.0 0.0)(1.0 0.0)))(((1.0 0.0)(1.0 0.0))((1.0 0.0)(1.0 0.0))))((((1.0 0.0)(1.0 0.0))((1.0 0.0)(1.0 0.0)))(((1.0 0.0)(1.0 0.0))((1.0 0.0)(1.0 0.0))))))((((((1.0 0.0)(1.0 0.0))((1.0 0.0)(1.0 0.0)))(((1.0 0.0)(1.0 0.0))((1.0 0.0)(1.0 0.0))))((((1.0 0.0)(1.0 0.0))((1.0 0.0)(1.0 0.0)))(((1.0 0.0)(1.0 0.0))((1.0 0.0)(1.0 0.0)))))(((((1.0 0.0)(1.0 0.0))((1.0 0.0)(1.0 0.0)))(((1.0 0.0)(1.0 0.0))((1.0 0.0)(1.0 0.0))))((((1.0 0.0)(1.0 0.0))((1.0 0.0)(1.0 0.0)))(((1.0 0.0)(1.0 0.0))((1.0 0.0)(1.0 0.0))))))) ;
}
potential ( Erk_AVG | PKA_LOW PKA_AVG PKA_HIGH Mek_LOW Mek_AVG Mek_HIGH Erk_LOW  )
{
	data = ((((((((0.071995 0.928005)(1.0 0.0))((0.210902 0.789098)(1.0 0.0)))(((0.810395 0.189605)(1.0 0.0))((0.215748 0.784252)(1.0 0.0))))((((0.234272 0.765728)(1.0 0.0))((0.250577 0.749423)(1.0 0.0)))(((0.243530 0.756470)(1.0 0.0))((0.897059 0.102941)(1.0 0.0)))))(((((0.965517 0.034483)(1.0 0.0))((1.0 0.0)(1.0 0.0)))(((1.0 0.0)(1.0 0.0))((1.0 0.0)(1.0 0.0))))((((1.0 0.0)(1.0 0.0))((1.0 0.0)(1.0 0.0)))(((1.0 0.0)(1.0 0.0))((1.0 0.0)(1.0 0.0))))))((((((1.0 0.0)(1.0 0.0))((1.0 0.0)(1.0 0.0)))(((1.0 0.0)(1.0 0.0))((1.0 0.0)(1.0 0.0))))((((1.0 0.0)(1.0 0.0))((1.0 0.0)(1.0 0.0)))(((1.0 0.0)(1.0 0.0))((1.0 0.0)(1.0 0.0)))))(((((1.0 0.0)(1.0 0.0))((1.0 0.0)(1.0 0.0)))(((1.0 0.0)(1.0 0.0))((1.0 0.0)(1.0 0.0))))((((1.0 0.0)(1.0 0.0))((1.0 0.0)(1.0 0.0)))(((1.0 0.0)(1.0 0.0))((1.0 0.0)(1.0 0.0)))))))(((((((1.0 0.0)(1.0 0.0))((1.0 0.0)(1.0 0.0)))(((1.0 0.0)(1.0 0.0))((1.0 0.0)(1.0 0.0))))((((1.0 0.0)(1.0 0.0))((1.0 0.0)(1.0 0.0)))(((1.0 0.0)(1.0 0.0))((1.0 0.0)(1.0 0.0)))))(((((1.0 0.0)(1.0 0.0))((1.0 0.0)(1.0 0.0)))(((1.0 0.0)(1.0 0.0))((1.0 0.0)(1.0 0.0))))((((1.0 0.0)(1.0 0.0))((1.0 0.0)(1.0 0.0)))(((1.0 0.0)(1.0 0.0))((1.0 0.0)(1.0 0.0))))))((((((1.0 0.0)(1.0 0.0))((1.0 0.0)(1.0 0.0)))(((1.0 0.0)(1.0 0.0))((1.0 0.0)(1.0 0.0))))((((1.0 0.0)(1.0 0.0))((1.0 0.0)(1.0 0.0)))(((1.0 0.0)(1.0 0.0))((1.0 0.0)(1.0 0.0)))))(((((1.0 0.0)(1.0 0.0))((1.0 0.0)(1.0 0.0)))(((1.0 0.0)(1.0 0.0))((1.0 0.0)(1.0 0.0))))((((1.0 0.0)(1.0 0.0))((1.0 0.0)(1.0 0.0)))(((1.0 0.0)(1.0 0.0))((1.0 0.0)(1.0 0.0)))))))) ;
}
potential ( Erk_HIGH | PKA_LOW PKA_AVG PKA_HIGH Mek_LOW Mek_AVG Mek_HIGH Erk_AVG  )
{
	data = ((((((((0.000000 1.000000)(1.0 0.0))((0.000000 1.000000)(1.0 0.0)))(((0.000000 1.000000)(1.0 0.0))((0.000000 1.000000)(1.0 0.0))))((((0.000000 1.000000)(1.0 0.0))((0.000000 1.000000)(1.0 0.0)))(((0.000000 1.000000)(1.0 0.0))((0.000000 1.000000)(1.0 0.0)))))(((((0.000000 1.000000)(1.0 0.0))((1.0 0.0)(1.0 0.0)))(((1.0 0.0)(1.0 0.0))((1.0 0.0)(1.0 0.0))))((((1.0 0.0)(1.0 0.0))((1.0 0.0)(1.0 0.0)))(((1.0 0.0)(1.0 0.0))((1.0 0.0)(1.0 0.0))))))((((((1.0 0.0)(1.0 0.0))((1.0 0.0)(1.0 0.0)))(((1.0 0.0)(1.0 0.0))((1.0 0.0)(1.0 0.0))))((((1.0 0.0)(1.0 0.0))((1.0 0.0)(1.0 0.0)))(((1.0 0.0)(1.0 0.0))((1.0 0.0)(1.0 0.0)))))(((((1.0 0.0)(1.0 0.0))((1.0 0.0)(1.0 0.0)))(((1.0 0.0)(1.0 0.0))((1.0 0.0)(1.0 0.0))))((((1.0 0.0)(1.0 0.0))((1.0 0.0)(1.0 0.0)))(((1.0 0.0)(1.0 0.0))((1.0 0.0)(1.0 0.0)))))))(((((((1.0 0.0)(1.0 0.0))((1.0 0.0)(1.0 0.0)))(((1.0 0.0)(1.0 0.0))((1.0 0.0)(1.0 0.0))))((((1.0 0.0)(1.0 0.0))((1.0 0.0)(1.0 0.0)))(((1.0 0.0)(1.0 0.0))((1.0 0.0)(1.0 0.0)))))(((((1.0 0.0)(1.0 0.0))((1.0 0.0)(1.0 0.0)))(((1.0 0.0)(1.0 0.0))((1.0 0.0)(1.0 0.0))))((((1.0 0.0)(1.0 0.0))((1.0 0.0)(1.0 0.0)))(((1.0 0.0)(1.0 0.0))((1.0 0.0)(1.0 0.0))))))((((((1.0 0.0)(1.0 0.0))((1.0 0.0)(1.0 0.0)))(((1.0 0.0)(1.0 0.0))((1.0 0.0)(1.0 0.0))))((((1.0 0.0)(1.0 0.0))((1.0 0.0)(1.0 0.0)))(((1.0 0.0)(1.0 0.0))((1.0 0.0)(1.0 0.0)))))(((((1.0 0.0)(1.0 0.0))((1.0 0.0)(1.0 0.0)))(((1.0 0.0)(1.0 0.0))((1.0 0.0)(1.0 0.0))))((((1.0 0.0)(1.0 0.0))((1.0 0.0)(1.0 0.0)))(((1.0 0.0)(1.0 0.0))((1.0 0.0)(1.0 0.0)))))))) ;
}
potential ( Akt_LOW | PKA_LOW PKA_AVG PKA_HIGH Erk_LOW Erk_AVG Erk_HIGH  )
{
	data = (((((((0.327882 0.672118)(0.665049 0.334951))((0.999923 0.000077)(0.379614 0.620386)))(((0.178592 0.821408)(0.822894 0.177106))((0.024914 0.975086)(0.051638 0.948362))))((((0.829659 0.170341)(1.0 0.0))((1.0 0.0)(1.0 0.0)))(((1.0 0.0)(1.0 0.0))((1.0 0.0)(1.0 0.0)))))(((((1.0 0.0)(1.0 0.0))((1.0 0.0)(1.0 0.0)))(((1.0 0.0)(1.0 0.0))((1.0 0.0)(1.0 0.0))))((((1.0 0.0)(1.0 0.0))((1.0 0.0)(1.0 0.0)))(((1.0 0.0)(1.0 0.0))((1.0 0.0)(1.0 0.0))))))((((((1.0 0.0)(1.0 0.0))((1.0 0.0)(1.0 0.0)))(((1.0 0.0)(1.0 0.0))((1.0 0.0)(1.0 0.0))))((((1.0 0.0)(1.0 0.0))((1.0 0.0)(1.0 0.0)))(((1.0 0.0)(1.0 0.0))((1.0 0.0)(1.0 0.0)))))(((((1.0 0.0)(1.0 0.0))((1.0 0.0)(1.0 0.0)))(((1.0 0.0)(1.0 0.0))((1.0 0.0)(1.0 0.0))))((((1.0 0.0)(1.0 0.0))((1.0 0.0)(1.0 0.0)))(((1.0 0.0)(1.0 0.0))((1.0 0.0)(1.0 0.0))))))) ;
}
potential ( Akt_AVG | PKA_LOW PKA_AVG PKA_HIGH Erk_LOW Erk_AVG Erk_HIGH Akt_LOW  )
{
	data = ((((((((0.000314 0.999686)(1.0 0.0))((0.000270 0.999730)(1.0 0.0)))(((0.881684 0.118316)(1.0 0.0))((0.000294 0.999706)(1.0 0.0))))((((0.002183 0.997817)(1.0 0.0))((0.011133 0.988867)(1.0 0.0)))(((0.034483 0.965517)(1.0 0.0))((0.001758 0.998242)(1.0 0.0)))))(((((0.000316 0.999684)(1.0 0.0))((1.0 0.0)(1.0 0.0)))(((1.0 0.0)(1.0 0.0))((1.0 0.0)(1.0 0.0))))((((1.0 0.0)(1.0 0.0))((1.0 0.0)(1.0 0.0)))(((1.0 0.0)(1.0 0.0))((1.0 0.0)(1.0 0.0))))))((((((1.0 0.0)(1.0 0.0))((1.0 0.0)(1.0 0.0)))(((1.0 0.0)(1.0 0.0))((1.0 0.0)(1.0 0.0))))((((1.0 0.0)(1.0 0.0))((1.0 0.0)(1.0 0.0)))(((1.0 0.0)(1.0 0.0))((1.0 0.0)(1.0 0.0)))))(((((1.0 0.0)(1.0 0.0))((1.0 0.0)(1.0 0.0)))(((1.0 0.0)(1.0 0.0))((1.0 0.0)(1.0 0.0))))((((1.0 0.0)(1.0 0.0))((1.0 0.0)(1.0 0.0)))(((1.0 0.0)(1.0 0.0))((1.0 0.0)(1.0 0.0)))))))(((((((1.0 0.0)(1.0 0.0))((1.0 0.0)(1.0 0.0)))(((1.0 0.0)(1.0 0.0))((1.0 0.0)(1.0 0.0))))((((1.0 0.0)(1.0 0.0))((1.0 0.0)(1.0 0.0)))(((1.0 0.0)(1.0 0.0))((1.0 0.0)(1.0 0.0)))))(((((1.0 0.0)(1.0 0.0))((1.0 0.0)(1.0 0.0)))(((1.0 0.0)(1.0 0.0))((1.0 0.0)(1.0 0.0))))((((1.0 0.0)(1.0 0.0))((1.0 0.0)(1.0 0.0)))(((1.0 0.0)(1.0 0.0))((1.0 0.0)(1.0 0.0))))))((((((1.0 0.0)(1.0 0.0))((1.0 0.0)(1.0 0.0)))(((1.0 0.0)(1.0 0.0))((1.0 0.0)(1.0 0.0))))((((1.0 0.0)(1.0 0.0))((1.0 0.0)(1.0 0.0)))(((1.0 0.0)(1.0 0.0))((1.0 0.0)(1.0 0.0)))))(((((1.0 0.0)(1.0 0.0))((1.0 0.0)(1.0 0.0)))(((1.0 0.0)(1.0 0.0))((1.0 0.0)(1.0 0.0))))((((1.0 0.0)(1.0 0.0))((1.0 0.0)(1.0 0.0)))(((1.0 0.0)(1.0 0.0))((1.0 0.0)(1.0 0.0)))))))) ;
}
potential ( Akt_HIGH | PKA_LOW PKA_AVG PKA_HIGH Erk_LOW Erk_AVG Erk_HIGH Akt_AVG  )
{
	data = ((((((((0.000000 1.000000)(1.0 0.0))((0.000000 1.000000)(1.0 0.0)))(((0.000000 1.000000)(1.0 0.0))((0.000000 1.000000)(1.0 0.0))))((((0.000000 1.000000)(1.0 0.0))((0.000000 1.000000)(1.0 0.0)))(((0.000000 1.000000)(1.0 0.0))((0.000195 0.999805)(1.0 0.0)))))(((((0.000000 1.000000)(1.0 0.0))((1.0 0.0)(1.0 0.0)))(((1.0 0.0)(1.0 0.0))((1.0 0.0)(1.0 0.0))))((((1.0 0.0)(1.0 0.0))((1.0 0.0)(1.0 0.0)))(((1.0 0.0)(1.0 0.0))((1.0 0.0)(1.0 0.0))))))((((((1.0 0.0)(1.0 0.0))((1.0 0.0)(1.0 0.0)))(((1.0 0.0)(1.0 0.0))((1.0 0.0)(1.0 0.0))))((((1.0 0.0)(1.0 0.0))((1.0 0.0)(1.0 0.0)))(((1.0 0.0)(1.0 0.0))((1.0 0.0)(1.0 0.0)))))(((((1.0 0.0)(1.0 0.0))((1.0 0.0)(1.0 0.0)))(((1.0 0.0)(1.0 0.0))((1.0 0.0)(1.0 0.0))))((((1.0 0.0)(1.0 0.0))((1.0 0.0)(1.0 0.0)))(((1.0 0.0)(1.0 0.0))((1.0 0.0)(1.0 0.0)))))))(((((((1.0 0.0)(1.0 0.0))((1.0 0.0)(1.0 0.0)))(((1.0 0.0)(1.0 0.0))((1.0 0.0)(1.0 0.0))))((((1.0 0.0)(1.0 0.0))((1.0 0.0)(1.0 0.0)))(((1.0 0.0)(1.0 0.0))((1.0 0.0)(1.0 0.0)))))(((((1.0 0.0)(1.0 0.0))((1.0 0.0)(1.0 0.0)))(((1.0 0.0)(1.0 0.0))((1.0 0.0)(1.0 0.0))))((((1.0 0.0)(1.0 0.0))((1.0 0.0)(1.0 0.0)))(((1.0 0.0)(1.0 0.0))((1.0 0.0)(1.0 0.0))))))((((((1.0 0.0)(1.0 0.0))((1.0 0.0)(1.0 0.0)))(((1.0 0.0)(1.0 0.0))((1.0 0.0)(1.0 0.0))))((((1.0 0.0)(1.0 0.0))((1.0 0.0)(1.0 0.0)))(((1.0 0.0)(1.0 0.0))((1.0 0.0)(1.0 0.0)))))(((((1.0 0.0)(1.0 0.0))((1.0 0.0)(1.0 0.0)))(((1.0 0.0)(1.0 0.0))((1.0 0.0)(1.0 0.0))))((((1.0 0.0)(1.0 0.0))((1.0 0.0)(1.0 0.0)))(((1.0 0.0)(1.0 0.0))((1.0 0.0)(1.0 0.0)))))))) ;
}
potential ( Jnk_LOW | PKC_LOW PKC_AVG PKC_HIGH PKA_LOW PKA_AVG PKA_HIGH  )
{
	data = (((((((0.710074 0.289926)(0.423330 0.576670))((0.003876 0.996124)(0.420556 0.579444)))(((0.387096 0.612904)(0.137699 0.862301))((0.995434 0.004566)(0.955310 0.044690))))((((0.844633 0.155367)(1.0 0.0))((1.0 0.0)(1.0 0.0)))(((1.0 0.0)(1.0 0.0))((1.0 0.0)(1.0 0.0)))))(((((1.0 0.0)(1.0 0.0))((1.0 0.0)(1.0 0.0)))(((1.0 0.0)(1.0 0.0))((1.0 0.0)(1.0 0.0))))((((1.0 0.0)(1.0 0.0))((1.0 0.0)(1.0 0.0)))(((1.0 0.0)(1.0 0.0))((1.0 0.0)(1.0 0.0))))))((((((1.0 0.0)(1.0 0.0))((1.0 0.0)(1.0 0.0)))(((1.0 0.0)(1.0 0.0))((1.0 0.0)(1.0 0.0))))((((1.0 0.0)(1.0 0.0))((1.0 0.0)(1.0 0.0)))(((1.0 0.0)(1.0 0.0))((1.0 0.0)(1.0 0.0)))))(((((1.0 0.0)(1.0 0.0))((1.0 0.0)(1.0 0.0)))(((1.0 0.0)(1.0 0.0))((1.0 0.0)(1.0 0.0))))((((1.0 0.0)(1.0 0.0))((1.0 0.0)(1.0 0.0)))(((1.0 0.0)(1.0 0.0))((1.0 0.0)(1.0 0.0))))))) ;
}
potential ( Jnk_AVG | PKC_LOW PKC_AVG PKC_HIGH PKA_LOW PKA_AVG PKA_HIGH Jnk_LOW  )
{
	data = ((((((((0.653889 0.346111)(1.0 0.0))((0.000101 0.999899)(1.0 0.0)))(((0.017865 0.982135)(1.0 0.0))((0.000561 0.999439)(1.0 0.0))))((((0.000040 0.999960)(1.0 0.0))((0.006098 0.993902)(1.0 0.0)))(((0.004587 0.995413)(1.0 0.0))((0.021307 0.978693)(1.0 0.0)))))(((((0.003344 0.996656)(1.0 0.0))((1.0 0.0)(1.0 0.0)))(((1.0 0.0)(1.0 0.0))((1.0 0.0)(1.0 0.0))))((((1.0 0.0)(1.0 0.0))((1.0 0.0)(1.0 0.0)))(((1.0 0.0)(1.0 0.0))((1.0 0.0)(1.0 0.0))))))((((((1.0 0.0)(1.0 0.0))((1.0 0.0)(1.0 0.0)))(((1.0 0.0)(1.0 0.0))((1.0 0.0)(1.0 0.0))))((((1.0 0.0)(1.0 0.0))((1.0 0.0)(1.0 0.0)))(((1.0 0.0)(1.0 0.0))((1.0 0.0)(1.0 0.0)))))(((((1.0 0.0)(1.0 0.0))((1.0 0.0)(1.0 0.0)))(((1.0 0.0)(1.0 0.0))((1.0 0.0)(1.0 0.0))))((((1.0 0.0)(1.0 0.0))((1.0 0.0)(1.0 0.0)))(((1.0 0.0)(1.0 0.0))((1.0 0.0)(1.0 0.0)))))))(((((((1.0 0.0)(1.0 0.0))((1.0 0.0)(1.0 0.0)))(((1.0 0.0)(1.0 0.0))((1.0 0.0)(1.0 0.0))))((((1.0 0.0)(1.0 0.0))((1.0 0.0)(1.0 0.0)))(((1.0 0.0)(1.0 0.0))((1.0 0.0)(1.0 0.0)))))(((((1.0 0.0)(1.0 0.0))((1.0 0.0)(1.0 0.0)))(((1.0 0.0)(1.0 0.0))((1.0 0.0)(1.0 0.0))))((((1.0 0.0)(1.0 0.0))((1.0 0.0)(1.0 0.0)))(((1.0 0.0)(1.0 0.0))((1.0 0.0)(1.0 0.0))))))((((((1.0 0.0)(1.0 0.0))((1.0 0.0)(1.0 0.0)))(((1.0 0.0)(1.0 0.0))((1.0 0.0)(1.0 0.0))))((((1.0 0.0)(1.0 0.0))((1.0 0.0)(1.0 0.0)))(((1.0 0.0)(1.0 0.0))((1.0 0.0)(1.0 0.0)))))(((((1.0 0.0)(1.0 0.0))((1.0 0.0)(1.0 0.0)))(((1.0 0.0)(1.0 0.0))((1.0 0.0)(1.0 0.0))))((((1.0 0.0)(1.0 0.0))((1.0 0.0)(1.0 0.0)))(((1.0 0.0)(1.0 0.0))((1.0 0.0)(1.0 0.0)))))))) ;
}
potential ( Jnk_HIGH | PKC_LOW PKC_AVG PKC_HIGH PKA_LOW PKA_AVG PKA_HIGH Jnk_AVG  )
{
	data = ((((((((0.000000 1.000000)(1.0 0.0))((0.000308 1.000308)(1.0 0.0)))(((0.000452 0.999548)(1.0 0.0))((0.000000 1.000000)(1.0 0.0))))((((0.004427 0.995573)(1.0 0.0))((0.000000 1.000000)(1.0 0.0)))(((0.000000 1.000000)(1.0 0.0))((0.000000 1.000000)(1.0 0.0)))))(((((0.000000 1.000000)(1.0 0.0))((1.0 0.0)(1.0 0.0)))(((1.0 0.0)(1.0 0.0))((1.0 0.0)(1.0 0.0))))((((1.0 0.0)(1.0 0.0))((1.0 0.0)(1.0 0.0)))(((1.0 0.0)(1.0 0.0))((1.0 0.0)(1.0 0.0))))))((((((1.0 0.0)(1.0 0.0))((1.0 0.0)(1.0 0.0)))(((1.0 0.0)(1.0 0.0))((1.0 0.0)(1.0 0.0))))((((1.0 0.0)(1.0 0.0))((1.0 0.0)(1.0 0.0)))(((1.0 0.0)(1.0 0.0))((1.0 0.0)(1.0 0.0)))))(((((1.0 0.0)(1.0 0.0))((1.0 0.0)(1.0 0.0)))(((1.0 0.0)(1.0 0.0))((1.0 0.0)(1.0 0.0))))((((1.0 0.0)(1.0 0.0))((1.0 0.0)(1.0 0.0)))(((1.0 0.0)(1.0 0.0))((1.0 0.0)(1.0 0.0)))))))(((((((1.0 0.0)(1.0 0.0))((1.0 0.0)(1.0 0.0)))(((1.0 0.0)(1.0 0.0))((1.0 0.0)(1.0 0.0))))((((1.0 0.0)(1.0 0.0))((1.0 0.0)(1.0 0.0)))(((1.0 0.0)(1.0 0.0))((1.0 0.0)(1.0 0.0)))))(((((1.0 0.0)(1.0 0.0))((1.0 0.0)(1.0 0.0)))(((1.0 0.0)(1.0 0.0))((1.0 0.0)(1.0 0.0))))((((1.0 0.0)(1.0 0.0))((1.0 0.0)(1.0 0.0)))(((1.0 0.0)(1.0 0.0))((1.0 0.0)(1.0 0.0))))))((((((1.0 0.0)(1.0 0.0))((1.0 0.0)(1.0 0.0)))(((1.0 0.0)(1.0 0.0))((1.0 0.0)(1.0 0.0))))((((1.0 0.0)(1.0 0.0))((1.0 0.0)(1.0 0.0)))(((1.0 0.0)(1.0 0.0))((1.0 0.0)(1.0 0.0)))))(((((1.0 0.0)(1.0 0.0))((1.0 0.0)(1.0 0.0)))(((1.0 0.0)(1.0 0.0))((1.0 0.0)(1.0 0.0))))((((1.0 0.0)(1.0 0.0))((1.0 0.0)(1.0 0.0)))(((1.0 0.0)(1.0 0.0))((1.0 0.0)(1.0 0.0)))))))) ;
}
potential ( P38_LOW | PKC_LOW PKC_AVG PKC_HIGH PKA_LOW PKA_AVG PKA_HIGH  )
{
	data = (((((((0.693088 0.306912)(0.080813 0.919187))((0.192622 0.807378)(0.344177 0.655823)))(((0.185022 0.814978)(0.613770 0.386230))((0.132420 0.867580)(0.196860 0.803140))))((((0.234463 0.765537)(1.0 0.0))((1.0 0.0)(1.0 0.0)))(((1.0 0.0)(1.0 0.0))((1.0 0.0)(1.0 0.0)))))(((((1.0 0.0)(1.0 0.0))((1.0 0.0)(1.0 0.0)))(((1.0 0.0)(1.0 0.0))((1.0 0.0)(1.0 0.0))))((((1.0 0.0)(1.0 0.0))((1.0 0.0)(1.0 0.0)))(((1.0 0.0)(1.0 0.0))((1.0 0.0)(1.0 0.0))))))((((((1.0 0.0)(1.0 0.0))((1.0 0.0)(1.0 0.0)))(((1.0 0.0)(1.0 0.0))((1.0 0.0)(1.0 0.0))))((((1.0 0.0)(1.0 0.0))((1.0 0.0)(1.0 0.0)))(((1.0 0.0)(1.0 0.0))((1.0 0.0)(1.0 0.0)))))(((((1.0 0.0)(1.0 0.0))((1.0 0.0)(1.0 0.0)))(((1.0 0.0)(1.0 0.0))((1.0 0.0)(1.0 0.0))))((((1.0 0.0)(1.0 0.0))((1.0 0.0)(1.0 0.0)))(((1.0 0.0)(1.0 0.0))((1.0 0.0)(1.0 0.0))))))) ;
}
potential ( P38_AVG | PKC_LOW PKC_AVG PKC_HIGH PKA_LOW PKA_AVG PKA_HIGH P38_LOW  )
{
	data = ((((((((0.906814 0.093186)(1.0 0.0))((0.029070 0.970930)(1.0 0.0)))(((0.524254 0.475746)(1.0 0.0))((0.000685 0.999315)(1.0 0.0))))((((0.000083 0.999917)(1.0 0.0))((0.740082 0.259918)(1.0 0.0)))(((0.034483 0.965517)(1.0 0.0))((0.020984 0.979016)(1.0 0.0)))))(((((0.012048 0.987952)(1.0 0.0))((1.0 0.0)(1.0 0.0)))(((1.0 0.0)(1.0 0.0))((1.0 0.0)(1.0 0.0))))((((1.0 0.0)(1.0 0.0))((1.0 0.0)(1.0 0.0)))(((1.0 0.0)(1.0 0.0))((1.0 0.0)(1.0 0.0))))))((((((1.0 0.0)(1.0 0.0))((1.0 0.0)(1.0 0.0)))(((1.0 0.0)(1.0 0.0))((1.0 0.0)(1.0 0.0))))((((1.0 0.0)(1.0 0.0))((1.0 0.0)(1.0 0.0)))(((1.0 0.0)(1.0 0.0))((1.0 0.0)(1.0 0.0)))))(((((1.0 0.0)(1.0 0.0))((1.0 0.0)(1.0 0.0)))(((1.0 0.0)(1.0 0.0))((1.0 0.0)(1.0 0.0))))((((1.0 0.0)(1.0 0.0))((1.0 0.0)(1.0 0.0)))(((1.0 0.0)(1.0 0.0))((1.0 0.0)(1.0 0.0)))))))(((((((1.0 0.0)(1.0 0.0))((1.0 0.0)(1.0 0.0)))(((1.0 0.0)(1.0 0.0))((1.0 0.0)(1.0 0.0))))((((1.0 0.0)(1.0 0.0))((1.0 0.0)(1.0 0.0)))(((1.0 0.0)(1.0 0.0))((1.0 0.0)(1.0 0.0)))))(((((1.0 0.0)(1.0 0.0))((1.0 0.0)(1.0 0.0)))(((1.0 0.0)(1.0 0.0))((1.0 0.0)(1.0 0.0))))((((1.0 0.0)(1.0 0.0))((1.0 0.0)(1.0 0.0)))(((1.0 0.0)(1.0 0.0))((1.0 0.0)(1.0 0.0))))))((((((1.0 0.0)(1.0 0.0))((1.0 0.0)(1.0 0.0)))(((1.0 0.0)(1.0 0.0))((1.0 0.0)(1.0 0.0))))((((1.0 0.0)(1.0 0.0))((1.0 0.0)(1.0 0.0)))(((1.0 0.0)(1.0 0.0))((1.0 0.0)(1.0 0.0)))))(((((1.0 0.0)(1.0 0.0))((1.0 0.0)(1.0 0.0)))(((1.0 0.0)(1.0 0.0))((1.0 0.0)(1.0 0.0))))((((1.0 0.0)(1.0 0.0))((1.0 0.0)(1.0 0.0)))(((1.0 0.0)(1.0 0.0))((1.0 0.0)(1.0 0.0)))))))) ;
}
potential ( P38_HIGH | PKC_LOW PKC_AVG PKC_HIGH PKA_LOW PKA_AVG PKA_HIGH P38_AVG  )
{
	data = ((((((((0.000000 1.000000)(1.0 0.0))((0.000000 1.000000)(1.0 0.0)))(((0.000000 1.000000)(1.0 0.0))((0.000000 1.000000)(1.0 0.0))))((((0.002038 1.002038)(1.0 0.0))((0.000000 1.000000)(1.0 0.0)))(((0.000000 1.000000)(1.0 0.0))((0.000000 1.000000)(1.0 0.0)))))(((((0.000000 1.000000)(1.0 0.0))((1.0 0.0)(1.0 0.0)))(((1.0 0.0)(1.0 0.0))((1.0 0.0)(1.0 0.0))))((((1.0 0.0)(1.0 0.0))((1.0 0.0)(1.0 0.0)))(((1.0 0.0)(1.0 0.0))((1.0 0.0)(1.0 0.0))))))((((((1.0 0.0)(1.0 0.0))((1.0 0.0)(1.0 0.0)))(((1.0 0.0)(1.0 0.0))((1.0 0.0)(1.0 0.0))))((((1.0 0.0)(1.0 0.0))((1.0 0.0)(1.0 0.0)))(((1.0 0.0)(1.0 0.0))((1.0 0.0)(1.0 0.0)))))(((((1.0 0.0)(1.0 0.0))((1.0 0.0)(1.0 0.0)))(((1.0 0.0)(1.0 0.0))((1.0 0.0)(1.0 0.0))))((((1.0 0.0)(1.0 0.0))((1.0 0.0)(1.0 0.0)))(((1.0 0.0)(1.0 0.0))((1.0 0.0)(1.0 0.0)))))))(((((((1.0 0.0)(1.0 0.0))((1.0 0.0)(1.0 0.0)))(((1.0 0.0)(1.0 0.0))((1.0 0.0)(1.0 0.0))))((((1.0 0.0)(1.0 0.0))((1.0 0.0)(1.0 0.0)))(((1.0 0.0)(1.0 0.0))((1.0 0.0)(1.0 0.0)))))(((((1.0 0.0)(1.0 0.0))((1.0 0.0)(1.0 0.0)))(((1.0 0.0)(1.0 0.0))((1.0 0.0)(1.0 0.0))))((((1.0 0.0)(1.0 0.0))((1.0 0.0)(1.0 0.0)))(((1.0 0.0)(1.0 0.0))((1.0 0.0)(1.0 0.0))))))((((((1.0 0.0)(1.0 0.0))((1.0 0.0)(1.0 0.0)))(((1.0 0.0)(1.0 0.0))((1.0 0.0)(1.0 0.0))))((((1.0 0.0)(1.0 0.0))((1.0 0.0)(1.0 0.0)))(((1.0 0.0)(1.0 0.0))((1.0 0.0)(1.0 0.0)))))(((((1.0 0.0)(1.0 0.0))((1.0 0.0)(1.0 0.0)))(((1.0 0.0)(1.0 0.0))((1.0 0.0)(1.0 0.0))))((((1.0 0.0)(1.0 0.0))((1.0 0.0)(1.0 0.0)))(((1.0 0.0)(1.0 0.0))((1.0 0.0)(1.0 0.0)))))))) ;
}
potential ( Plcg_LOW  )
{
	data = (0.187866 0.812134) ;
}
potential ( Plcg_AVG | Plcg_LOW  )
{
	data = ((0.556176 0.443824)(1.0 0.0)) ;
}
potential ( Plcg_HIGH | Plcg_AVG  )
{
	data = ((0.000000 1.000000)(1.0 0.0)) ;
}
potential ( PIP3_LOW | Plcg_LOW Plcg_AVG Plcg_HIGH  )
{
	data = ((((0.781569 0.218431)(0.922033 0.077967))((0.576294 0.423706)(1.0 0.0)))(((1.0 0.0)(1.0 0.0))((1.0 0.0)(1.0 0.0)))) ;
}
potential ( PIP3_AVG | Plcg_LOW Plcg_AVG Plcg_HIGH PIP3_LOW  )
{
	data = (((((0.427659 0.572341)(1.0 0.0))((0.770939 0.229061)(1.0 0.0)))(((0.237103 0.762897)(1.0 0.0))((1.0 0.0)(1.0 0.0))))((((1.0 0.0)(1.0 0.0))((1.0 0.0)(1.0 0.0)))(((1.0 0.0)(1.0 0.0))((1.0 0.0)(1.0 0.0))))) ;
}
potential ( PIP3_HIGH | Plcg_LOW Plcg_AVG Plcg_HIGH PIP3_AVG  )
{
	data = (((((0.000000 1.000000)(1.0 0.0))((0.000000 1.000000)(1.0 0.0)))(((0.000001 1.000001)(1.0 0.0))((1.0 0.0)(1.0 0.0))))((((1.0 0.0)(1.0 0.0))((1.0 0.0)(1.0 0.0)))(((1.0 0.0)(1.0 0.0))((1.0 0.0)(1.0 0.0))))) ;
}
potential ( PIP2_LOW | Plcg_LOW Plcg_AVG Plcg_HIGH PIP3_LOW PIP3_AVG PIP3_HIGH  )
{
	data = (((((((0.003208 0.996792)(0.013289 0.986711))((0.127599 0.872401)(0.002110 0.997890)))(((0.042835 0.957165)(0.478190 0.521810))((0.778191 0.221809)(0.923272 0.076728))))((((0.973583 0.026417)(1.0 0.0))((1.0 0.0)(1.0 0.0)))(((1.0 0.0)(1.0 0.0))((1.0 0.0)(1.0 0.0)))))(((((1.0 0.0)(1.0 0.0))((1.0 0.0)(1.0 0.0)))(((1.0 0.0)(1.0 0.0))((1.0 0.0)(1.0 0.0))))((((1.0 0.0)(1.0 0.0))((1.0 0.0)(1.0 0.0)))(((1.0 0.0)(1.0 0.0))((1.0 0.0)(1.0 0.0))))))((((((1.0 0.0)(1.0 0.0))((1.0 0.0)(1.0 0.0)))(((1.0 0.0)(1.0 0.0))((1.0 0.0)(1.0 0.0))))((((1.0 0.0)(1.0 0.0))((1.0 0.0)(1.0 0.0)))(((1.0 0.0)(1.0 0.0))((1.0 0.0)(1.0 0.0)))))(((((1.0 0.0)(1.0 0.0))((1.0 0.0)(1.0 0.0)))(((1.0 0.0)(1.0 0.0))((1.0 0.0)(1.0 0.0))))((((1.0 0.0)(1.0 0.0))((1.0 0.0)(1.0 0.0)))(((1.0 0.0)(1.0 0.0))((1.0 0.0)(1.0 0.0))))))) ;
}
potential ( PIP2_AVG | Plcg_LOW Plcg_AVG Plcg_HIGH PIP3_LOW PIP3_AVG PIP3_HIGH PIP2_LOW  )
{
	data = ((((((((0.012056 0.987944)(1.0 0.0))((0.001421 0.998579)(1.0 0.0)))(((0.058998 0.941002)(1.0 0.0))((0.500000 0.500000)(1.0 0.0))))((((0.009091 0.990909)(1.0 0.0))((0.032906 0.967094)(1.0 0.0)))(((0.365645 0.634355)(1.0 0.0))((0.576395 0.423605)(1.0 0.0)))))(((((0.946226 0.053774)(1.0 0.0))((1.0 0.0)(1.0 0.0)))(((1.0 0.0)(1.0 0.0))((1.0 0.0)(1.0 0.0))))((((1.0 0.0)(1.0 0.0))((1.0 0.0)(1.0 0.0)))(((1.0 0.0)(1.0 0.0))((1.0 0.0)(1.0 0.0))))))((((((1.0 0.0)(1.0 0.0))((1.0 0.0)(1.0 0.0)))(((1.0 0.0)(1.0 0.0))((1.0 0.0)(1.0 0.0))))((((1.0 0.0)(1.0 0.0))((1.0 0.0)(1.0 0.0)))(((1.0 0.0)(1.0 0.0))((1.0 0.0)(1.0 0.0)))))(((((1.0 0.0)(1.0 0.0))((1.0 0.0)(1.0 0.0)))(((1.0 0.0)(1.0 0.0))((1.0 0.0)(1.0 0.0))))((((1.0 0.0)(1.0 0.0))((1.0 0.0)(1.0 0.0)))(((1.0 0.0)(1.0 0.0))((1.0 0.0)(1.0 0.0)))))))(((((((1.0 0.0)(1.0 0.0))((1.0 0.0)(1.0 0.0)))(((1.0 0.0)(1.0 0.0))((1.0 0.0)(1.0 0.0))))((((1.0 0.0)(1.0 0.0))((1.0 0.0)(1.0 0.0)))(((1.0 0.0)(1.0 0.0))((1.0 0.0)(1.0 0.0)))))(((((1.0 0.0)(1.0 0.0))((1.0 0.0)(1.0 0.0)))(((1.0 0.0)(1.0 0.0))((1.0 0.0)(1.0 0.0))))((((1.0 0.0)(1.0 0.0))((1.0 0.0)(1.0 0.0)))(((1.0 0.0)(1.0 0.0))((1.0 0.0)(1.0 0.0))))))((((((1.0 0.0)(1.0 0.0))((1.0 0.0)(1.0 0.0)))(((1.0 0.0)(1.0 0.0))((1.0 0.0)(1.0 0.0))))((((1.0 0.0)(1.0 0.0))((1.0 0.0)(1.0 0.0)))(((1.0 0.0)(1.0 0.0))((1.0 0.0)(1.0 0.0)))))(((((1.0 0.0)(1.0 0.0))((1.0 0.0)(1.0 0.0)))(((1.0 0.0)(1.0 0.0))((1.0 0.0)(1.0 0.0))))((((1.0 0.0)(1.0 0.0))((1.0 0.0)(1.0 0.0)))(((1.0 0.0)(1.0 0.0))((1.0 0.0)(1.0 0.0)))))))) ;
}
potential ( PIP2_HIGH | Plcg_LOW Plcg_AVG Plcg_HIGH PIP3_LOW PIP3_AVG PIP3_HIGH PIP2_AVG  )
{
	data = ((((((((0.000690 0.999310)(1.0 0.0))((0.000735 0.999265)(1.0 0.0)))(((0.000000 1.000000)(1.0 0.0))((0.000001 0.999999)(1.0 0.0))))((((0.000000 1.000000)(1.0 0.0))((0.000001 1.000001)(1.0 0.0)))(((0.000000 1.000000)(1.0 0.0))((0.000000 1.000000)(1.0 0.0)))))(((((0.000000 1.000000)(1.0 0.0))((1.0 0.0)(1.0 0.0)))(((1.0 0.0)(1.0 0.0))((1.0 0.0)(1.0 0.0))))((((1.0 0.0)(1.0 0.0))((1.0 0.0)(1.0 0.0)))(((1.0 0.0)(1.0 0.0))((1.0 0.0)(1.0 0.0))))))((((((1.0 0.0)(1.0 0.0))((1.0 0.0)(1.0 0.0)))(((1.0 0.0)(1.0 0.0))((1.0 0.0)(1.0 0.0))))((((1.0 0.0)(1.0 0.0))((1.0 0.0)(1.0 0.0)))(((1.0 0.0)(1.0 0.0))((1.0 0.0)(1.0 0.0)))))(((((1.0 0.0)(1.0 0.0))((1.0 0.0)(1.0 0.0)))(((1.0 0.0)(1.0 0.0))((1.0 0.0)(1.0 0.0))))((((1.0 0.0)(1.0 0.0))((1.0 0.0)(1.0 0.0)))(((1.0 0.0)(1.0 0.0))((1.0 0.0)(1.0 0.0)))))))(((((((1.0 0.0)(1.0 0.0))((1.0 0.0)(1.0 0.0)))(((1.0 0.0)(1.0 0.0))((1.0 0.0)(1.0 0.0))))((((1.0 0.0)(1.0 0.0))((1.0 0.0)(1.0 0.0)))(((1.0 0.0)(1.0 0.0))((1.0 0.0)(1.0 0.0)))))(((((1.0 0.0)(1.0 0.0))((1.0 0.0)(1.0 0.0)))(((1.0 0.0)(1.0 0.0))((1.0 0.0)(1.0 0.0))))((((1.0 0.0)(1.0 0.0))((1.0 0.0)(1.0 0.0)))(((1.0 0.0)(1.0 0.0))((1.0 0.0)(1.0 0.0))))))((((((1.0 0.0)(1.0 0.0))((1.0 0.0)(1.0 0.0)))(((1.0 0.0)(1.0 0.0))((1.0 0.0)(1.0 0.0))))((((1.0 0.0)(1.0 0.0))((1.0 0.0)(1.0 0.0)))(((1.0 0.0)(1.0 0.0))((1.0 0.0)(1.0 0.0)))))(((((1.0 0.0)(1.0 0.0))((1.0 0.0)(1.0 0.0)))(((1.0 0.0)(1.0 0.0))((1.0 0.0)(1.0 0.0))))((((1.0 0.0)(1.0 0.0))((1.0 0.0)(1.0 0.0)))(((1.0 0.0)(1.0 0.0))((1.0 0.0)(1.0 0.0)))))))) ;
}
