net
{
}
node Am_0
{
	states = ( "false" "true" );
}
node Am_1
{
	states = ( "false" "true" );
}
node Am_2
{
	states = ( "false" "true" );
}
node Sm_0
{
	states = ( "false" "true" );
}
node Sm_1
{
	states = ( "false" "true" );
}
node Em_0
{
	states = ( "false" "true" );
}
node Em_1
{
	states = ( "false" "true" );
}
node Om_0
{
	states = ( "false" "true" );
}
node Om_1
{
	states = ( "false" "true" );
}
node Rm_0
{
	states = ( "false" "true" );
}
node Rm_1
{
	states = ( "false" "true" );
}
node Tm_0
{
	states = ( "false" "true" );
}
node Tm_1
{
	states = ( "false" "true" );
}
node Tm_2
{
	states = ( "false" "true" );
}
potential ( Am_0  )
{
	data = (0.700000 0.300000) ;
}
potential ( Am_1 | Am_0  )
{
	data = ((0.285714 0.714286)(1.0 0.0)) ;
}
potential ( Am_2 | Am_1  )
{
	data = ((0.000000 1.000000)(1.0 0.0)) ;
}
potential ( Sm_0  )
{
	data = (0.400000 0.600000) ;
}
potential ( Sm_1 | Sm_0  )
{
	data = ((0.000000 1.000000)(1.0 0.0)) ;
}
potential ( Em_0 | Sm_0 Sm_1 Am_0 Am_1 Am_2  )
{
	data = ((((((0.250000 0.750000)(0.280000 0.720000))((0.120000 0.880000)(0.360000 0.640000)))(((0.300000 0.700000)(0.100000 0.900000))((1.0 0.0)(1.0 0.0))))((((1.0 0.0)(1.0 0.0))((1.0 0.0)(1.0 0.0)))(((1.0 0.0)(1.0 0.0))((1.0 0.0)(1.0 0.0)))))(((((1.0 0.0)(1.0 0.0))((1.0 0.0)(1.0 0.0)))(((1.0 0.0)(1.0 0.0))((1.0 0.0)(1.0 0.0))))((((1.0 0.0)(1.0 0.0))((1.0 0.0)(1.0 0.0)))(((1.0 0.0)(1.0 0.0))((1.0 0.0)(1.0 0.0)))))) ;
}
potential ( Em_1 | Sm_0 Sm_1 Am_0 Am_1 Am_2 Em_0  )
{
	data = (((((((0.000000 1.000000)(1.0 0.0))((0.000000 1.000000)(1.0 0.0)))(((0.000000 1.000000)(1.0 0.0))((0.000000 1.000000)(1.0 0.0))))((((0.000000 1.000000)(1.0 0.0))((0.000000 1.000000)(1.0 0.0)))(((1.0 0.0)(1.0 0.0))((1.0 0.0)(1.0 0.0)))))(((((1.0 0.0)(1.0 0.0))((1.0 0.0)(1.0 0.0)))(((1.0 0.0)(1.0 0.0))((1.0 0.0)(1.0 0.0))))((((1.0 0.0)(1.0 0.0))((1.0 0.0)(1.0 0.0)))(((1.0 0.0)(1.0 0.0))((1.0 0.0)(1.0 0.0))))))((((((1.0 0.0)(1.0 0.0))((1.0 0.0)(1.0 0.0)))(((1.0 0.0)(1.0 0.0))((1.0 0.0)(1.0 0.0))))((((1.0 0.0)(1.0 0.0))((1.0 0.0)(1.0 0.0)))(((1.0 0.0)(1.0 0.0))((1.0 0.0)(1.0 0.0)))))(((((1.0 0.0)(1.0 0.0))((1.0 0.0)(1.0 0.0)))(((1.0 0.0)(1.0 0.0))((1.0 0.0)(1.0 0.0))))((((1.0 0.0)(1.0 0.0))((1.0 0.0)(1.0 0.0)))(((1.0 0.0)(1.0 0.0))((1.0 0.0)(1.0 0.0))))))) ;
}
potential ( Om_0 | Em_0 Em_1  )
{
	data = (((0.040000 0.960000)(0.080000 0.920000))((1.0 0.0)(1.0 0.0))) ;
}
potential ( Om_1 | Em_0 Em_1 Om_0  )
{
	data = ((((0.000000 1.000000)(1.0 0.0))((0.000000 1.000000)(1.0 0.0)))(((1.0 0.0)(1.0 0.0))((1.0 0.0)(1.0 0.0)))) ;
}
potential ( Rm_0 | Em_0 Em_1  )
{
	data = (((0.750000 0.250000)(0.800000 0.200000))((1.0 0.0)(1.0 0.0))) ;
}
potential ( Rm_1 | Em_0 Em_1 Rm_0  )
{
	data = ((((0.000000 1.000000)(1.0 0.0))((0.000000 1.000000)(1.0 0.0)))(((1.0 0.0)(1.0 0.0))((1.0 0.0)(1.0 0.0)))) ;
}
potential ( Tm_0 | Rm_0 Rm_1 Om_0 Om_1  )
{
	data = (((((0.520000 0.480000)(0.440000 0.560000))((0.420000 0.580000)(0.300000 0.700000)))(((1.0 0.0)(1.0 0.0))((1.0 0.0)(1.0 0.0))))((((1.0 0.0)(1.0 0.0))((1.0 0.0)(1.0 0.0)))(((1.0 0.0)(1.0 0.0))((1.0 0.0)(1.0 0.0))))) ;
}
potential ( Tm_1 | Rm_0 Rm_1 Om_0 Om_1 Tm_0  )
{
	data = ((((((0.192308 0.807692)(1.0 0.0))((0.181818 0.818182)(1.0 0.0)))(((0.428571 0.571429)(1.0 0.0))((0.300000 0.700000)(1.0 0.0))))((((1.0 0.0)(1.0 0.0))((1.0 0.0)(1.0 0.0)))(((1.0 0.0)(1.0 0.0))((1.0 0.0)(1.0 0.0)))))(((((1.0 0.0)(1.0 0.0))((1.0 0.0)(1.0 0.0)))(((1.0 0.0)(1.0 0.0))((1.0 0.0)(1.0 0.0))))((((1.0 0.0)(1.0 0.0))((1.0 0.0)(1.0 0.0)))(((1.0 0.0)(1.0 0.0))((1.0 0.0)(1.0 0.0)))))) ;
}
potential ( Tm_2 | Rm_0 Rm_1 Om_0 Om_1 Tm_1  )
{
	data = ((((((0.000000 1.000000)(1.0 0.0))((0.000000 1.000000)(1.0 0.0)))(((0.000000 1.000000)(1.0 0.0))((0.000000 1.000000)(1.0 0.0))))((((1.0 0.0)(1.0 0.0))((1.0 0.0)(1.0 0.0)))(((1.0 0.0)(1.0 0.0))((1.0 0.0)(1.0 0.0)))))(((((1.0 0.0)(1.0 0.0))((1.0 0.0)(1.0 0.0)))(((1.0 0.0)(1.0 0.0))((1.0 0.0)(1.0 0.0))))((((1.0 0.0)(1.0 0.0))((1.0 0.0)(1.0 0.0)))(((1.0 0.0)(1.0 0.0))((1.0 0.0)(1.0 0.0)))))) ;
}
